{"learner":{"attributes":{"scikit_learn":"{\"_estimator_type\": \"classifier\"}"},"feature_names":["home_rolling_runs_scored","home_rolling_runs_allowed","home_rolling_win_rate","home_rolling_run_diff","away_rolling_runs_scored","away_rolling_runs_allowed","away_rolling_win_rate","away_rolling_run_diff","win_rate_diff","run_diff_diff","runs_scored_diff","is_home","home_avg_era","home_avg_whip","home_avg_so9","home_avg_so_per_w","away_avg_era","away_avg_whip","away_avg_so9","away_avg_so_per_w","era_diff","whip_diff","so9_diff","home_starter_era","home_starter_whip","home_starter_k_per_9","home_starter_bb_per_9","home_starter_fip_proxy","away_starter_era","away_starter_whip","away_starter_k_per_9","away_starter_bb_per_9","away_starter_fip_proxy","starter_era_diff","starter_whip_diff","starter_k_diff","starter_fip_diff"],"feature_types":["float","float","float","float","float","float","float","float","float","float","float","int","float","float","float","float","float","float","float","float","float","float","float","float","float","float","float","float","float","float","float","float","float","float","float","float","float"],"gradient_booster":{"model":{"cats":{"enc":[],"feature_segments":[],"sorted_idx":[]},"gbtree_model_param":{"num_parallel_tree":"1","num_trees":"500"},"iteration_indptr":[0,1,2,3,4,5,6,7,8,9,10,11,12,13,14,15,16,17,18,19,20,21,22,23,24,25,26,27,28,29,30,31,32,33,34,35,36,37,38,39,40,41,42,43,44,45,46,47,48,49,50,51,52,53,54,55,56,57,58,59,60,61,62,63,64,65,66,67,68,69,70,71,72,73,74,75,76,77,78,79,80,81,82,83,84,85,86,87,88,89,90,91,92,93,94,95,96,97,98,99,100,101,102,103,104,105,106,107,108,109,110,111,112,113,114,115,116,117,118,119,120,121,122,123,124,125,126,127,128,129,130,131,132,133,134,135,136,137,138,139,140,141,142,143,144,145,146,147,148,149,150,151,152,153,154,155,156,157,158,159,160,161,162,163,164,165,166,167,168,169,170,171,172,173,174,175,176,177,178,179,180,181,182,183,184,185,186,187,188,189,190,191,192,193,194,195,196,197,198,199,200,201,202,203,204,205,206,207,208,209,210,211,212,213,214,215,216,217,218,219,220,221,222,223,224,225,226,227,228,229,230,231,232,233,234,235,236,237,238,239,240,241,242,243,244,245,246,247,248,249,250,251,252,253,254,255,256,257,258,259,260,261,262,263,264,265,266,267,268,269,270,271,272,273,274,275,276,277,278,279,280,281,282,283,284,285,286,287,288,289,290,291,292,293,294,295,296,297,298,299,300,301,302,303,304,305,306,307,308,309,310,311,312,313,314,315,316,317,318,319,320,321,322,323,324,325,326,327,328,329,330,331,332,333,334,335,336,337,338,339,340,341,342,343,344,345,346,347,348,349,350,351,352,353,354,355,356,357,358,359,360,361,362,363,364,365,366,367,368,369,370,371,372,373,374,375,376,377,378,379,380,381,382,383,384,385,386,387,388,389,390,391,392,393,394,395,396,397,398,399,400,401,402,403,404,405,406,407,408,409,410,411,412,413,414,415,416,417,418,419,420,421,422,423,424,425,426,427,428,429,430,431,432,433,434,435,436,437,438,439,440,441,442,443,444,445,446,447,448,449,450,451,452,453,454,455,456,457,458,459,460,461,462,463,464,465,466,467,468,469,470,471,472,473,474,475,476,477,478,479,480,481,482,483,484,485,486,487,488,489,490,491,492,493,494,495,496,497,498,499,500],"tree_info":[0,0,0,0,0,0,0,0,0,0,0,0,0,0,0,0,0,0,0,0,0,0,0,0,0,0,0,0,0,0,0,0,0,0,0,0,0,0,0,0,0,0,0,0,0,0,0,0,0,0,0,0,0,0,0,0,0,0,0,0,0,0,0,0,0,0,0,0,0,0,0,0,0,0,0,0,0,0,0,0,0,0,0,0,0,0,0,0,0,0,0,0,0,0,0,0,0,0,0,0,0,0,0,0,0,0,0,0,0,0,0,0,0,0,0,0,0,0,0,0,0,0,0,0,0,0,0,0,0,0,0,0,0,0,0,0,0,0,0,0,0,0,0,0,0,0,0,0,0,0,0,0,0,0,0,0,0,0,0,0,0,0,0,0,0,0,0,0,0,0,0,0,0,0,0,0,0,0,0,0,0,0,0,0,0,0,0,0,0,0,0,0,0,0,0,0,0,0,0,0,0,0,0,0,0,0,0,0,0,0,0,0,0,0,0,0,0,0,0,0,0,0,0,0,0,0,0,0,0,0,0,0,0,0,0,0,0,0,0,0,0,0,0,0,0,0,0,0,0,0,0,0,0,0,0,0,0,0,0,0,0,0,0,0,0,0,0,0,0,0,0,0,0,0,0,0,0,0,0,0,0,0,0,0,0,0,0,0,0,0,0,0,0,0,0,0,0,0,0,0,0,0,0,0,0,0,0,0,0,0,0,0,0,0,0,0,0,0,0,0,0,0,0,0,0,0,0,0,0,0,0,0,0,0,0,0,0,0,0,0,0,0,0,0,0,0,0,0,0,0,0,0,0,0,0,0,0,0,0,0,0,0,0,0,0,0,0,0,0,0,0,0,0,0,0,0,0,0,0,0,0,0,0,0,0,0,0,0,0,0,0,0,0,0,0,0,0,0,0,0,0,0,0,0,0,0,0,0,0,0,0,0,0,0,0,0,0,0,0,0,0,0,0,0,0,0,0,0,0,0,0,0,0,0,0,0,0,0,0,0,0,0,0,0,0,0,0,0,0,0,0,0,0,0,0,0,0,0,0,0,0,0,0,0,0,0,0,0,0,0,0,0,0,0,0,0,0,0,0,0,0,0,0,0,0,0,0,0,0,0,0,0,0,0,0,0,0,0,0,0],"trees":[{"base_weights":[7.128783E-4,-1.6400759E-1,3.753909E-1,-5.481893E-1,-5.9070103E-2,6.707577E-1,6.975298E-2,-3.2002968E-1,-8.738354E-1,2.760748E-2,-4.3577173E-1,5.289381E-1,1.0549451E0,-1.5718082E-1,3.048233E-1,1.2321242E-2,-2.4527887E-2,-5.3513028E-2,-2.396814E-2,7.3694647E-3,-7.641384E-3,-3.3661734E-2,-1.0634464E-2,1.521565E-2,3.7455063E-2,5.7894986E-2,1.9114103E-2,-2.8248668E-2,8.042268E-3,-1.7240545E-2,1.8662877E-2],"categories":[],"categories_nodes":[],"categories_segments":[],"categories_sizes":[],"default_left":[0,0,0,0,0,0,0,0,0,0,0,0,0,0,0,0,0,0,0,0,0,0,0,0,0,0,0,0,0,0,0],"id":0,"left_children":[1,3,5,7,9,11,13,15,17,19,21,23,25,27,29,-1,-1,-1,-1,-1,-1,-1,-1,-1,-1,-1,-1,-1,-1,-1,-1],"loss_changes":[7.342517E1,3.32839E1,3.275106E1,1.2884533E1,2.1242752E1,9.502327E0,9.6322775E0,1.0337024E1,5.098118E0,1.1467252E1,6.3030224E0,6.540634E0,2.9353485E0,1.2031958E1,4.0672235E0,0E0,0E0,0E0,0E0,0E0,0E0,0E0,0E0,0E0,0E0,0E0,0E0,0E0,0E0,0E0,0E0],"parents":[2147483647,0,0,1,1,2,2,3,3,4,4,5,5,6,6,7,7,8,8,9,9,10,10,11,11,12,12,13,13,14,14],"right_children":[2,4,6,8,10,12,14,16,18,20,22,24,26,28,30,-1,-1,-1,-1,-1,-1,-1,-1,-1,-1,-1,-1,-1,-1,-1,-1],"split_conditions":[4.5089287E-1,-6.3754815E-1,-5E-1,2.939624E0,1.375E0,1.6E0,5.1111114E-1,1.3404444E0,4.096667E0,4.2753334E0,4.357143E0,4.094249E0,3.4541428E-1,-5.714286E-1,6.8333335E0,1.2321242E-2,-2.4527887E-2,-5.3513028E-2,-2.396814E-2,7.3694647E-3,-7.641384E-3,-3.3661734E-2,-1.0634464E-2,1.521565E-2,3.7455063E-2,5.7894986E-2,1.9114103E-2,-2.8248668E-2,8.042268E-3,-1.7240545E-2,1.8662877E-2],"split_indices":[20,36,7,31,7,22,22,13,16,16,1,27,34,10,18,0,0,0,0,0,0,0,0,0,0,0,0,0,0,0,0],"split_type":[0,0,0,0,0,0,0,0,0,0,0,0,0,0,0,0,0,0,0,0,0,0,0,0,0,0,0,0,0,0,0],"sum_hessian":[1.1877072E3,8.25398E2,3.6230917E2,1.7617781E2,6.492202E2,1.8364296E2,1.786662E2,1.0476109E2,7.141671E1,5.285334E2,1.20686775E2,1.3586594E2,4.777703E1,9.107497E1,8.7591225E1,2.4137354E1,8.062374E1,4.6532837E1,2.4883871E1,3.1776703E2,2.1076639E2,5.7481743E1,6.3205032E1,6.843064E1,6.743529E1,4.0809547E1,6.967484E0,3.9565353E1,5.1509613E1,7.9628386E0,7.962839E1],"tree_param":{"num_deleted":"0","num_feature":"37","num_nodes":"31","size_leaf_vector":"1"}},{"base_weights":[-1.019186E-2,3.812025E-1,-1.8948406E-1,1.1640731E-1,6.854374E-1,-8.742683E-2,-5.3034365E-1,-6.171948E-1,2.1195711E-1,-2.1249421E-2,7.394945E-1,1.6009193E-2,-4.0837362E-1,-6.4896905E-1,1.3806246E-1,-4.2467363E-2,2.5681606E-3,4.37563E-2,7.960738E-3,3.1266484E-2,5.5410273E-2,1.956803E-2,-2.9787857E-3,1.4106755E-3,-2.6735548E-2,-5.4861765E-2,-2.8530372E-2,2.229641E-2,-3.6763E-2],"categories":[],"categories_nodes":[],"categories_segments":[],"categories_sizes":[],"default_left":[0,0,0,0,0,0,0,0,0,0,0,0,0,0,0,0,0,0,0,0,0,0,0,0,0,0,0,0,0],"id":1,"left_children":[1,3,5,7,9,11,13,15,17,-1,19,21,23,25,27,-1,-1,-1,-1,-1,-1,-1,-1,-1,-1,-1,-1,-1,-1],"loss_changes":[8.3513084E1,3.0041348E1,2.8345547E1,1.4227781E1,1.0746071E1,2.0897604E1,1.4985226E1,3.6803236E0,6.1103554E0,0E0,6.298126E0,1.3552804E1,8.477203E0,4.9844666E0,8.162689E0,0E0,0E0,0E0,0E0,0E0,0E0,0E0,0E0,0E0,0E0,0E0,0E0,0E0,0E0],"parents":[2147483647,0,0,1,1,2,2,3,3,4,4,5,5,6,6,7,7,8,8,10,10,11,11,12,12,13,13,14,14],"right_children":[2,4,6,8,10,12,14,16,18,-1,20,22,24,26,28,-1,-1,-1,-1,-1,-1,-1,-1,-1,-1,-1,-1,-1,-1],"split_conditions":[4.1666666E-1,4.5089287E-1,1.4666667E0,-8.34589E-1,0E0,1.360375E0,7.631746E-2,1.2666667E0,2.5132072E0,-2.1249421E-2,4.258876E0,7.7125E0,2.209E0,2.309E0,8E-1,-4.2467363E-2,2.5681606E-3,4.37563E-2,7.960738E-3,3.1266484E-2,5.5410273E-2,1.956803E-2,-2.9787857E-3,1.4106755E-3,-2.6735548E-2,-5.4861765E-2,-2.8530372E-2,2.229641E-2,-3.6763E-2],"split_indices":[6,20,7,36,8,13,21,9,31,0,27,18,15,15,6,0,0,0,0,0,0,0,0,0,0,0,0,0,0],"split_type":[0,0,0,0,0,0,0,0,0,0,0,0,0,0,0,0,0,0,0,0,0,0,0,0,0,0,0,0,0],"sum_hessian":[1.1880573E3,3.7289734E2,8.1516E2,2.0011072E2,1.7278662E2,6.282971E2,1.8686281E2,2.2431227E1,1.7767949E2,7.702489E0,1.6508412E2,4.7587906E2,1.5241808E2,1.587226E2,2.8140217E1,1.6449001E1,5.982227E0,1.1941217E1,1.6573827E2,1.2811238E2,3.6971745E1,7.906549E1,3.9681357E2,3.4381546E1,1.1803654E2,2.1683027E1,1.3703957E2,2.1167564E1,6.9726515E0],"tree_param":{"num_deleted":"0","num_feature":"37","num_nodes":"29","size_leaf_vector":"1"}},{"base_weights":[-1.1183744E-2,3.3824307E-1,-1.6908215E-1,-2.2217129E-1,4.5628273E-1,-4.696929E-2,-4.1884527E-1,-8.032983E-1,-7.736936E-2,3.1062135E-1,6.50493E-1,2.1663995E-2,-4.172513E-1,-9.7351897E-1,-3.2137692E-1,-1.6255926E-2,-5.6863498E-2,2.8484477E-2,-1.9942401E-2,1.8684048E-2,-1.9593084E-2,2.5580233E-2,4.927757E-2,1.5882786E-2,-2.800308E-3,-2.685293E-2,1.528192E-2,-2.7458891E-2,-6.9548376E-2,3.8851812E-2,-1.794762E-2],"categories":[],"categories_nodes":[],"categories_segments":[],"categories_sizes":[],"default_left":[0,0,0,0,0,0,0,0,0,0,0,0,0,0,0,0,0,0,0,0,0,0,0,0,0,0,0,0,0,0,0],"id":2,"left_children":[1,3,5,7,9,11,13,15,17,19,21,23,25,27,29,-1,-1,-1,-1,-1,-1,-1,-1,-1,-1,-1,-1,-1,-1,-1,-1],"loss_changes":[6.603052E1,2.4742004E1,2.5119171E1,5.4478426E0,8.511215E0,1.4106339E1,1.4312859E1,1.6990986E0,1.1361221E1,8.027891E0,5.5962715E0,1.0798205E1,7.6808043E0,6.3111687E0,9.837429E0,0E0,0E0,0E0,0E0,0E0,0E0,0E0,0E0,0E0,0E0,0E0,0E0,0E0,0E0,0E0,0E0],"parents":[2147483647,0,0,1,1,2,2,3,3,4,4,5,5,6,6,7,7,8,8,9,9,10,10,11,11,12,12,13,13,14,14],"right_children":[2,4,6,8,10,12,14,16,18,20,22,24,26,28,30,-1,-1,-1,-1,-1,-1,-1,-1,-1,-1,-1,-1,-1,-1,-1,-1],"split_conditions":[4.1666666E-1,-4.8666668E-1,1.3445E0,2.7272728E-1,2E0,1.7E0,-1.138062E0,3.2222223E0,3.6363637E-1,9.3333334E-1,1.6E0,7.857143E0,3.1333334E0,1.1428572E0,2.8E0,-1.6255926E-2,-5.6863498E-2,2.8484477E-2,-1.9942401E-2,1.8684048E-2,-1.9593084E-2,2.5580233E-2,4.927757E-2,1.5882786E-2,-2.800308E-3,-2.685293E-2,1.528192E-2,-2.7458891E-2,-6.9548376E-2,3.8851812E-2,-1.794762E-2],"split_indices":[6,20,13,6,9,7,36,4,6,3,22,18,7,7,0,0,0,0,0,0,0,0,0,0,0,0,0,0,0,0,0],"split_type":[0,0,0,0,0,0,0,0,0,0,0,0,0,0,0,0,0,0,0,0,0,0,0,0,0,0,0,0,0,0,0],"sum_hessian":[1.1947335E3,3.7148987E2,8.2324365E2,6.447954E1,3.070103E2,5.537132E2,2.695305E2,1.1954702E1,5.2524834E1,1.7691795E2,1.3009238E2,4.6792322E2,8.578999E1,3.8940346E1,2.3059013E2,5.72753E0,6.2271724E0,1.7177858E1,3.5346973E1,1.6277429E2,1.4143655E1,9.3755684E1,3.6336685E1,9.662126E1,3.7130194E2,7.3813644E1,1.1976351E1,2.045905E1,1.8481297E1,6.976367E0,2.2361377E2],"tree_param":{"num_deleted":"0","num_feature":"37","num_nodes":"31","size_leaf_vector":"1"}},{"base_weights":[1.6845554E-2,-1.3206775E-1,3.629854E-1,-2.464294E-2,-3.8683888E-1,5.7868266E-1,9.971483E-2,4.215314E-2,-4.3696627E-1,-8.921507E-1,-2.9951778E-1,5.3606415E-1,7.3885135E-2,-3.7793547E-1,4.013835E-1,1.0814216E-2,-2.879606E-3,-3.6367998E-2,-2.4420912E-3,-2.0258497E-2,-5.545677E-2,-1.7142152E-2,1.6733984E-2,1.0552528E-2,3.024895E-2,6.3899267E-3,-2.8688848E-2,8.925667E-3,3.725772E-2],"categories":[],"categories_nodes":[],"categories_segments":[],"categories_sizes":[],"default_left":[0,0,0,0,0,0,0,0,0,0,0,0,0,0,0,0,0,0,0,0,0,0,0,0,0,0,0,0,0],"id":3,"left_children":[1,3,5,7,9,11,13,15,17,19,21,23,-1,25,27,-1,-1,-1,-1,-1,-1,-1,-1,-1,-1,-1,-1,-1,-1],"loss_changes":[6.194403E1,2.298962E1,2.0469387E1,1.632776E1,1.0727356E1,6.812668E0,2.3782055E1,8.879667E0,9.279321E0,3.3766918E0,5.993761E0,4.151909E0,0E0,6.411751E0,7.605116E0,0E0,0E0,0E0,0E0,0E0,0E0,0E0,0E0,0E0,0E0,0E0,0E0,0E0,0E0],"parents":[2147483647,0,0,1,1,2,2,3,3,4,4,5,5,6,6,7,7,8,8,9,9,10,10,11,11,13,13,14,14],"right_children":[2,4,6,8,10,12,14,16,18,20,22,24,-1,26,28,-1,-1,-1,-1,-1,-1,-1,-1,-1,-1,-1,-1,-1,-1],"split_conditions":[4.5089287E-1,4.564961E0,7.9125E0,1.7E0,3.4285715E0,9.642858E0,-6.666667E-2,-2.6666668E-1,4.5384617E0,4.75E0,2.2E0,1.34E0,7.3885135E-2,2.6812732E0,1.8E0,1.0814216E-2,-2.879606E-3,-3.6367998E-2,-2.4420912E-3,-2.0258497E-2,-5.545677E-2,-1.7142152E-2,1.6733984E-2,1.0552528E-2,3.024895E-2,6.3899267E-3,-2.8688848E-2,8.925667E-3,3.725772E-2],"split_indices":[20,27,18,7,5,14,9,7,1,1,9,17,0,26,9,0,0,0,0,0,0,0,0,0,0,0,0,0,0],"split_type":[0,0,0,0,0,0,0,0,0,0,0,0,0,0,0,0,0,0,0,0,0,0,0,0,0,0,0,0,0],"sum_hessian":[1.1998206E3,8.3934375E2,3.604768E2,5.9117163E2,2.4817212E2,1.97482E2,1.629948E2,5.0952646E2,8.164515E1,3.52087E1,2.1296342E2,1.9006801E2,7.4139924E0,6.2996227E1,9.999857E1,1.85143E2,3.2438345E2,4.620251E1,3.544264E1,1.1736236E1,2.3472464E1,1.9977518E2,1.3188245E1,3.396168E1,1.5610632E2,1.7682087E1,4.5314144E1,6.1589054E1,3.840952E1],"tree_param":{"num_deleted":"0","num_feature":"37","num_nodes":"29","size_leaf_vector":"1"}},{"base_weights":[-1.1416661E-3,4.5189148E-1,-1.10401586E-1,2.804608E-1,8.075449E-1,-4.404279E-3,-4.4373456E-1,-2.9846396E-2,4.4592476E-1,4.0786284E-1,9.8324054E-1,7.386546E-2,-5.118844E-1,-1.0723286E0,-3.5418773E-1,2.6551602E-2,-1.1402352E-2,2.5162641E-2,-2.4759062E-2,3.745946E-2,-5.8865417E-3,3.034517E-2,5.9257E-2,1.9145741E-3,3.402177E-2,-3.0249098E-2,1.967391E-2,-6.2288404E-3,-6.404646E-2,-4.5472298E-2,-1.3556369E-2],"categories":[],"categories_nodes":[],"categories_segments":[],"categories_sizes":[],"default_left":[0,0,0,0,0,0,0,0,0,0,0,0,0,0,0,0,0,0,0,0,0,0,0,0,0,0,0,0,0,0,0],"id":4,"left_children":[1,3,5,7,9,11,13,15,17,19,21,23,25,27,29,-1,-1,-1,-1,-1,-1,-1,-1,-1,-1,-1,-1,-1,-1,-1,-1],"loss_changes":[5.9167904E1,1.3935043E1,3.4025696E1,8.139026E0,4.8665276E0,2.9102036E1,1.2698883E1,6.3437996E0,5.8214397E0,4.5040054E0,3.1860733E0,1.3672169E1,8.489832E0,5.470806E0,9.20208E0,0E0,0E0,0E0,0E0,0E0,0E0,0E0,0E0,0E0,0E0,0E0,0E0,0E0,0E0,0E0,0E0],"parents":[2147483647,0,0,1,1,2,2,3,3,4,4,5,5,6,6,7,7,8,8,9,9,10,10,11,11,12,12,13,13,14,14],"right_children":[2,4,6,8,10,12,14,16,18,20,22,24,26,28,30,-1,-1,-1,-1,-1,-1,-1,-1,-1,-1,-1,-1,-1,-1,-1,-1],"split_conditions":[-1.0833334E0,1.0761905E0,4.554657E0,-1.08333334E-1,3.0076115E0,1.7E0,3.723125E0,3.808E0,9.1E0,1.995E-1,1.4349207E0,3.3333334E-1,3.4666667E0,-1.25E-1,-1.1874329E0,2.6551602E-2,-1.1402352E-2,2.5162641E-2,-2.4759062E-2,3.745946E-2,-5.8865417E-3,3.034517E-2,5.9257E-2,1.9145741E-3,3.402177E-2,-3.0249098E-2,1.967391E-2,-6.2288404E-3,-6.404646E-2,-4.5472298E-2,-1.3556369E-2],"split_indices":[7,35,27,33,31,7,16,16,14,21,35,8,7,7,36,0,0,0,0,0,0,0,0,0,0,0,0,0,0,0,0],"split_type":[0,0,0,0,0,0,0,0,0,0,0,0,0,0,0,0,0,0,0,0,0,0,0,0,0,0,0,0,0,0,0],"sum_hessian":[1.1933428E3,2.312707E2,9.620721E2,1.5725827E2,7.401243E1,7.307215E2,2.3135059E2,5.497641E1,1.0228186E2,2.3614435E1,5.0397995E1,6.338205E2,9.690103E1,2.747919E1,2.038714E2,1.3916243E1,4.106017E1,9.684758E1,5.4342766E0,1.405897E1,9.555465E0,1.8995914E1,3.1402082E1,5.9971185E2,3.4108643E1,8.816672E1,8.734316E0,5.245243E0,2.2233948E1,2.5233864E1,1.7863754E2],"tree_param":{"num_deleted":"0","num_feature":"37","num_nodes":"31","size_leaf_vector":"1"}},{"base_weights":[8.1249524E-4,3.017523E-1,-1.4293526E-1,6.965607E-2,5.386781E-1,-5.7182934E-2,-4.9190903E-1,2.4140505E-1,-2.885162E-1,4.338394E-1,8.594591E-1,4.5221437E-2,-3.7836173E-1,-8.2249415E-1,-3.3789593E-1,1.9876126E-2,-4.479481E-3,1.8820567E-2,-1.949565E-2,5.632396E-3,2.6389897E-2,5.988113E-2,3.0022068E-2,8.089662E-4,3.6013663E-2,-1.0188177E-2,-2.8948862E-2,-4.731092E-2,-1.1656969E-2,2.3278443E-3,-3.0013267E-2],"categories":[],"categories_nodes":[],"categories_segments":[],"categories_sizes":[],"default_left":[0,0,0,0,0,0,0,0,0,0,0,0,0,0,0,0,0,0,0,0,0,0,0,0,0,0,0,0,0,0,0],"id":5,"left_children":[1,3,5,7,9,11,13,15,17,19,21,23,25,27,29,-1,-1,-1,-1,-1,-1,-1,-1,-1,-1,-1,-1,-1,-1,-1,-1],"loss_changes":[5.1684464E1,2.1200054E1,2.4167938E1,1.2141641E1,6.04945E0,2.1401896E1,7.835781E0,6.917775E0,4.4656715E0,4.3450756E0,3.3118172E0,9.671108E0,5.3916054E0,3.421608E0,1.1164828E1,0E0,0E0,0E0,0E0,0E0,0E0,0E0,0E0,0E0,0E0,0E0,0E0,0E0,0E0,0E0,0E0],"parents":[2147483647,0,0,1,1,2,2,3,3,4,4,5,5,6,6,7,7,8,8,9,9,10,10,11,11,12,12,13,13,14,14],"right_children":[2,4,6,8,10,12,14,16,18,20,22,24,26,28,30,-1,-1,-1,-1,-1,-1,-1,-1,-1,-1,-1,-1,-1,-1,-1,-1],"split_conditions":[-5.833333E-1,4.0041667E-1,1.5555556E0,4.609051E0,1.6E0,1.360375E0,3.808E0,4.1666666E-1,-8E-1,3.808E0,2.1477778E-1,2.0666666E0,4.1666666E-1,-4.75E-2,4.2727275E0,1.9876126E-2,-4.479481E-3,1.8820567E-2,-1.949565E-2,5.632396E-3,2.6389897E-2,5.988113E-2,3.0022068E-2,8.089662E-4,3.6013663E-2,-1.0188177E-2,-2.8948862E-2,-4.731092E-2,-1.1656969E-2,2.3278443E-3,-3.0013267E-2],"split_indices":[7,20,7,27,35,24,16,6,9,23,21,10,2,35,0,0,0,0,0,0,0,0,0,0,0,0,0,0,0,0,0],"split_type":[0,0,0,0,0,0,0,0,0,0,0,0,0,0,0,0,0,0,0,0,0,0,0,0,0,0,0,0,0,0,0],"sum_hessian":[1.1927593E3,3.8521085E2,8.0754846E2,1.9524236E2,1.8996848E2,6.4918896E2,1.5835948E2,1.321841E2,6.3058258E1,1.4494841E2,4.502007E1,4.9289423E2,1.5629477E2,4.894974E1,1.09409744E2,8.968306E1,4.250104E1,7.984725E0,5.5073532E1,3.330302E1,1.11645386E2,1.7955008E1,2.706506E1,4.735453E2,1.934892E1,8.464385E1,7.165092E1,3.995616E1,8.99358E0,4.471334E1,6.46964E1],"tree_param":{"num_deleted":"0","num_feature":"37","num_nodes":"31","size_leaf_vector":"1"}},{"base_weights":[-2.05183E-2,3.3496553E-1,-1.7973831E-1,-1.2364809E-1,4.4421244E-1,-2.5140208E-1,2.275027E-1,1.7834178E-1,-3.673786E-1,4.18165E-1,5.5613816E-2,-7.5543195E-1,-2.1966003E-1,2.640188E-2,4.856338E-1,4.0279396E-2,-1.292111E-2,-4.0673923E-2,-1.0888756E-4,4.3295518E-2,1.8936975E-2,1.0661352E-2,-4.9857605E-2,-6.0428134E-3,-1.8381245E-2,4.0166028E-2,-4.2915377E-3,-2.7077336E-2,3.183496E-2],"categories":[],"categories_nodes":[],"categories_segments":[],"categories_sizes":[],"default_left":[0,0,0,0,0,0,0,0,0,0,0,0,0,0,0,0,0,0,0,0,0,0,0,0,0,0,0,0,0],"id":6,"left_children":[1,3,5,7,9,11,13,15,17,19,-1,21,23,25,27,-1,-1,-1,-1,-1,-1,-1,-1,-1,-1,-1,-1,-1,-1],"loss_changes":[6.7209206E1,1.8459736E1,2.3989279E1,5.3247933E0,4.7012177E0,1.0998035E1,6.384347E0,9.13536E0,6.4933043E0,4.7445793E0,0E0,9.796417E0,9.573191E0,6.201154E0,8.709776E0,0E0,0E0,0E0,0E0,0E0,0E0,0E0,0E0,0E0,0E0,0E0,0E0,0E0,0E0],"parents":[2147483647,0,0,1,1,2,2,3,3,4,4,5,5,6,6,7,7,8,8,9,9,11,11,12,12,13,13,14,14],"right_children":[2,4,6,8,10,12,14,16,18,20,-1,22,24,26,28,-1,-1,-1,-1,-1,-1,-1,-1,-1,-1,-1,-1,-1,-1],"split_conditions":[4.1666666E-1,-4.6532467E-1,8.5535717E-1,3.6363637E-1,6.4E0,-1.1293602E0,5.0000125E-1,4.651474E0,3.8333333E0,-2.6666667E0,5.5613816E-2,0E0,5E0,-1.6877548E-1,3.3730912E0,4.0279396E-2,-1.292111E-2,-4.0673923E-2,-1.0888756E-4,4.3295518E-2,1.8936975E-2,1.0661352E-2,-4.9857605E-2,-6.0428134E-3,-1.8381245E-2,4.0166028E-2,-4.2915377E-3,-2.7077336E-2,3.183496E-2],"split_indices":[6,20,22,6,0,36,36,27,4,7,0,7,4,36,27,0,0,0,0,0,0,0,0,0,0,0,0,0,0],"split_type":[0,0,0,0,0,0,0,0,0,0,0,0,0,0,0,0,0,0,0,0,0,0,0,0,0,0,0,0,0],"sum_hessian":[1.1853751E3,3.66346E2,8.190292E2,7.045351E1,2.9589252E2,6.9679425E2,1.222349E2,3.1585878E1,3.886763E1,2.8635367E2,9.538831E0,3.9931152E1,6.568631E2,6.932698E1,5.2907925E1,1.2619005E1,1.8966873E1,1.6943426E1,2.1924204E1,2.147738E1,2.648763E2,7.9980354E0,3.1933117E1,3.949509E2,2.619122E2,7.973515E0,6.1353466E1,6.452029E0,4.6455894E1],"tree_param":{"num_deleted":"0","num_feature":"37","num_nodes":"29","size_leaf_vector":"1"}},{"base_weights":[-6.847139E-3,4.1759902E-1,-9.824614E-2,-1.3778296E-1,5.053139E-1,-1.6264075E-2,-4.4156337E-1,-4.2366388E-1,2.9321993E-2,-2.0495702E-2,5.553169E-1,9.691318E-2,-1.7898524E-1,-6.940221E-2,-3.8592044E-1,3.5575535E-3,-5.6473088E-2,3.012233E-2,-1.0838501E-2,2.794288E-2,3.0072082E-3,-1.0047041E-2,4.3335035E-2,-2.9471552E-2,-1.1054448E-2],"categories":[],"categories_nodes":[],"categories_segments":[],"categories_sizes":[],"default_left":[0,0,0,0,0,0,0,0,0,0,0,0,0,0,0,0,0,0,0,0,0,0,0,0,0],"id":7,"left_children":[1,3,5,7,9,11,13,15,-1,-1,17,19,21,-1,23,-1,-1,-1,-1,-1,-1,-1,-1,-1,-1],"loss_changes":[4.6772285E1,1.0476444E1,2.7912838E1,6.443772E0,8.680382E0,1.4783524E1,9.532726E0,7.7757754E0,0E0,0E0,6.518856E0,8.00955E0,7.733507E0,0E0,5.9731293E0,0E0,0E0,0E0,0E0,0E0,0E0,0E0,0E0,0E0,0E0],"parents":[2147483647,0,0,1,1,2,2,3,3,4,4,5,5,6,6,7,7,10,10,11,11,12,12,14,14],"right_children":[2,4,6,8,10,12,14,16,-1,-1,18,20,22,-1,24,-1,-1,-1,-1,-1,-1,-1,-1,-1,-1],"split_conditions":[3.6363637E-1,4.046103E0,1.413E0,1.6666666E0,7.07E0,5.833333E-1,4.663158E0,6.666667E-2,2.9321993E-2,-2.0495702E-2,4.866667E0,7.07E0,2.2666667E0,-6.940221E-2,4.142397E0,3.5575535E-3,-5.6473088E-2,3.012233E-2,-1.0838501E-2,2.794288E-2,3.0072082E-3,-1.0047041E-2,4.3335035E-2,-2.9471552E-2,-1.1054448E-2],"split_indices":[6,32,13,10,14,6,12,3,0,0,4,30,9,0,32,0,0,0,0,0,0,0,0,0,0],"split_type":[0,0,0,0,0,0,0,0,0,0,0,0,0,0,0,0,0,0,0,0,0,0,0,0,0],"sum_hessian":[1.2036016E3,2.126254E2,9.9097614E2,2.892308E1,1.8370232E2,8.0079785E2,1.9017828E2,2.1034782E1,7.8882966E0,9.143679E0,1.7455864E2,4.7253827E2,3.2825958E2,9.230074E0,1.8094821E2,1.2894209E1,8.140574E0,1.6472333E2,9.835316E0,3.3792313E1,4.3874597E2,3.223003E2,5.9592886E0,7.98208E1,1.0112741E2],"tree_param":{"num_deleted":"0","num_feature":"37","num_nodes":"25","size_leaf_vector":"1"}},{"base_weights":[-1.2429803E-2,2.8715137E-1,-1.4447534E-1,1.1771375E-1,5.782588E-1,-2.0106912E-1,1.7993753E-1,-1.4746198E-1,2.3301828E-1,4.843054E-1,9.196845E-1,-1.469689E-1,-5.123429E-1,-3.2167133E-2,2.3092061E-1,8.440269E-3,-2.5201757E-2,2.1882398E-2,-4.6524787E-3,6.337344E-2,2.1639386E-2,5.8372118E-2,2.0599827E-2,-2.1040237E-2,-3.9768587E-3,-4.4029344E-2,-2.043847E-2,5.0594023E-4,2.7850593E-2],"categories":[],"categories_nodes":[],"categories_segments":[],"categories_sizes":[],"default_left":[0,0,0,0,0,0,0,0,0,0,0,0,0,0,0,0,0,0,0,0,0,0,0,0,0,0,0,0,0],"id":8,"left_children":[1,3,5,7,9,11,13,15,17,19,21,23,25,-1,27,-1,-1,-1,-1,-1,-1,-1,-1,-1,-1,-1,-1,-1,-1],"loss_changes":[4.718863E1,1.793283E1,1.5236027E1,7.126052E0,3.8534164E0,1.180344E1,5.3322887E0,8.080748E0,1.0852271E1,3.7768078E0,3.0166607E0,1.1088984E1,3.6082878E0,0E0,8.421012E0,0E0,0E0,0E0,0E0,0E0,0E0,0E0,0E0,0E0,0E0,0E0,0E0,0E0,0E0],"parents":[2147483647,0,0,1,1,2,2,3,3,4,4,5,5,6,6,7,7,8,8,9,9,10,10,11,11,12,12,14,14],"right_children":[2,4,6,8,10,12,14,16,18,20,22,24,26,-1,28,-1,-1,-1,-1,-1,-1,-1,-1,-1,-1,-1,-1,-1,-1],"split_conditions":[4.1666666E-1,5.182737E-1,8.5535717E-1,-4.4733334E-1,9.235714E0,7.3333335E-1,3.3730912E0,4.428571E0,2.1688521E-1,2.857143E0,2.6456943E-1,-6.3754815E-1,1.243E0,-3.2167133E-2,5.380965E-1,8.440269E-3,-2.5201757E-2,2.1882398E-2,-4.6524787E-3,6.337344E-2,2.1639386E-2,5.8372118E-2,2.0599827E-2,-2.1040237E-2,-3.9768587E-3,-4.4029344E-2,-2.043847E-2,5.0594023E-4,2.7850593E-2],"split_indices":[6,36,22,20,14,6,27,0,36,4,34,36,13,0,36,0,0,0,0,0,0,0,0,0,0,0,0,0,0],"split_type":[0,0,0,0,0,0,0,0,0,0,0,0,0,0,0,0,0,0,0,0,0,0,0,0,0,0,0,0,0],"sum_hessian":[1.1908378E3,3.6394806E2,8.268897E2,2.309368E2,1.3301125E2,7.0438934E2,1.2250041E2,6.990087E1,1.6103593E2,1.0620444E2,2.6806812E1,6.0134595E2,1.0304337E2,6.466118E0,1.16034294E2,3.732317E1,3.25777E1,9.873244E1,6.230349E1,5.0983057E0,1.0110613E2,1.7141855E1,9.664958E0,1.1778566E2,4.8356027E2,2.0973248E1,8.207013E1,6.980154E1,4.6232758E1],"tree_param":{"num_deleted":"0","num_feature":"37","num_nodes":"29","size_leaf_vector":"1"}},{"base_weights":[-1.6621405E-2,2.7134138E-1,-1.4614694E-1,-1.332394E-1,3.7471104E-1,-4.1366883E-2,-3.6204892E-1,-5.5114657E-1,3.767294E-2,2.6129067E-1,5.513572E-1,2.4376133E-2,-4.316134E-1,-8.271731E-1,-2.8351527E-1,-4.2110804E-2,1.01960935E-2,1.9585257E-2,-1.6658789E-2,3.777607E-2,9.287269E-3,1.4280276E-3,3.2897096E-2,3.2625124E-3,-2.358163E-2,2.7625684E-2,-2.574565E-2,-4.722252E-3,-5.155326E-2,3.2523546E-2,-1.5612261E-2],"categories":[],"categories_nodes":[],"categories_segments":[],"categories_sizes":[],"default_left":[0,0,0,0,0,0,0,0,0,0,0,0,0,0,0,0,0,0,0,0,0,0,0,0,0,0,0,0,0,0,0],"id":9,"left_children":[1,3,5,7,9,11,13,15,17,19,21,23,25,27,29,-1,-1,-1,-1,-1,-1,-1,-1,-1,-1,-1,-1,-1,-1,-1,-1],"loss_changes":[4.4537376E1,1.5544012E1,1.8615162E1,5.458539E0,5.773361E0,1.4264462E1,9.589779E0,5.042518E0,7.3476286E0,6.6461782E0,6.3661613E0,9.689769E0,6.855399E0,5.629015E0,6.418337E0,0E0,0E0,0E0,0E0,0E0,0E0,0E0,0E0,0E0,0E0,0E0,0E0,0E0,0E0,0E0,0E0],"parents":[2147483647,0,0,1,1,2,2,3,3,4,4,5,5,6,6,7,7,8,8,9,9,10,10,11,11,12,12,13,13,14,14],"right_children":[2,4,6,8,10,12,14,16,18,20,22,24,26,28,30,-1,-1,-1,-1,-1,-1,-1,-1,-1,-1,-1,-1,-1,-1,-1,-1],"split_conditions":[4.1666666E-1,-4.5458648E-1,1.3445E0,4.4E0,5.915705E-1,1.8E0,3.7433333E0,5.3636365E0,8.533334E0,2.6485083E0,-2.5E-1,5.625E0,3.090909E0,-3.0662858E-1,-3E0,-4.2110804E-2,1.01960935E-2,1.9585257E-2,-1.6658789E-2,3.777607E-2,9.287269E-3,1.4280276E-3,3.2897096E-2,3.2625124E-3,-2.358163E-2,2.7625684E-2,-2.574565E-2,-4.722252E-3,-5.155326E-2,3.2523546E-2,-1.5612261E-2],"split_indices":[6,20,13,5,36,7,16,1,18,31,10,4,1,21,10,0,0,0,0,0,0,0,0,0,0,0,0,0,0,0,0],"split_type":[0,0,0,0,0,0,0,0,0,0,0,0,0,0,0,0,0,0,0,0,0,0,0,0,0,0,0,0,0,0,0],"sum_hessian":[1.1920153E3,3.6948242E2,8.2253284E2,7.513214E1,2.9435028E2,5.5457965E2,2.679532E2,2.11623E1,5.396984E1,1.807647E2,1.13585594E2,4.7542462E2,7.9155045E1,3.7329906E1,2.3062328E2,1.5190959E1,5.9713416E0,2.7582172E1,2.6387669E1,2.2773766E1,1.5799092E2,1.9450254E1,9.413534E1,4.400318E2,3.539283E1,5.7375093E0,7.3417534E1,8.444843E0,2.8885063E1,6.2365756E0,2.2438669E2],"tree_param":{"num_deleted":"0","num_feature":"37","num_nodes":"31","size_leaf_vector":"1"}},{"base_weights":[-9.675287E-3,2.7055237E-1,-1.3646287E-1,3.0527002E-1,-7.47264E-1,-1.9407788E-1,1.9187291E-1,3.946208E-2,3.805588E-1,-1.5329753E-2,-5.123041E-2,-6.601332E-1,-1.6522932E-1,-1.0719603E-2,4.343665E-1,-2.3740483E-2,9.134962E-3,3.8313202E-3,2.2035737E-2,-2.213149E-3,-4.1507043E-2,-9.01764E-3,2.067219E-2,9.9063665E-3,-1.8271927E-2,3.013941E-2,-1.9775046E-2],"categories":[],"categories_nodes":[],"categories_segments":[],"categories_sizes":[],"default_left":[0,0,0,0,0,0,0,0,0,0,0,0,0,0,0,0,0,0,0,0,0,0,0,0,0,0,0],"id":10,"left_children":[1,3,5,7,9,11,13,15,17,-1,-1,19,21,23,25,-1,-1,-1,-1,-1,-1,-1,-1,-1,-1,-1,-1],"loss_changes":[4.1875828E1,1.320216E1,1.5387044E1,7.104561E0,1.2014408E0,9.17865E0,5.980173E0,5.953319E0,5.032879E0,0E0,0E0,4.1443768E0,5.7793427E0,5.054012E0,7.9799366E0,0E0,0E0,0E0,0E0,0E0,0E0,0E0,0E0,0E0,0E0,0E0,0E0],"parents":[2147483647,0,0,1,1,2,2,3,3,4,4,5,5,6,6,7,7,8,8,11,11,12,12,13,13,14,14],"right_children":[2,4,6,8,10,12,14,16,18,-1,-1,20,22,24,26,-1,-1,-1,-1,-1,-1,-1,-1,-1,-1,-1,-1],"split_conditions":[4.2857143E-1,3.9901185E0,8.5535717E-1,-5.1111114E-1,3.276361E0,-1.138062E0,4.588889E0,4.142857E0,3.794375E0,-1.5329753E-2,-5.123041E-2,2.5799038E0,2.1333334E0,1.3913461E0,4.3891644E0,-2.3740483E-2,9.134962E-3,3.8313202E-3,2.2035737E-2,-2.213149E-3,-4.1507043E-2,-9.01764E-3,2.067219E-2,9.9063665E-3,-1.8271927E-2,3.013941E-2,-1.9775046E-2],"split_indices":[6,26,22,22,31,36,16,5,12,0,0,31,10,22,27,0,0,0,0,0,0,0,0,0,0,0,0],"split_type":[0,0,0,0,0,0,0,0,0,0,0,0,0,0,0,0,0,0,0,0,0,0,0,0,0,0,0],"sum_hessian":[1.176586E3,3.661601E2,8.10426E2,3.5475934E2,1.1400743E1,6.8979285E2,1.2063312E2,7.864087E1,2.7611847E2,5.216991E0,6.183752E0,3.8933308E1,6.5085956E2,6.624455E1,5.4388565E1,1.6627487E1,6.2013382E1,4.5996952E1,2.3012154E2,8.695028E0,3.023828E1,6.3495355E2,1.5906002E1,4.1973423E1,2.4271132E1,4.5440117E1,8.948447E0],"tree_param":{"num_deleted":"0","num_feature":"37","num_nodes":"27","size_leaf_vector":"1"}},{"base_weights":[3.0442635E-3,5.998507E-2,-4.321407E-1,3.1542364E-1,-1.9702876E-3,-5.320701E-1,1.3709654E-1,3.987708E-1,-6.685264E-2,6.759293E-2,-2.2842157E-1,2.1457207E-1,-6.119474E-1,2.7606938E-2,-1.492929E-2,8.895512E-3,2.8818464E-2,-1.822667E-2,3.1766925E-2,4.912127E-3,-2.041506E-2,-2.489152E-2,-7.014063E-3,4.773111E-2,-2.7926385E-2,-1.6776582E-2,-3.6701795E-2],"categories":[],"categories_nodes":[],"categories_segments":[],"categories_sizes":[],"default_left":[0,0,0,0,0,0,0,0,0,0,0,0,0,0,0,0,0,0,0,0,0,0,0,0,0,0,0],"id":11,"left_children":[1,3,5,7,9,11,13,15,17,19,21,23,25,-1,-1,-1,-1,-1,-1,-1,-1,-1,-1,-1,-1,-1,-1],"loss_changes":[2.9234379E1,1.6510351E1,7.8377934E0,6.5150375E0,1.3256741E1,7.068878E0,3.9947448E0,6.4610386E0,8.030185E0,9.430729E0,4.626194E0,7.3886685E0,3.3087082E0,0E0,0E0,0E0,0E0,0E0,0E0,0E0,0E0,0E0,0E0,0E0,0E0,0E0,0E0],"parents":[2147483647,0,0,1,1,2,2,3,3,4,4,5,5,6,6,7,7,8,8,9,9,10,10,11,11,12,12],"right_children":[2,4,6,8,10,12,14,16,18,20,22,24,26,-1,-1,-1,-1,-1,-1,-1,-1,-1,-1,-1,-1,-1,-1],"split_conditions":[1.7E0,3.6363637E-1,6.6666665E0,4.609051E0,1.360375E0,3.794375E0,-3.2E0,3.3333334E-1,1.4663334E0,5.6666665E0,4.428571E0,-9.230769E-1,-1.7333333E0,2.7606938E-2,-1.492929E-2,8.895512E-3,2.8818464E-2,-1.822667E-2,3.1766925E-2,4.912127E-3,-2.041506E-2,-2.489152E-2,-7.014063E-3,4.773111E-2,-2.7926385E-2,-1.6776582E-2,-3.6701795E-2],"split_indices":[7,6,4,27,24,12,9,6,17,4,1,10,10,0,0,0,0,0,0,0,0,0,0,0,0,0,0],"split_type":[0,0,0,0,0,0,0,0,0,0,0,0,0,0,0,0,0,0,0,0,0,0,0,0,0,0,0],"sum_hessian":[1.1777212E3,1.0422168E3,1.3550438E2,2.0264233E2,8.3957446E2,1.153245E2,2.0179874E1,1.663337E2,3.6308655E1,6.4281165E2,1.967628E2,1.0982339E1,1.04342155E2,1.0197847E1,9.982028E0,7.502933E1,9.130436E1,2.5836582E1,1.0472071E1,6.046624E2,3.8149273E1,4.735865E1,1.4940416E2,5.4911423E0,5.4911966E0,3.311533E1,7.122683E1],"tree_param":{"num_deleted":"0","num_feature":"37","num_nodes":"27","size_leaf_vector":"1"}},{"base_weights":[4.7199186E-3,2.6745704E-1,-1.1241916E-1,-4.9875546E-1,3.0500057E-1,4.431889E-2,-2.3432235E-1,7.759771E-3,-4.2720523E-2,3.5172182E-1,-7.528739E-2,-3.730322E-3,6.243352E-1,-2.5405657E-1,4.663244E-2,1.0325689E-2,2.5206277E-2,2.0823222E-2,-2.1661954E-2,3.0289865E-3,-2.1567447E-2,4.995322E-2,1.2492815E-2,-3.0657006E-2,-1.0083722E-2],"categories":[],"categories_nodes":[],"categories_segments":[],"categories_sizes":[],"default_left":[0,0,0,0,0,0,0,0,0,0,0,0,0,0,0,0,0,0,0,0,0,0,0,0,0],"id":12,"left_children":[1,3,5,7,9,11,13,-1,-1,15,17,19,21,23,-1,-1,-1,-1,-1,-1,-1,-1,-1,-1,-1],"loss_changes":[3.64441E1,1.06558075E1,1.565943E1,4.1876774E0,6.2220764E0,1.0011834E1,1.0850424E1,0E0,0E0,6.772335E0,7.041308E0,9.174768E0,3.6069908E0,8.415716E0,0E0,0E0,0E0,0E0,0E0,0E0,0E0,0E0,0E0,0E0,0E0],"parents":[2147483647,0,0,1,1,2,2,3,3,4,4,5,5,6,6,9,9,10,10,11,11,12,12,13,13],"right_children":[2,4,6,8,10,12,14,-1,-1,16,18,20,22,24,-1,-1,-1,-1,-1,-1,-1,-1,-1,-1,-1],"split_conditions":[4.1666666E-1,2.209E0,4.2096834E0,4.105E0,-1.6666667E-1,5.2033334E0,2.5786668E-1,7.759771E-3,-4.2720523E-2,1.3455E0,4.068333E0,1.8181819E0,7.481818E0,3.7871428E0,4.663244E-2,1.0325689E-2,2.5206277E-2,2.0823222E-2,-2.1661954E-2,3.0289865E-3,-2.1567447E-2,4.995322E-2,1.2492815E-2,-3.0657006E-2,-1.0083722E-2],"split_indices":[6,15,27,16,7,16,21,0,0,17,12,7,18,16,0,0,0,0,0,0,0,0,0,0,0],"split_type":[0,0,0,0,0,0,0,0,0,0,0,0,0,0,0,0,0,0,0,0,0,0,0,0,0],"sum_hessian":[1.1821656E3,3.641383E2,8.180273E2,1.6435122E1,3.477032E2,3.5815848E2,4.5986884E2,5.988171E0,1.044695E1,3.097261E2,3.797709E1,3.3167566E2,2.6482819E1,4.5299075E2,6.878072E0,1.5981334E2,1.4991277E2,1.5929616E1,2.2047472E1,2.8906168E2,4.2613983E1,1.2403327E1,1.4079492E1,5.6305725E1,3.9668503E2],"tree_param":{"num_deleted":"0","num_feature":"37","num_nodes":"25","size_leaf_vector":"1"}},{"base_weights":[2.3209495E-3,-8.2325324E-2,3.225211E-1,1.3997652E-1,-1.5945604E-1,8.18715E-2,4.979388E-1,-5.618222E-1,1.8868369E-1,-7.922193E-1,-1.4229332E-1,7.7933615E-1,-6.6261953E-3,7.4863476E-1,2.6298156E-1,-2.261297E-4,-4.9762663E-2,-5.40287E-3,1.3313772E-2,-1.0835897E-2,-5.850264E-2,-1.557525E-2,-4.2057517E-3,1.2619051E-2,5.7523914E-2,-9.548071E-3,1.7334575E-2,4.0995847E-2,-5.384564E-3,-2.4601223E-2,1.8053066E-2],"categories":[],"categories_nodes":[],"categories_segments":[],"categories_sizes":[],"default_left":[0,0,0,0,0,0,0,0,0,0,0,0,0,0,0,0,0,0,0,0,0,0,0,0,0,0,0,0,0,0,0],"id":13,"left_children":[1,3,5,7,9,11,13,15,17,19,21,23,25,27,29,-1,-1,-1,-1,-1,-1,-1,-1,-1,-1,-1,-1,-1,-1,-1,-1],"loss_changes":[3.2116066E1,1.6091908E1,1.04176655E1,8.376377E0,7.448593E0,6.5262456E0,8.231983E0,3.8490896E0,5.255213E0,3.6967888E0,6.659066E0,2.037825E0,6.2368245E0,4.281105E0,5.7617517E0,0E0,0E0,0E0,0E0,0E0,0E0,0E0,0E0,0E0,0E0,0E0,0E0,0E0,0E0,0E0,0E0],"parents":[2147483647,0,0,1,1,2,2,3,3,4,4,5,5,6,6,7,7,8,8,9,9,10,10,11,11,12,12,13,13,14,14],"right_children":[2,4,6,8,10,12,14,16,18,20,22,24,26,28,30,-1,-1,-1,-1,-1,-1,-1,-1,-1,-1,-1,-1,-1,-1,-1,-1],"split_conditions":[8.5535717E-1,4.2857143E-1,5.380965E-1,2.209E0,-2.8E0,-1.6877548E-1,8.933956E-1,4E-1,2.7272728E-1,-6.3754815E-1,3.5384614E0,1.311625E0,9.633333E-2,3.16E0,1.338125E0,-2.261297E-4,-4.9762663E-2,-5.40287E-3,1.3313772E-2,-1.0835897E-2,-5.850264E-2,-1.557525E-2,-4.2057517E-3,1.2619051E-2,5.7523914E-2,-9.548071E-3,1.7334575E-2,4.0995847E-2,-5.384564E-3,-2.4601223E-2,1.8053066E-2],"split_indices":[35,6,36,15,3,36,36,10,6,36,5,17,21,19,17,0,0,0,0,0,0,0,0,0,0,0,0,0,0,0,0],"split_type":[0,0,0,0,0,0,0,0,0,0,0,0,0,0,0,0,0,0,0,0,0,0,0,0,0,0,0,0,0,0,0],"sum_hessian":[1.182951E3,9.3620435E2,2.4674673E2,2.4094664E2,6.9525775E2,1.04649025E2,1.420977E2,1.4953531E1,2.259931E2,1.716728E1,6.7809045E2,1.0904287E1,9.3744736E1,6.7688644E1,7.440906E1,6.9840155E0,7.9695153E0,4.676248E1,1.7923062E2,7.4275317E0,9.739749E0,1.7237708E2,5.0571338E2,5.200509E0,5.7037783E0,6.1906162E1,3.1838572E1,6.252636E1,5.1622877E0,8.093061E0,6.6315994E1],"tree_param":{"num_deleted":"0","num_feature":"37","num_nodes":"31","size_leaf_vector":"1"}},{"base_weights":[1.7567875E-2,3.2850593E-1,-5.7459556E-2,3.8641196E-1,-1.4381436E-1,-8.151908E-2,5.302794E-1,2.998272E-1,7.689548E-1,-4.4245467E-1,2.2413008E-2,-2.938178E-1,-2.1698594E-2,1.7254084E-2,8.3361465E-1,2.4889402E-2,7.829659E-3,2.3597695E-2,5.978042E-2,-2.3590783E-3,-4.783094E-2,-8.535223E-3,-4.2369556E-2,1.1548451E-2,-4.1642627E-3,-2.5315715E-2,2.1824446E-2,5.734631E-2,1.9250793E-2],"categories":[],"categories_nodes":[],"categories_segments":[],"categories_sizes":[],"default_left":[0,0,0,0,0,0,0,0,0,0,0,0,0,0,0,0,0,0,0,0,0,0,0,0,0,0,0,0,0],"id":14,"left_children":[1,3,5,7,9,11,13,15,17,19,-1,21,23,25,27,-1,-1,-1,-1,-1,-1,-1,-1,-1,-1,-1,-1,-1,-1],"loss_changes":[2.776687E1,6.383318E0,1.3605117E1,6.6047344E0,4.794811E0,1.1705605E1,5.8756866E0,4.7399683E0,4.181095E0,3.5690038E0,0E0,1.3666605E1,1.1231897E1,3.532094E0,2.89855E0,0E0,0E0,0E0,0E0,0E0,0E0,0E0,0E0,0E0,0E0,0E0,0E0,0E0,0E0],"parents":[2147483647,0,0,1,1,2,2,3,3,4,4,5,5,6,6,7,7,8,8,9,9,11,11,12,12,13,13,14,14],"right_children":[2,4,6,8,10,12,14,16,18,20,-1,22,24,26,28,-1,-1,-1,-1,-1,-1,-1,-1,-1,-1,-1,-1,-1,-1],"split_conditions":[-1.0833334E0,5.3544445E0,2.0666666E0,5.0666666E0,-1.5333333E0,-1.3062857E-1,8.288889E0,7.5E-1,-6.666667E-1,4.0666666E0,2.2413008E-2,6E-1,7.757143E0,2.82E0,3.2823224E0,2.4889402E-2,7.829659E-3,2.3597695E-2,5.978042E-2,-2.3590783E-3,-4.783094E-2,-8.535223E-3,-4.2369556E-2,1.1548451E-2,-4.1642627E-3,-2.5315715E-2,2.1824446E-2,5.734631E-2,1.9250793E-2],"split_indices":[7,12,10,1,7,21,14,10,3,4,0,2,30,19,31,0,0,0,0,0,0,0,0,0,0,0,0,0,0],"split_type":[0,0,0,0,0,0,0,0,0,0,0,0,0,0,0,0,0,0,0,0,0,0,0,0,0,0,0,0,0],"sum_hessian":[1.1884265E3,2.3036024E2,9.580662E2,2.0536462E2,2.4995623E1,9.2121686E2,3.684939E1,1.6891595E2,3.6448677E1,1.6783028E1,8.212596E0,2.0165297E2,7.1956384E2,1.4084841E1,2.276455E1,6.9871956E1,9.904399E1,2.2731241E1,1.3717436E1,1.0105784E1,6.6772428E0,1.6603546E2,3.5617508E1,1.4047908E2,5.790848E2,6.1707215E0,7.914119E0,1.2486799E1,1.0277749E1],"tree_param":{"num_deleted":"0","num_feature":"37","num_nodes":"29","size_leaf_vector":"1"}},{"base_weights":[-9.698415E-3,2.7508602E-1,-6.7997746E-2,-2.3596022E-1,3.599719E-1,-2.828279E-1,-1.2288351E-2,-8.5142547E-1,1.9912606E-1,4.8727494E-1,1.19609535E-1,-5.6412405E-1,-1.6240431E-1,-2.1750173E-1,3.4351625E-2,-7.629533E-2,3.322968E-4,-1.2101464E-2,3.9788373E-2,1.5592739E-2,4.264314E-2,-4.780309E-2,1.4213155E-2,-3.8205918E-2,6.997442E-4,-3.315049E-2,-4.5706136E-3,3.8411148E-2,-1.3371169E-2,-2.9524747E-2,2.4513288E-3],"categories":[],"categories_nodes":[],"categories_segments":[],"categories_sizes":[],"default_left":[0,0,0,0,0,0,0,0,0,0,0,0,0,0,0,0,0,0,0,0,0,0,0,0,0,0,0,0,0,0,0],"id":15,"left_children":[1,3,5,7,9,11,13,15,17,19,21,23,25,27,29,-1,-1,-1,-1,-1,-1,-1,-1,-1,-1,-1,-1,-1,-1,-1,-1],"loss_changes":[1.9630266E1,8.800996E0,1.1740825E1,7.995055E0,5.2260475E0,6.7518883E0,7.475641E0,7.1244707E0,4.9122705E0,6.9536877E0,1.1097124E1,6.96603E0,5.0167665E0,7.3227353E0,5.8667293E0,0E0,0E0,0E0,0E0,0E0,0E0,0E0,0E0,0E0,0E0,0E0,0E0,0E0,0E0,0E0,0E0],"parents":[2147483647,0,0,1,1,2,2,3,3,4,4,5,5,6,6,7,7,8,8,9,9,10,10,11,11,12,12,13,13,14,14],"right_children":[2,4,6,8,10,12,14,16,18,20,22,24,26,28,30,-1,-1,-1,-1,-1,-1,-1,-1,-1,-1,-1,-1,-1,-1,-1,-1],"split_conditions":[3.6363637E-1,4.046103E0,2.5171428E0,3.2785714E0,4.5375E0,3.75E0,-1.2E0,1.3042E0,1.0666667E0,4.142397E0,4.258876E0,4.3355775E0,-1.7048571E0,-3.1333334E0,-2.43E-1,-7.629533E-2,3.322968E-4,-1.2101464E-2,3.9788373E-2,1.5592739E-2,4.264314E-2,-4.780309E-2,1.4213155E-2,-3.8205918E-2,6.997442E-4,-3.315049E-2,-4.5706136E-3,3.8411148E-2,-1.3371169E-2,-2.9524747E-2,2.4513288E-3],"split_indices":[6,32,15,19,12,5,10,24,10,27,27,32,20,10,34,0,0,0,0,0,0,0,0,0,0,0,0,0,0,0,0],"split_type":[0,0,0,0,0,0,0,0,0,0,0,0,0,0,0,0,0,0,0,0,0,0,0,0,0,0,0,0,0,0,0],"sum_hessian":[1.1802242E3,1.9992055E2,9.8030365E2,2.8223614E1,1.7169693E2,2.0102422E2,7.792795E2,1.1292515E1,1.6931099E1,1.1157582E2,6.0121113E1,5.915657E1,1.4186765E2,1.4363403E2,6.3564545E2,5.886877E0,5.4056373E0,1.00755825E1,6.8555174E0,7.6649895E1,3.4925922E1,7.3430333E0,5.277808E1,4.371283E1,1.5443742E1,1.6584146E1,1.252835E2,6.2300663E0,1.3740398E2,1.3685614E1,6.219598E2],"tree_param":{"num_deleted":"0","num_feature":"37","num_nodes":"31","size_leaf_vector":"1"}},{"base_weights":[3.6062154E-3,2.0339596E-1,-1.2778313E-1,2.3447824E-1,-4.9466354E-1,-7.159153E-1,-1.0025913E-1,1.4762232E-1,4.599953E-1,9.491574E-3,-9.495544E-1,-8.861138E-3,-9.0549964E-1,-5.881879E-2,-3.273099E-1,5.0923224E-3,2.9151117E-2,2.9249117E-2,-4.3753255E-3,-6.583943E-2,-2.340903E-2,-2.5637297E-2,-5.6481447E-2,-2.2093242E-3,-3.6004774E-2,1.4410557E-2,-1.8695695E-2],"categories":[],"categories_nodes":[],"categories_segments":[],"categories_sizes":[],"default_left":[0,0,0,0,0,0,0,0,0,0,0,0,0,0,0,0,0,0,0,0,0,0,0,0,0,0,0],"id":16,"left_children":[1,3,5,7,9,11,13,15,17,-1,19,-1,21,23,25,-1,-1,-1,-1,-1,-1,-1,-1,-1,-1,-1,-1],"loss_changes":[3.1047928E1,1.0297108E1,1.1478869E1,8.744711E0,6.5086727E0,3.0807838E0,6.405305E0,6.443737E0,8.579411E0,0E0,1.5714121E0,0E0,1.4658585E0,5.567071E0,3.124608E0,0E0,0E0,0E0,0E0,0E0,0E0,0E0,0E0,0E0,0E0,0E0,0E0],"parents":[2147483647,0,0,1,1,2,2,3,3,4,4,5,5,6,6,7,7,8,8,10,10,12,12,13,13,14,14],"right_children":[2,4,6,8,10,12,14,16,18,-1,20,-1,22,24,26,-1,-1,-1,-1,-1,-1,-1,-1,-1,-1,-1,-1],"split_conditions":[-2.6666668E-1,3.9137628E0,-1.1874329E0,1.02E0,3.1241238E0,-1.7333333E0,7.2727275E-1,5.733333E0,-6.4285713E-1,9.491574E-3,4.554657E0,-8.861138E-3,1.2032857E0,6.571429E0,3.2E0,5.0923224E-3,2.9151117E-2,2.9249117E-2,-4.3753255E-3,-6.583943E-2,-2.340903E-2,-2.5637297E-2,-5.6481447E-2,-2.2093242E-3,-3.6004774E-2,1.4410557E-2,-1.8695695E-2],"split_indices":[7,26,36,22,31,10,6,1,7,0,32,0,17,1,0,0,0,0,0,0,0,0,0,0,0,0,0],"split_type":[0,0,0,0,0,0,0,0,0,0,0,0,0,0,0,0,0,0,0,0,0,0,0,0,0,0,0],"sum_hessian":[1.1807772E3,4.682347E2,7.1254254E2,4.489103E2,1.9324396E1,3.0737328E1,6.8180524E2,3.2528445E2,1.2362587E2,7.9477468E0,1.137665E1,8.505175E0,2.2232153E1,5.776365E2,1.0416872E2,2.9545557E2,2.9828865E1,1.0059336E2,2.3032515E1,5.468962E0,5.907687E0,9.272018E0,1.2960134E1,5.6617535E2,1.1461148E1,6.9670663E0,9.7201645E1],"tree_param":{"num_deleted":"0","num_feature":"37","num_nodes":"27","size_leaf_vector":"1"}},{"base_weights":[1.9590257E-2,-4.5700822E-2,3.1804374E-1,2.5227362E-2,-2.5285888E-1,3.5312402E-1,-2.9487325E-2,2.681114E-1,-5.5378195E-2,-1.3174768E-1,-4.1922367E-1,6.037431E-1,2.0942353E-1,2.5946781E-2,6.20885E-3,1.412517E-2,-4.746803E-3,8.413011E-3,-1.4510547E-2,-3.3033773E-2,4.149464E-3,1.139995E-2,4.0827636E-2,-5.0235973E-3,2.164617E-2],"categories":[],"categories_nodes":[],"categories_segments":[],"categories_sizes":[],"default_left":[0,0,0,0,0,0,0,0,0,0,0,0,0,0,0,0,0,0,0,0,0,0,0,0,0],"id":17,"left_children":[1,3,5,7,9,11,-1,13,15,17,19,21,23,-1,-1,-1,-1,-1,-1,-1,-1,-1,-1,-1,-1],"loss_changes":[2.2828192E1,1.4133718E1,6.9044743E0,1.4055165E1,4.8877096E0,7.187092E0,0E0,6.3931074E0,7.234856E0,6.867489E0,1.2531841E1,5.6889896E0,9.089034E0,0E0,0E0,0E0,0E0,0E0,0E0,0E0,0E0,0E0,0E0,0E0,0E0],"parents":[2147483647,0,0,1,1,2,2,3,3,4,4,5,5,7,7,8,8,9,9,10,10,11,11,12,12],"right_children":[2,4,6,8,10,12,-1,14,16,18,20,22,24,-1,-1,-1,-1,-1,-1,-1,-1,-1,-1,-1,-1],"split_conditions":[1.8666667E0,4.557418E0,4.9252048E0,7.9125E0,5.3846157E-1,2.3571429E-1,-2.9487325E-2,4.0356607E0,2.5132072E0,-1.3636364E0,3.431111E0,3.4615386E0,1.1174604E0,2.5946781E-2,6.20885E-3,1.412517E-2,-4.746803E-3,8.413011E-3,-1.4510547E-2,-3.3033773E-2,4.149464E-3,1.139995E-2,4.0827636E-2,-5.0235973E-3,2.164617E-2],"split_indices":[9,27,27,30,6,22,0,27,31,3,19,1,22,0,0,0,0,0,0,0,0,0,0,0,0],"split_type":[0,0,0,0,0,0,0,0,0,0,0,0,0,0,0,0,0,0,0,0,0,0,0,0,0],"sum_hessian":[1.1697506E3,9.6047864E2,2.0927191E2,7.161549E2,2.4432376E2,2.0207405E2,7.1978602E0,1.7786835E2,5.3828656E2,1.4242921E2,1.0189454E2,7.2474464E1,1.295996E2,6.3903282E1,1.13965065E2,5.577191E1,4.8251465E2,4.9207024E1,9.322219E1,6.859852E1,3.329603E1,2.6954329E1,4.5520138E1,5.4534634E1,7.506496E1],"tree_param":{"num_deleted":"0","num_feature":"37","num_nodes":"25","size_leaf_vector":"1"}},{"base_weights":[4.553923E-3,2.7715355E-1,-5.991138E-2,2.053595E-1,7.317122E-1,-2.8385E-1,2.9690736E-3,2.8929064E-1,-1.7675509E-1,2.9421118E-1,1.013326E0,-6.827367E-1,-2.1355087E-1,4.5627242E-1,-2.7262736E-2,2.4467308E-2,3.8850997E-4,-3.1821188E-2,2.377933E-2,-9.40027E-3,3.5962656E-2,6.803759E-2,3.3496734E-2,5.496375E-3,-4.27952E-2,1.4223118E-3,-1.9369997E-2,-5.66613E-3,3.874541E-2,7.111965E-4,-1.2825607E-2],"categories":[],"categories_nodes":[],"categories_segments":[],"categories_sizes":[],"default_left":[0,0,0,0,0,0,0,0,0,0,0,0,0,0,0,0,0,0,0,0,0,0,0,0,0,0,0,0,0,0,0],"id":18,"left_children":[1,3,5,7,9,11,13,15,17,19,21,23,25,27,29,-1,-1,-1,-1,-1,-1,-1,-1,-1,-1,-1,-1,-1,-1,-1,-1],"loss_changes":[2.0863409E1,7.2597523E0,1.3522085E1,6.3845577E0,3.4695988E0,5.757578E0,1.0300152E1,9.1365595E0,1.1153209E1,2.8786163E0,1.2591972E0,4.3613434E0,7.6021204E0,8.616539E0,6.705971E0,0E0,0E0,0E0,0E0,0E0,0E0,0E0,0E0,0E0,0E0,0E0,0E0,0E0,0E0,0E0,0E0],"parents":[2147483647,0,0,1,1,2,2,3,3,4,4,5,5,6,6,7,7,8,8,9,9,10,10,11,11,12,12,13,13,14,14],"right_children":[2,4,6,8,10,12,14,16,18,20,22,24,26,28,30,-1,-1,-1,-1,-1,-1,-1,-1,-1,-1,-1,-1,-1,-1,-1,-1],"split_conditions":[-1.0833334E0,5.69375E0,2.5528572E0,3.4E0,-1.3333334E-1,-1.1706184E0,3.6363637E-1,4.43875E0,5.9333334E0,6.65E0,8.3375E0,0E0,-9.166667E-1,2.9971428E0,1.7E0,2.4467308E-2,3.8850997E-4,-3.1821188E-2,2.377933E-2,-9.40027E-3,3.5962656E-2,6.803759E-2,3.3496734E-2,5.496375E-3,-4.27952E-2,1.4223118E-3,-1.9369997E-2,-5.66613E-3,3.874541E-2,7.111965E-4,-1.2825607E-2],"split_indices":[7,16,15,9,3,36,6,23,5,30,25,7,3,15,7,0,0,0,0,0,0,0,0,0,0,0,0,0,0,0,0],"split_type":[0,0,0,0,0,0,0,0,0,0,0,0,0,0,0,0,0,0,0,0,0,0,0,0,0,0,0,0,0,0,0],"sum_hessian":[1.1852826E3,2.2606004E2,9.5922253E2,1.964794E2,2.958064E1,2.0952365E2,7.496989E2,1.6129419E2,3.5185207E1,1.2384869E1,1.7195772E1,3.0088072E1,1.7943558E2,4.599193E1,7.03707E2,9.385807E1,6.743613E1,2.065511E1,1.4530098E1,6.063459E0,6.321409E0,7.0749836E0,1.0120788E1,5.4600716E0,2.4628E1,7.536467E1,1.040709E2,1.672987E1,2.9262056E1,5.9666754E2,1.0703942E2],"tree_param":{"num_deleted":"0","num_feature":"37","num_nodes":"31","size_leaf_vector":"1"}},{"base_weights":[1.634304E-2,-5.8231514E-2,1.9039658E-1,2.7882762E-2,-1.8462299E-1,-6.0861483E-2,2.7984697E-1,-2.2932234E-1,6.856205E-2,-1.8454727E-2,-3.2775405E-1,4.3191287E-1,-3.2325205E-1,4.4777292E-1,1.8087237E-1,3.7995946E-2,-1.619689E-2,7.5488435E-3,-4.9953847E-3,-1.0276328E-2,9.055612E-3,-1.8773356E-2,2.8543407E-2,-2.1618957E-2,3.0395318E-2,3.842199E-3,-3.3945646E-2,1.3612899E-2,3.1068558E-2,2.3270987E-2,3.2087571E-3],"categories":[],"categories_nodes":[],"categories_segments":[],"categories_sizes":[],"default_left":[0,0,0,0,0,0,0,0,0,0,0,0,0,0,0,0,0,0,0,0,0,0,0,0,0,0,0,0,0,0,0],"id":19,"left_children":[1,3,5,7,9,11,13,15,17,19,21,23,25,27,29,-1,-1,-1,-1,-1,-1,-1,-1,-1,-1,-1,-1,-1,-1,-1,-1],"loss_changes":[1.5290077E1,8.982538E0,7.9576054E0,5.1576467E0,7.946641E0,1.2239301E1,4.2523823E0,6.549199E0,5.9173517E0,5.85354E0,7.9140015E0,5.27381E0,8.822846E0,2.7560787E0,5.4729695E0,0E0,0E0,0E0,0E0,0E0,0E0,0E0,0E0,0E0,0E0,0E0,0E0,0E0,0E0,0E0,0E0],"parents":[2147483647,0,0,1,1,2,2,3,3,4,4,5,5,6,6,7,7,8,8,9,9,10,10,11,11,12,12,13,13,14,14],"right_children":[2,4,6,8,10,12,14,16,18,20,22,24,26,28,30,-1,-1,-1,-1,-1,-1,-1,-1,-1,-1,-1,-1,-1,-1,-1,-1],"split_conditions":[4.5089287E-1,5.3846157E-1,-1.6666667E-1,2.6724746E0,3.0402117E0,7.8777776E0,3.6363637E-1,1.1928E0,4.557418E0,4.428571E0,1.4545455E0,4.0666666E0,-1.2666667E0,1.2582858E0,4.2807326E0,3.7995946E-2,-1.619689E-2,7.5488435E-3,-4.9953847E-3,-1.0276328E-2,9.055612E-3,-1.8773356E-2,2.8543407E-2,-2.1618957E-2,3.0395318E-2,3.842199E-3,-3.3945646E-2,1.3612899E-2,3.1068558E-2,2.3270987E-2,3.2087571E-3],"split_indices":[20,6,9,26,26,18,6,17,27,1,10,1,9,13,32,0,0,0,0,0,0,0,0,0,0,0,0,0,0,0,0],"split_type":[0,0,0,0,0,0,0,0,0,0,0,0,0,0,0,0,0,0,0,0,0,0,0,0,0,0,0,0,0,0,0],"sum_hessian":[1.176121E3,8.2381616E2,3.5230484E2,4.9044247E2,3.333737E2,9.257885E1,2.5972598E2,6.634187E1,4.2410062E2,1.5479411E2,1.7857957E2,3.1943083E1,6.0635765E1,9.5007225E1,1.6471877E2,5.1774955E0,6.1164375E1,2.8485458E2,1.3924603E2,7.988291E1,7.49112E1,1.7012863E2,8.450945E0,5.1576123E0,2.6785471E1,2.890425E1,3.1731516E1,4.8519924E1,4.6487297E1,4.7037395E1,1.1768138E2],"tree_param":{"num_deleted":"0","num_feature":"37","num_nodes":"31","size_leaf_vector":"1"}},{"base_weights":[-2.641613E-3,-8.8653035E-2,1.9863482E-1,-2.3940417E-1,-2.830321E-2,3.6764446E-1,3.2721136E-2,-2.126853E-1,-5.2733906E-2,-5.537407E-2,3.3688682E-1,-3.8024176E-2,4.6855378E-1,5.076149E-2,-9.62645E-3,5.2376306E-3,-1.4788443E-2,-2.8529015E-4,-1.4988934E-2,-2.939624E-2,2.8138205E-2,-1.0238658E-2,4.0471796E-2,2.6887877E-2,2.2854586E-3,-2.4249244E-3,4.2140853E-2],"categories":[],"categories_nodes":[],"categories_segments":[],"categories_sizes":[],"default_left":[0,0,0,0,0,0,0,0,0,0,0,0,0,0,0,0,0,0,0,0,0,0,0,0,0,0,0],"id":20,"left_children":[1,3,5,7,9,11,13,15,-1,17,19,21,23,-1,25,-1,-1,-1,-1,-1,-1,-1,-1,-1,-1,-1,-1],"loss_changes":[2.0346096E1,7.4841094E0,9.854617E0,4.9002447E0,5.8426995E0,7.14917E0,7.443107E0,6.071659E0,0E0,6.666596E0,8.853266E0,5.200301E0,4.0599117E0,0E0,5.74908E0,0E0,0E0,0E0,0E0,0E0,0E0,0E0,0E0,0E0,0E0,0E0,0E0],"parents":[2147483647,0,0,1,1,2,2,3,3,4,4,5,5,6,6,7,7,9,9,10,10,11,11,12,12,14,14],"right_children":[2,4,6,8,10,12,14,16,-1,18,20,22,24,-1,26,-1,-1,-1,-1,-1,-1,-1,-1,-1,-1,-1,-1],"split_conditions":[4.5089287E-1,2.5528572E0,-5E-1,2.9718181E-1,2E0,3.7928572E0,3.846154E-1,4.5816665E0,-5.2733906E-2,6.4285713E-1,7.73E0,2.038889E0,1.5638572E0,5.076149E-2,2.1333334E0,5.2376306E-3,-1.4788443E-2,-2.8529015E-4,-1.4988934E-2,-2.939624E-2,2.8138205E-2,-1.0238658E-2,4.0471796E-2,2.6887877E-2,2.2854586E-3,-2.4249244E-3,4.2140853E-2],"split_indices":[20,15,7,20,10,12,6,12,0,2,30,22,17,0,10,0,0,0,0,0,0,0,0,0,0,0,0],"split_type":[0,0,0,0,0,0,0,0,0,0,0,0,0,0,0,0,0,0,0,0,0,0,0,0,0,0,0],"sum_hessian":[1.1732377E3,8.223728E2,3.5086487E2,2.3425282E2,5.8811993E2,1.7320845E2,1.7765642E2,2.2804018E2,6.2126584E0,5.483222E2,3.979774E1,3.462692E1,1.3858153E2,6.391568E0,1.7126486E2,4.725021E1,1.8078996E2,4.565623E2,9.175992E1,7.4975595E0,3.230018E1,2.9567493E1,5.0594263E0,1.18857315E2,1.9724218E1,1.6469763E2,6.567224E0],"tree_param":{"num_deleted":"0","num_feature":"37","num_nodes":"27","size_leaf_vector":"1"}},{"base_weights":[-2.1430358E-4,-8.776247E-2,2.0606373E-1,-1.06056355E-1,6.783032E-1,4.2590216E-2,3.6140153E-1,-9.0053245E-2,-7.057257E-1,2.5110918E-1,6.034204E-2,2.9299617E-1,-1.9622865E-1,2.0738232E-1,5.397192E-1,-1.7254831E-2,-2.6672983E-3,-1.3871982E-2,-5.7061847E-2,3.4611195E-2,-9.898182E-3,2.7702374E-2,2.9480013E-3,-2.0762509E-2,1.605322E-2,1.4130938E-2,-4.137275E-2,4.01597E-2,1.7788114E-2],"categories":[],"categories_nodes":[],"categories_segments":[],"categories_sizes":[],"default_left":[0,0,0,0,0,0,0,0,0,0,0,0,0,0,0,0,0,0,0,0,0,0,0,0,0,0,0,0,0],"id":21,"left_children":[1,3,5,7,9,11,13,15,17,19,-1,21,23,25,27,-1,-1,-1,-1,-1,-1,-1,-1,-1,-1,-1,-1,-1,-1],"loss_changes":[2.105914E1,1.1544865E1,8.807727E0,7.617817E0,4.03864E0,1.0249333E1,4.777462E0,7.291112E0,3.5367947E0,2.4936962E0,0E0,5.0746994E0,1.0084405E1,7.7973633E0,3.6828747E0,0E0,0E0,0E0,0E0,0E0,0E0,0E0,0E0,0E0,0E0,0E0,0E0,0E0,0E0],"parents":[2147483647,0,0,1,1,2,2,3,3,4,4,5,5,6,6,7,7,8,8,9,9,11,11,12,12,13,13,14,14],"right_children":[2,4,6,8,10,12,14,16,18,20,-1,22,24,26,28,-1,-1,-1,-1,-1,-1,-1,-1,-1,-1,-1,-1,-1,-1],"split_conditions":[4.5089287E-1,3.9901185E0,2.857143E-1,6.733333E0,4E-1,3.2823224E0,4.7020493E0,3.7048717E0,4.0690656E0,-2.5205883E-1,6.034204E-2,2.92875E0,2.7106944E-1,5.3636365E0,1E0,-1.7254831E-2,-2.6672983E-3,-1.3871982E-2,-5.7061847E-2,3.4611195E-2,-9.898182E-3,2.7702374E-2,2.9480013E-3,-2.0762509E-2,1.605322E-2,1.4130938E-2,-4.137275E-2,4.01597E-2,1.7788114E-2],"split_indices":[20,31,10,1,3,31,32,32,32,20,0,19,21,1,10,0,0,0,0,0,0,0,0,0,0,0,0,0,0],"split_type":[0,0,0,0,0,0,0,0,0,0,0,0,0,0,0,0,0,0,0,0,0,0,0,0,0,0,0,0,0],"sum_hessian":[1.1641116E3,8.176574E2,3.4645416E2,7.9942834E2,1.8229044E1,1.6942735E2,1.7702682E2,7.7976917E2,1.9659178E1,1.0896764E1,7.33228E0,8.259653E1,8.6830826E1,9.614556E1,8.088126E1,9.705142E1,6.827178E2,1.0737175E1,8.922003E0,5.223943E0,5.67282E0,3.839839E1,4.419813E1,6.114102E1,2.5689802E1,9.0306816E1,5.83874E0,3.1869526E1,4.9011738E1],"tree_param":{"num_deleted":"0","num_feature":"37","num_nodes":"29","size_leaf_vector":"1"}},{"base_weights":[7.935714E-3,-2.5078204E-1,5.5622317E-2,-3.3391666E-2,-4.2051184E-1,8.963695E-2,-2.9747108E-1,-1.4650048E-1,5.3192174E-1,-5.981369E-1,5.8063917E-2,5.92801E-2,3.6719844E-1,2.2891009E-1,-4.8433405E-1,-1.6630834E-3,-3.0766595E-2,2.4426174E-3,4.7912367E-2,-3.337706E-2,7.4642696E-3,4.5692097E-2,-1.1679469E-2,-7.465098E-3,4.7384347E-3,1.1337012E-2,3.6538564E-2,2.8397014E-2,-2.3920063E-2,-2.9777283E-2,2.2218106E-2],"categories":[],"categories_nodes":[],"categories_segments":[],"categories_sizes":[],"default_left":[0,0,0,0,0,0,0,0,0,0,0,0,0,0,0,0,0,0,0,0,0,0,0,0,0,0,0,0,0,0,0],"id":22,"left_children":[1,3,5,7,9,11,13,15,17,19,21,23,25,27,29,-1,-1,-1,-1,-1,-1,-1,-1,-1,-1,-1,-1,-1,-1,-1,-1],"loss_changes":[1.4417745E1,6.696965E0,1.1876205E1,5.2464113E0,8.709782E0,7.5673275E0,8.660784E0,3.5970044E0,2.7730548E0,3.9650955E0,7.335625E0,6.032825E0,4.3590193E0,5.895541E0,6.9233675E0,0E0,0E0,0E0,0E0,0E0,0E0,0E0,0E0,0E0,0E0,0E0,0E0,0E0,0E0,0E0,0E0],"parents":[2147483647,0,0,1,1,2,2,3,3,4,4,5,5,6,6,7,7,8,8,9,9,10,10,11,11,12,12,13,13,14,14],"right_children":[2,4,6,8,10,12,14,16,18,20,22,24,26,28,30,-1,-1,-1,-1,-1,-1,-1,-1,-1,-1,-1,-1,-1,-1,-1,-1],"split_conditions":[-6.3754815E-1,2.8480716E0,1.8181819E0,2.7985713E0,4.258182E0,3.3333334E-1,-3.12E-1,4.6666667E-1,2.8543632E0,-9.4444446E-2,1.3234286E0,2.5171428E0,4.258876E0,2.7857144E0,3.5333333E0,-1.6630834E-3,-3.0766595E-2,2.4426174E-3,4.7912367E-2,-3.337706E-2,7.4642696E-3,4.5692097E-2,-1.1679469E-2,-7.465098E-3,4.7384347E-3,1.1337012E-2,3.6538564E-2,2.8397014E-2,-2.3920063E-2,-2.9777283E-2,2.2218106E-2],"split_indices":[36,31,7,15,28,8,36,9,26,22,17,15,27,7,7,0,0,0,0,0,0,0,0,0,0,0,0,0,0,0,0],"split_type":[0,0,0,0,0,0,0,0,0,0,0,0,0,0,0,0,0,0,0,0,0,0,0,0,0,0,0,0,0,0,0],"sum_hessian":[1.166493E3,1.8088187E2,9.856112E2,7.9830925E1,1.0105095E2,8.996875E2,8.59237E1,6.713858E1,1.2692344E1,7.351556E1,2.7535389E1,8.120836E2,8.760388E1,2.2452213E1,6.347148E1,5.493971E1,1.2198872E1,6.4727087E0,6.219635E0,6.7366875E1,6.148684E0,6.456681E0,2.1078709E1,1.17613045E2,6.944706E2,6.436251E1,2.3241365E1,1.5310561E1,7.1416526E0,5.700397E1,6.46751E0],"tree_param":{"num_deleted":"0","num_feature":"37","num_nodes":"31","size_leaf_vector":"1"}},{"base_weights":[8.166078E-3,-4.7476728E-2,2.703267E-1,-1.6840546E-1,3.7115693E-2,3.808162E-1,1.6068643E-2,3.3583608E-1,-2.161751E-1,1.1948261E-1,-9.906718E-2,-2.6861722E-2,4.244991E-1,-1.7549676E-1,7.5680715E-1,2.8579352E-2,-2.3450395E-2,-4.5701913E-3,-1.8199265E-2,-6.127012E-3,1.0759594E-2,-9.254947E-3,9.937591E-3,1.617598E-3,2.7145619E-2,3.736248E-2,-1.553947E-2,5.6623574E-2,8.438658E-3],"categories":[],"categories_nodes":[],"categories_segments":[],"categories_sizes":[],"default_left":[0,0,0,0,0,0,0,0,0,0,0,0,0,0,0,0,0,0,0,0,0,0,0,0,0,0,0,0,0],"id":23,"left_children":[1,3,5,7,9,11,13,15,17,19,21,-1,23,25,27,-1,-1,-1,-1,-1,-1,-1,-1,-1,-1,-1,-1,-1,-1],"loss_changes":[1.7154152E1,9.930977E0,5.777892E0,9.695794E0,6.424357E0,5.98193E0,9.130984E0,6.902296E0,6.708315E0,8.288427E0,5.5711536E0,0E0,6.3681793E0,6.623365E0,2.7287393E0,0E0,0E0,0E0,0E0,0E0,0E0,0E0,0E0,0E0,0E0,0E0,0E0,0E0,0E0],"parents":[2147483647,0,0,1,1,2,2,3,3,4,4,5,5,6,6,7,7,8,8,9,9,10,10,12,12,13,13,14,14],"right_children":[2,4,6,8,10,12,14,16,18,20,22,-1,24,26,28,-1,-1,-1,-1,-1,-1,-1,-1,-1,-1,-1,-1,-1,-1],"split_conditions":[1.8666667E0,-3.1666666E-1,3.2666667E0,-1.0833334E0,5.833333E-1,-3E-1,9.1375E0,5.512857E0,-9.166667E-1,4.0666666E0,8.157143E-1,-2.6861722E-2,8.094737E0,1.0714285E0,9.529167E-1,2.8579352E-2,-2.3450395E-2,-4.5701913E-3,-1.8199265E-2,-6.127012E-3,1.0759594E-2,-9.254947E-3,9.937591E-3,1.617598E-3,2.7145619E-2,3.736248E-2,-1.553947E-2,5.6623574E-2,8.438658E-3],"split_indices":[9,22,9,7,6,10,14,23,22,1,22,0,14,3,20,0,0,0,0,0,0,0,0,0,0,0,0,0,0],"split_type":[0,0,0,0,0,0,0,0,0,0,0,0,0,0,0,0,0,0,0,0,0,0,0,0,0,0,0,0,0],"sum_hessian":[1.1740808E3,9.691917E2,2.0488913E2,3.9851108E2,5.706806E2,1.4247705E2,6.2412086E1,3.396428E1,3.645468E2,3.5567926E2,2.1500136E2,5.958259E0,1.3651878E2,5.019423E1,1.2217855E1,2.6493692E1,7.470586E0,1.9855696E2,1.6598984E2,1.0071582E2,2.5496344E2,1.6710715E2,4.78942E1,3.1957825E1,1.0456096E2,5.840006E0,4.4354225E1,6.8902025E0,5.327653E0],"tree_param":{"num_deleted":"0","num_feature":"37","num_nodes":"29","size_leaf_vector":"1"}},{"base_weights":[-1.4663718E-2,-6.662196E-2,2.2258021E-1,7.192497E-2,-1.3676113E-1,2.5920382E-1,-4.6498187E-2,2.8863138E-2,5.6870466E-1,-1.1215803E-1,-6.0769165E-1,-4.9149428E-2,3.8649175E-1,-1.5853193E-2,4.8448793E-3,1.1837514E-2,5.840196E-2,-6.6288332E-3,3.2924112E-2,-1.0197734E-2,-5.4487653E-2,-1.1744615E-2,2.5096208E-2,5.4576635E-2,1.5630906E-2],"categories":[],"categories_nodes":[],"categories_segments":[],"categories_sizes":[],"default_left":[0,0,0,0,0,0,0,0,0,0,0,0,0,0,0,0,0,0,0,0,0,0,0,0,0],"id":24,"left_children":[1,3,5,7,9,11,-1,13,15,17,19,21,23,-1,-1,-1,-1,-1,-1,-1,-1,-1,-1,-1,-1],"loss_changes":[1.4462375E1,9.3605175E0,9.139023E0,6.9160585E0,7.3376074E0,8.068731E0,0E0,7.0739903E0,4.8557034E0,9.664997E0,5.910166E0,6.342456E0,7.2254696E0,0E0,0E0,0E0,0E0,0E0,0E0,0E0,0E0,0E0,0E0,0E0,0E0],"parents":[2147483647,0,0,1,1,2,2,3,3,4,4,5,5,7,7,8,8,9,9,10,10,11,11,12,12],"right_children":[2,4,6,8,10,12,-1,14,16,18,20,22,24,-1,-1,-1,-1,-1,-1,-1,-1,-1,-1,-1,-1],"split_conditions":[1.8666667E0,8.133333E0,4.9348383E0,2.6456943E-1,1.6185E-1,3.2857144E0,-4.6498187E-2,3.7272727E0,0E0,3.8763475E0,8.366667E0,9.235714E0,-8.5535717E-1,-1.5853193E-2,4.8448793E-3,1.1837514E-2,5.840196E-2,-6.6288332E-3,3.2924112E-2,-1.0197734E-2,-5.4487653E-2,-1.1744615E-2,2.5096208E-2,5.4576635E-2,1.5630906E-2],"split_indices":[9,18,27,21,21,1,0,5,7,31,14,14,22,0,0,0,0,0,0,0,0,0,0,0,0],"split_type":[0,0,0,0,0,0,0,0,0,0,0,0,0,0,0,0,0,0,0,0,0,0,0,0,0],"sum_hessian":[1.1710458E3,9.612449E2,2.0980083E2,3.2306485E2,6.3818005E2,2.0409067E2,5.71015E0,2.9826843E2,2.479639E1,6.0767126E2,3.0508774E1,5.9811646E1,1.4427902E2,4.8418766E1,2.4984969E2,1.6855583E1,7.9408064E0,5.927928E2,1.4878478E1,1.7377678E1,1.3131097E1,4.516294E1,1.4648702E1,1.2377169E1,1.3190186E2],"tree_param":{"num_deleted":"0","num_feature":"37","num_nodes":"25","size_leaf_vector":"1"}},{"base_weights":[-1.1198071E-3,-3.5167284E-2,3.9224964E-1,-1.4134118E-1,6.2541746E-2,6.249533E-2,3.1915173E-1,-3.6013222E-1,-6.649324E-2,3.071486E-1,1.0415189E-2,4.739304E-1,-4.7856176E-1,-1.2004889E-2,-3.460729E-2,1.7978031E-4,-1.3743505E-2,8.909381E-3,3.8616363E-2,-3.340574E-2,1.6347667E-3,2.7248485E-2,-3.3805363E-3,1.5539949E-2,-4.6969008E-2],"categories":[],"categories_nodes":[],"categories_segments":[],"categories_sizes":[],"default_left":[0,0,0,0,0,0,0,0,0,0,0,0,0,0,0,0,0,0,0,0,0,0,0,0,0],"id":25,"left_children":[1,3,5,7,9,-1,11,13,15,17,19,21,23,-1,-1,-1,-1,-1,-1,-1,-1,-1,-1,-1,-1],"loss_changes":[1.5719049E1,1.1214304E1,5.4623833E0,8.458046E0,7.1776686E0,0E0,1.1029417E1,5.0863743E0,5.655313E0,5.7952642E0,7.055898E0,2.8751202E0,5.64456E0,0E0,0E0,0E0,0E0,0E0,0E0,0E0,0E0,0E0,0E0,0E0,0E0],"parents":[2147483647,0,0,1,1,2,2,3,3,4,4,6,6,7,7,8,8,9,9,10,10,11,11,12,12],"right_children":[2,4,6,8,10,-1,12,14,16,18,20,22,24,-1,-1,-1,-1,-1,-1,-1,-1,-1,-1,-1,-1],"split_conditions":[3.3333334E-1,-1.21985294E-1,6.65E0,3.6E0,-1.1818181E0,6.249533E-2,2.371111E-1,8.571428E0,5.833333E-1,3.621253E0,3.3730912E0,5E-1,3.6876938E0,-1.2004889E-2,-3.460729E-2,1.7978031E-4,-1.3743505E-2,8.909381E-3,3.8616363E-2,-3.340574E-2,1.6347667E-3,2.7248485E-2,-3.3805363E-3,1.5539949E-2,-4.6969008E-2],"split_indices":[8,20,18,5,7,0,21,14,2,31,27,8,27,0,0,0,0,0,0,0,0,0,0,0,0],"split_type":[0,0,0,0,0,0,0,0,0,0,0,0,0,0,0,0,0,0,0,0,0,0,0,0,0],"sum_hessian":[1.1716256E3,1.0791335E3,9.249211E1,5.1695087E2,5.621826E2,5.999616E0,8.649249E1,1.3079811E2,3.8615277E2,9.789804E1,4.6428458E2,7.277752E1,1.3714977E1,9.7332275E1,3.3465836E1,2.8969485E2,9.6457924E1,7.7731636E1,2.0166407E1,1.3838973E1,4.504456E2,6.433211E1,8.445409E0,5.175365E0,8.539613E0],"tree_param":{"num_deleted":"0","num_feature":"37","num_nodes":"25","size_leaf_vector":"1"}},{"base_weights":[1.1583078E-3,-5.348823E-2,2.0937103E-1,-9.931651E-2,1.2013132E-1,1.4558382E-2,3.687823E-1,-8.177366E-2,-4.7783697E-1,2.1825397E-1,-1.9203258E-1,-3.0475563E-1,1.9190735E-1,2.4012001E-1,6.461615E-1,-6.622629E-3,4.4986545E-3,1.0963737E-2,-3.22167E-2,1.5818348E-2,-3.301948E-3,-2.266214E-3,-5.5396557E-2,-1.4641769E-4,-4.001101E-2,3.601008E-2,3.103455E-4,2.4633946E-2,9.829898E-4,3.816155E-2,-7.428296E-3],"categories":[],"categories_nodes":[],"categories_segments":[],"categories_sizes":[],"default_left":[0,0,0,0,0,0,0,0,0,0,0,0,0,0,0,0,0,0,0,0,0,0,0,0,0,0,0,0,0,0,0],"id":26,"left_children":[1,3,5,7,9,11,13,15,17,19,21,23,25,27,29,-1,-1,-1,-1,-1,-1,-1,-1,-1,-1,-1,-1,-1,-1,-1,-1],"loss_changes":[1.3289735E1,7.373501E0,7.5354757E0,4.8252172E0,5.9740124E0,6.305745E0,4.609312E0,6.1159754E0,3.8832722E0,4.1439724E0,6.2448463E0,5.9463296E0,7.0137835E0,5.1568375E0,3.9941635E0,0E0,0E0,0E0,0E0,0E0,0E0,0E0,0E0,0E0,0E0,0E0,0E0,0E0,0E0,0E0,0E0],"parents":[2147483647,0,0,1,1,2,2,3,3,4,4,5,5,6,6,7,7,8,8,9,9,10,10,11,11,12,12,13,13,14,14],"right_children":[2,4,6,8,10,12,14,16,18,20,22,24,26,28,30,-1,-1,-1,-1,-1,-1,-1,-1,-1,-1,-1,-1,-1,-1,-1,-1],"split_conditions":[4.8835206E-1,3.5957143E0,2.857143E-1,4.8399243E0,5.125E0,4.5194805E-1,1.6E0,1.3445E0,-5.4285717E-1,1.5384616E-1,5.2E0,1.4285715E-1,7.040608E-1,9.3333334E-1,2.6666667E0,-6.622629E-3,4.4986545E-3,1.0963737E-2,-3.22167E-2,1.5818348E-2,-3.301948E-3,-2.266214E-3,-5.5396557E-2,-1.4641769E-4,-4.001101E-2,3.601008E-2,3.103455E-4,2.4633946E-2,9.829898E-4,3.816155E-2,-7.428296E-3],"split_indices":[36,19,10,32,0,22,22,17,20,10,12,3,36,3,3,0,0,0,0,0,0,0,0,0,0,0,0,0,0,0,0],"split_type":[0,0,0,0,0,0,0,0,0,0,0,0,0,0,0,0,0,0,0,0,0,0,0,0,0,0,0,0,0,0,0],"sum_hessian":[1.1660253E3,9.242056E2,2.4181958E2,7.315382E2,1.9266742E2,1.0931712E2,1.3250246E2,7.0029834E2,3.1239868E1,1.4681866E2,4.5848755E1,3.8778553E1,7.053857E1,9.1790924E1,4.071154E1,5.409145E2,1.5938388E2,5.9616904E0,2.527818E1,1.0906588E2,3.7752792E1,4.042326E1,5.425497E0,2.4723433E1,1.40551195E1,1.759753E1,5.294104E1,4.220554E1,4.958538E1,3.5518955E1,5.192584E0],"tree_param":{"num_deleted":"0","num_feature":"37","num_nodes":"31","size_leaf_vector":"1"}},{"base_weights":[-1.5691532E-2,-8.672001E-2,1.5442663E-1,-5.358325E-3,-2.0681246E-1,4.090143E-1,8.3752245E-2,-4.5990646E-2,3.151706E-1,-2.2801729E-1,4.6104796E-2,-1.2318953E-2,4.9475443E-1,3.8964835E-1,8.336384E-3,-1.671519E-2,6.8252767E-4,6.972283E-3,3.5632208E-2,-8.112843E-3,-2.7193407E-2,3.2480214E-2,-5.71457E-4,2.657947E-2,-1.5421467E-2,-1.1767835E-3,3.2105576E-2],"categories":[],"categories_nodes":[],"categories_segments":[],"categories_sizes":[],"default_left":[0,0,0,0,0,0,0,0,0,0,0,0,0,0,0,0,0,0,0,0,0,0,0,0,0,0,0],"id":27,"left_children":[1,3,5,7,9,11,13,15,17,19,-1,-1,21,23,25,-1,-1,-1,-1,-1,-1,-1,-1,-1,-1,-1,-1],"loss_changes":[1.4351283E1,8.184279E0,6.2607965E0,6.5318866E0,8.308794E0,4.379266E0,6.343193E0,7.656377E0,3.841824E0,6.825691E0,0E0,0E0,5.284935E0,5.5530186E0,4.493675E0,0E0,0E0,0E0,0E0,0E0,0E0,0E0,0E0,0E0,0E0,0E0,0E0],"parents":[2147483647,0,0,1,1,2,2,3,3,4,4,5,5,6,6,7,7,8,8,9,9,12,12,13,13,14,14],"right_children":[2,4,6,8,10,12,14,16,18,20,-1,-1,22,24,26,-1,-1,-1,-1,-1,-1,-1,-1,-1,-1,-1,-1],"split_conditions":[4.5089287E-1,5.3846157E-1,3.625E0,3.474921E-1,2E0,5.7809526E-1,6.2166667E-1,2.6644444E0,4.9333334E0,5.5333333E0,4.6104796E-2,-1.2318953E-2,3.4E0,9.28E0,9.457143E0,-1.671519E-2,6.8252767E-4,6.972283E-3,3.5632208E-2,-8.112843E-3,-2.7193407E-2,3.2480214E-2,-5.71457E-4,2.657947E-2,-1.5421467E-2,-1.1767835E-3,3.2105576E-2],"split_indices":[20,6,4,36,9,20,20,19,1,1,0,0,9,14,14,0,0,0,0,0,0,0,0,0,0,0,0],"split_type":[0,0,0,0,0,0,0,0,0,0,0,0,0,0,0,0,0,0,0,0,0,0,0,0,0,0,0],"sum_hessian":[1.1855938E3,8.367291E2,3.4886456E2,4.9942038E2,3.3730875E2,7.476264E1,2.7410193E2,4.439934E2,5.5426968E1,3.3187305E2,5.435713E0,8.432382E0,6.633026E1,5.338778E1,2.2071414E2,7.531344E1,3.6867996E2,3.9371483E1,1.6055485E1,2.7593652E2,5.5936527E1,5.0575157E1,1.5755104E1,4.4564846E1,8.822932E0,2.1106282E2,9.651318E0],"tree_param":{"num_deleted":"0","num_feature":"37","num_nodes":"27","size_leaf_vector":"1"}},{"base_weights":[-1.2774258E-2,-3.3638808E-1,1.6119817E-2,-9.0170616E-1,-2.1328509E-1,-5.211607E-3,3.2116243E-1,-2.4393965E-2,-6.2048245E-2,-8.744484E-1,-6.1066926E-2,-3.9086345E-1,7.5577227E-3,4.4209197E-2,2.2840698E-1,-5.4309744E-2,-2.0001017E-2,2.6017267E-2,-8.893267E-3,-3.1421598E-2,3.56088E-2,-2.6693372E-2,8.1559236E-4,2.7239178E-3,2.738911E-2],"categories":[],"categories_nodes":[],"categories_segments":[],"categories_sizes":[],"default_left":[0,0,0,0,0,0,0,0,0,0,0,0,0,0,0,0,0,0,0,0,0,0,0,0,0],"id":28,"left_children":[1,3,5,7,9,11,13,-1,-1,15,17,19,21,-1,23,-1,-1,-1,-1,-1,-1,-1,-1,-1,-1],"loss_changes":[1.0962899E1,6.495475E0,7.0081296E0,1.7636633E0,8.020521E0,4.9637446E0,3.4741282E0,0E0,0E0,1.0661898E0,4.5939374E0,8.912966E0,4.634949E0,0E0,3.4021356E0,0E0,0E0,0E0,0E0,0E0,0E0,0E0,0E0,0E0,0E0],"parents":[2147483647,0,0,1,1,2,2,3,3,4,4,5,5,6,6,9,9,10,10,11,11,12,12,14,14],"right_children":[2,4,6,8,10,12,14,-1,-1,16,18,20,22,-1,24,-1,-1,-1,-1,-1,-1,-1,-1,-1,-1],"split_conditions":[-9.117643E-1,2.975E0,1.5004762E0,-1.6666667E-1,3.4285715E0,2.8E0,1.5228572E0,-2.4393965E-2,-6.2048245E-2,2E0,3.4444444E0,5.214286E0,3.3730912E0,4.4209197E-2,3.57E0,-5.4309744E-2,-2.0001017E-2,2.6017267E-2,-8.893267E-3,-3.1421598E-2,3.56088E-2,-2.6693372E-2,8.1559236E-4,2.7239178E-3,2.738911E-2],"split_indices":[36,19,20,8,5,5,20,0,0,7,0,1,27,0,15,0,0,0,0,0,0,0,0,0,0],"split_type":[0,0,0,0,0,0,0,0,0,0,0,0,0,0,0,0,0,0,0,0,0,0,0,0,0],"sum_hessian":[1.1708574E3,9.509956E1,1.0757578E3,1.5874641E1,7.922492E1,1.0063662E3,6.93916E1,8.249724E0,7.624917E0,1.3938406E1,6.5286514E1,3.1304884E1,9.7506134E2,8.60814E0,6.078346E1,8.745594E0,5.1928124E0,1.0343318E1,5.4943195E1,2.6111383E1,5.1935E0,1.4560154E1,9.6050116E2,4.011034E1,2.067312E1],"tree_param":{"num_deleted":"0","num_feature":"37","num_nodes":"25","size_leaf_vector":"1"}},{"base_weights":[1.6780766E-2,-1.7674927E-1,5.8233343E-2,-4.8404175E-1,-5.269861E-2,8.72671E-2,-1.8626653E-1,-5.865798E-1,2.0499399E-2,-1.8302901E-1,2.6134846E-1,1.10376395E-1,-2.3017603E-1,3.2202687E-2,-2.5926173E-1,-1.8351387E-2,-5.0305784E-2,-1.3178018E-2,1.9921305E-2,-2.7575297E-2,2.8113395E-2,3.3852078E-3,1.2082724E-2,3.031801E-2,-1.69668E-2,3.6845736E-3,-2.12001E-2],"categories":[],"categories_nodes":[],"categories_segments":[],"categories_sizes":[],"default_left":[0,0,0,0,0,0,0,0,0,0,0,0,0,0,0,0,0,0,0,0,0,0,0,0,0,0,0],"id":29,"left_children":[1,3,5,7,9,11,13,15,-1,17,19,21,23,-1,25,-1,-1,-1,-1,-1,-1,-1,-1,-1,-1,-1,-1],"loss_changes":[9.389309E0,7.845779E0,6.856806E0,5.6731615E0,6.1147037E0,6.349128E0,6.385601E0,4.5656033E0,0E0,5.03765E0,1.1044455E1,4.488743E0,5.576951E0,0E0,5.243364E0,0E0,0E0,0E0,0E0,0E0,0E0,0E0,0E0,0E0,0E0,0E0,0E0],"parents":[2147483647,0,0,1,1,2,2,3,3,4,4,5,5,6,6,7,7,9,9,10,10,11,11,12,12,14,14],"right_children":[2,4,6,8,10,12,14,16,-1,18,20,22,24,-1,26,-1,-1,-1,-1,-1,-1,-1,-1,-1,-1,-1,-1],"split_conditions":[3.6E0,-7.351429E-1,5.6666665E0,1.7333333E0,4.6923075E0,3.832196E0,3.8666666E0,-3.0769232E-1,2.0499399E-2,5.625E0,-3.5333333E0,5.0000125E-1,-2.2E0,3.2202687E-2,-7.4925E-2,-1.8351387E-2,-5.0305784E-2,-1.3178018E-2,1.9921305E-2,-2.7575297E-2,2.8113395E-2,3.3852078E-3,1.2082724E-2,3.031801E-2,-1.69668E-2,3.6845736E-3,-2.12001E-2],"split_indices":[5,20,4,10,1,26,5,3,0,0,9,36,3,0,21,0,0,0,0,0,0,0,0,0,0,0,0],"split_type":[0,0,0,0,0,0,0,0,0,0,0,0,0,0,0,0,0,0,0,0,0,0,0,0,0,0,0],"sum_hessian":[1.1681154E3,2.0548795E2,9.626274E2,5.8262024E1,1.4722592E2,8.6102576E2,1.0160162E2,5.2575886E1,5.6861386E0,1.0434122E2,4.28847E1,8.032061E2,5.781966E1,7.578053E0,9.402357E1,3.5744743E1,1.683114E1,9.212821E1,1.2213006E1,1.1361602E1,3.1523098E1,6.073133E2,1.9589284E2,6.1482654E0,5.1671394E1,3.1305447E1,6.2718124E1],"tree_param":{"num_deleted":"0","num_feature":"37","num_nodes":"27","size_leaf_vector":"1"}},{"base_weights":[2.2878848E-2,-7.2935824E-3,3.7462437E-1,-2.3048885E-2,5.3401595E-1,5.805865E-2,6.400272E-1,1.6855103E-1,-5.1993366E-2,1.1154975E0,-3.655388E-2,-3.9637055E-2,2.4010478E-1,6.543149E-2,7.8288364E-1,1.0740274E-2,-3.77128E-2,-1.4073224E-3,-1.9442884E-2,7.024399E-2,2.8866095E-2,-2.7012637E-2,3.235372E-2,4.5489926E-2,3.0874094E-4,7.6863687E-3,-1.6196652E-3,4.907104E-2,1.6765429E-2],"categories":[],"categories_nodes":[],"categories_segments":[],"categories_sizes":[],"default_left":[0,0,0,0,0,0,0,0,0,0,0,0,0,0,0,0,0,0,0,0,0,0,0,0,0,0,0,0,0],"id":30,"left_children":[1,3,5,7,9,11,13,15,17,19,21,-1,23,25,27,-1,-1,-1,-1,-1,-1,-1,-1,-1,-1,-1,-1,-1,-1],"loss_changes":[1.2538542E1,9.298462E0,7.804574E0,5.8817334E0,1.0271637E1,6.953289E0,4.1080246E0,6.1044846E0,7.3858557E0,1.572361E0,6.0424805E0,0E0,5.7494583E0,1.01551294E-1,3.2688522E0,0E0,0E0,0E0,0E0,0E0,0E0,0E0,0E0,0E0,0E0,0E0,0E0,0E0,0E0],"parents":[2147483647,0,0,1,1,2,2,3,3,4,4,5,5,6,6,7,7,8,8,9,9,10,10,12,12,13,13,14,14],"right_children":[2,4,6,8,10,12,14,16,18,20,22,-1,24,26,28,-1,-1,-1,-1,-1,-1,-1,-1,-1,-1,-1,-1,-1,-1],"split_conditions":[3.3333334E-1,1.9E0,2.7272728E-1,-1.1333333E0,2.1477778E-1,-2.375E-2,1.2061818E0,7E0,7.59578E-1,3.2823224E0,1.2371513E0,-3.9637055E-2,-2.6666667E0,2.7106944E-1,2.5555556E0,1.0740274E-2,-3.77128E-2,-1.4073224E-3,-1.9442884E-2,7.024399E-2,2.8866095E-2,-2.7012637E-2,3.235372E-2,4.5489926E-2,3.0874094E-4,7.6863687E-3,-1.6196652E-3,4.907104E-2,1.6765429E-2],"split_indices":[8,22,6,7,34,20,13,5,36,31,36,0,7,34,3,0,0,0,0,0,0,0,0,0,0,0,0,0,0],"split_type":[0,0,0,0,0,0,0,0,0,0,0,0,0,0,0,0,0,0,0,0,0,0,0,0,0,0,0,0,0],"sum_hessian":[1.180173E3,1.0878384E3,9.233459E1,1.0580017E3,2.9836676E1,4.266437E1,4.9670216E1,1.3822026E2,9.197815E2,1.4304032E1,1.5532643E1,6.928612E0,3.573576E1,1.0180465E1,3.948975E1,1.3235345E2,5.8668103E0,8.599859E2,5.9795597E1,8.254862E0,6.049171E0,9.063996E0,6.4686465E0,8.503315E0,2.7232447E1,5.0504827E0,5.129982E0,2.652911E1,1.2960638E1],"tree_param":{"num_deleted":"0","num_feature":"37","num_nodes":"29","size_leaf_vector":"1"}},{"base_weights":[8.9960085E-4,-6.155496E-2,1.5331048E-1,-4.0060326E-1,-3.897118E-2,2.975527E-1,3.0939182E-2,2.6148578E-2,-5.823942E-1,4.461627E-2,-4.6952084E-2,4.2328026E-2,4.434722E-1,-3.638333E-2,7.074947E-2,2.7272517E-2,-2.7219286E-2,-3.6165018E-2,-2.2316292E-4,3.883216E-4,-8.806939E-3,1.4125414E-2,-3.264251E-2,1.5442972E-2,4.4622414E-2,1.17070675E-2,-7.859747E-3],"categories":[],"categories_nodes":[],"categories_segments":[],"categories_sizes":[],"default_left":[0,0,0,0,0,0,0,0,0,0,0,0,0,0,0,0,0,0,0,0,0,0,0,0,0,0,0],"id":31,"left_children":[1,3,5,7,9,11,13,15,17,-1,19,21,23,-1,25,-1,-1,-1,-1,-1,-1,-1,-1,-1,-1,-1,-1],"loss_changes":[1.1226316E1,6.3901396E0,6.0417595E0,4.059987E0,5.8798375E0,5.836747E0,5.6863E0,5.195015E0,2.9776573E0,0E0,5.513189E0,9.918415E0,5.7638874E0,0E0,6.6733456E0,0E0,0E0,0E0,0E0,0E0,0E0,0E0,0E0,0E0,0E0,0E0,0E0],"parents":[2147483647,0,0,1,1,2,2,3,3,4,4,5,5,6,6,7,7,8,8,10,10,11,11,12,12,14,14],"right_children":[2,4,6,8,10,12,14,16,18,-1,20,22,24,-1,26,-1,-1,-1,-1,-1,-1,-1,-1,-1,-1,-1,-1],"split_conditions":[4.5089287E-1,-1.1293602E0,-6.4285713E-1,0E0,-3.1333334E0,1.2286667E0,1.7257575E-2,0E0,4.0733333E0,4.461627E-2,5E0,3.3333333E0,6.1538464E-1,-3.638333E-2,3.4238267E0,2.7272517E-2,-2.7219286E-2,-3.6165018E-2,-2.2316292E-4,3.883216E-4,-8.806939E-3,1.4125414E-2,-3.264251E-2,1.5442972E-2,4.4622414E-2,1.17070675E-2,-7.859747E-3],"split_indices":[20,36,7,7,10,13,21,8,16,0,4,9,2,0,31,0,0,0,0,0,0,0,0,0,0,0,0],"split_type":[0,0,0,0,0,0,0,0,0,0,0,0,0,0,0,0,0,0,0,0,0,0,0,0,0,0,0],"sum_hessian":[1.1773978E3,8.355885E2,3.418093E2,5.1136864E1,7.844516E2,1.5622787E2,1.8558142E2,1.5531956E1,3.5604908E1,5.7238584E0,7.787278E2,5.7298454E1,9.892943E1,8.391857E0,1.7718956E2,8.154068E0,7.3778877E0,2.8423418E1,7.1814895E0,5.4768805E2,2.3103972E2,4.302661E1,1.4271842E1,7.740857E1,2.1520857E1,1.03193016E2,7.3996544E1],"tree_param":{"num_deleted":"0","num_feature":"37","num_nodes":"27","size_leaf_vector":"1"}},{"base_weights":[1.504637E-2,2.3247841E-1,-3.510628E-2,9.78919E-2,3.9435887E-1,-1.6661237E-1,1.7520567E-2,3.1724223E-1,-1.0970049E-1,2.1634193E-1,6.945979E-1,3.2409538E-2,-1.8868837E-1,2.4754417E-1,-3.2383136E-2,-8.214461E-3,2.8614536E-2,-3.2437988E-2,6.2185097E-3,5.779584E-4,4.0939845E-2,1.6967814E-2,4.9269076E-2,-2.4770567E-2,-7.0549785E-3,1.5719175E-2,-1.7789042E-2,-9.815607E-3,2.317953E-3],"categories":[],"categories_nodes":[],"categories_segments":[],"categories_sizes":[],"default_left":[0,0,0,0,0,0,0,0,0,0,0,0,0,0,0,0,0,0,0,0,0,0,0,0,0,0,0,0,0],"id":32,"left_children":[1,3,5,7,9,11,13,15,17,19,21,-1,23,25,27,-1,-1,-1,-1,-1,-1,-1,-1,-1,-1,-1,-1,-1,-1],"loss_changes":[1.2716155E1,4.722951E0,6.562459E0,5.529388E0,5.134902E0,4.996708E0,7.788737E0,7.3312483E0,7.9967985E0,7.828416E0,3.420988E0,0E0,3.7925434E0,4.9893947E0,7.210122E0,0E0,0E0,0E0,0E0,0E0,0E0,0E0,0E0,0E0,0E0,0E0,0E0,0E0,0E0],"parents":[2147483647,0,0,1,1,2,2,3,3,4,4,5,5,6,6,7,7,8,8,9,9,10,10,12,12,13,13,14,14],"right_children":[2,4,6,8,10,12,14,16,18,20,22,-1,24,26,28,-1,-1,-1,-1,-1,-1,-1,-1,-1,-1,-1,-1,-1,-1],"split_conditions":[-1.0833334E0,5.7809526E-1,2.6426666E0,-7.692308E-2,4.2096834E0,2.7142856E0,7.757143E0,2.7272728E-1,7.73E0,9.235714E0,-1.8666667E0,3.2409538E-2,-6.25E-1,2E0,-7.5E-1,-8.214461E-3,2.8614536E-2,-3.2437988E-2,6.2185097E-3,5.779584E-4,4.0939845E-2,1.6967814E-2,4.9269076E-2,-2.4770567E-2,-7.0549785E-3,1.5719175E-2,-1.7789042E-2,-9.815607E-3,2.317953E-3],"split_indices":[7,20,15,3,27,0,30,6,30,14,7,0,7,3,10,0,0,0,0,0,0,0,0,0,0,0,0,0,0],"split_type":[0,0,0,0,0,0,0,0,0,0,0,0,0,0,0,0,0,0,0,0,0,0,0,0,0,0,0,0,0],"sum_hessian":[1.1643585E3,2.1755109E2,9.4680743E2,1.1966609E2,9.7884995E1,2.69987E2,6.7682043E2,5.7928425E1,6.1737667E1,6.253027E1,3.535472E1,6.3738194E0,2.636132E2,1.199533E2,5.568671E2,2.018154E1,3.7746887E1,1.815515E1,4.3582516E1,4.7428017E1,1.5102253E1,1.688899E1,1.8465733E1,3.414284E1,2.2947035E2,1.0842082E2,1.1532479E1,1.8020831E2,3.7665878E2],"tree_param":{"num_deleted":"0","num_feature":"37","num_nodes":"29","size_leaf_vector":"1"}},{"base_weights":[1.0095751E-2,5.1795876E-1,-4.081421E-3,-2.4331791E-2,8.310342E-1,1.5691647E-2,-2.9080945E-1,6.850652E-3,1.0455762E0,3.543525E-1,-4.21245E-3,2.4810856E-2,-4.0052044E-1,2.6769483E-2,6.023057E-2,-6.1216783E-3,2.7668102E-2,2.1217822E-3,-7.998823E-3,-2.8648853E-2,-3.2678545E-3],"categories":[],"categories_nodes":[],"categories_segments":[],"categories_sizes":[],"default_left":[0,0,0,0,0,0,0,0,0,0,0,0,0,0,0,0,0,0,0,0,0],"id":33,"left_children":[1,3,5,-1,7,9,11,-1,13,15,17,-1,19,-1,-1,-1,-1,-1,-1,-1,-1],"loss_changes":[8.41507E0,1.0387035E1,6.454837E0,0E0,3.5148144E0,7.182188E0,6.540631E0,0E0,8.655014E-1,5.6797447E0,7.3246393E0,0E0,3.7205057E0,0E0,0E0,0E0,0E0,0E0,0E0,0E0,0E0],"parents":[2147483647,0,0,1,1,2,2,4,4,5,5,6,6,8,8,9,9,10,10,12,12],"right_children":[2,4,6,-1,8,10,12,-1,14,16,18,-1,20,-1,-1,-1,-1,-1,-1,-1,-1],"split_conditions":[-2.5333333E0,3.7E0,6.0666666E0,-2.4331791E-2,4.3614287E0,-1.7333333E0,-3.2666667E0,6.850652E-3,5E-1,4.068333E0,4.554657E0,2.4810856E-2,8.916667E0,2.6769483E-2,6.023057E-2,-6.1216783E-3,2.7668102E-2,2.1217822E-3,-7.998823E-3,-2.8648853E-2,-3.2678545E-3],"split_indices":[7,1,4,0,16,10,10,0,10,12,27,0,18,0,0,0,0,0,0,0,0],"split_type":[0,0,0,0,0,0,0,0,0,0,0,0,0,0,0,0,0,0,0,0,0],"sum_hessian":[1.1674559E3,3.073986E1,1.1367161E3,7.1720037E0,2.3567856E1,1.0642683E3,7.24478E1,5.95209E0,1.7615767E1,5.8145256E1,1.00612305E3,8.432585E0,6.401521E1,5.223907E0,1.2391859E1,1.7236032E1,4.0909225E1,7.7481085E2,2.3131221E2,4.1798473E1,2.221674E1],"tree_param":{"num_deleted":"0","num_feature":"37","num_nodes":"21","size_leaf_vector":"1"}},{"base_weights":[2.2037677E-2,1.1841809E-1,-4.557997E-2,7.849806E-2,3.2002422E-1,-4.9869245E-1,-2.4524113E-2,4.2029183E-2,3.6800662E-1,4.7504216E-1,-1.6797681E-1,-6.9387364E-1,6.32293E-3,-1.2068345E-1,7.902453E-2,4.7121043E-3,-1.9040212E-2,3.331323E-2,-7.025269E-3,3.7114605E-2,1.5049826E-3,-4.169065E-2,9.386168E-3,-4.9639504E-2,-1.2511419E-2,-2.1574066E-3,-2.166426E-2,5.494216E-3,-2.6501063E-2],"categories":[],"categories_nodes":[],"categories_segments":[],"categories_sizes":[],"default_left":[0,0,0,0,0,0,0,0,0,0,0,0,0,0,0,0,0,0,0,0,0,0,0,0,0,0,0,0,0],"id":34,"left_children":[1,3,5,7,9,11,13,15,17,19,21,23,-1,25,27,-1,-1,-1,-1,-1,-1,-1,-1,-1,-1,-1,-1,-1,-1],"loss_changes":[7.537678E0,3.8123655E0,6.475131E0,4.2007103E0,6.017065E0,3.7657142E0,6.4899225E0,7.8907113E0,6.849899E0,7.0914793E0,4.8126884E0,2.8182697E0,0E0,8.169985E0,5.959444E0,0E0,0E0,0E0,0E0,0E0,0E0,0E0,0E0,0E0,0E0,0E0,0E0,0E0,0E0],"parents":[2147483647,0,0,1,1,2,2,3,3,4,4,5,5,6,6,7,7,8,8,9,9,10,10,11,11,13,13,14,14],"right_children":[2,4,6,8,10,12,14,16,18,20,22,24,-1,26,28,-1,-1,-1,-1,-1,-1,-1,-1,-1,-1,-1,-1,-1,-1],"split_conditions":[-2.5E-1,3.3333334E-1,-1.1874329E0,5.6666665E0,2.2978571E-1,2.408182E0,4.428571E0,5.3544445E0,1.9393939E-1,4.258182E0,7.379746E-1,3.97125E0,6.32293E-3,1.5555556E0,6.6E0,4.7121043E-3,-1.9040212E-2,3.331323E-2,-7.025269E-3,3.7114605E-2,1.5049826E-3,-4.169065E-2,9.386168E-3,-4.9639504E-2,-1.2511419E-2,-2.1574066E-3,-2.166426E-2,5.494216E-3,-2.6501063E-2],"split_indices":[7,8,36,1,21,15,1,12,22,12,36,16,0,7,1,0,0,0,0,0,0,0,0,0,0,0,0,0,0],"split_type":[0,0,0,0,0,0,0,0,0,0,0,0,0,0,0,0,0,0,0,0,0,0,0,0,0,0,0,0,0],"sum_hessian":[1.1547865E3,4.7581747E2,6.78969E2,3.9833295E2,7.748454E1,2.9142895E1,6.498261E2,3.5478632E2,4.354662E1,5.8824856E1,1.8659689E1,2.2125168E1,7.0177264E0,3.368492E2,3.129769E2,3.1648303E2,3.830328E1,2.7252163E1,1.6294456E1,3.633334E1,2.2491518E1,6.029293E0,1.2630397E1,1.2479207E1,9.645962E0,2.7081613E2,6.60331E1,2.9866345E2,1.4313423E1],"tree_param":{"num_deleted":"0","num_feature":"37","num_nodes":"29","size_leaf_vector":"1"}},{"base_weights":[-4.9361974E-2,-6.227376E-2,4.56698E-1,-2.2980457E-2,-1.9156626E-1,5.1638722E-2,2.117405E-1,-5.612966E-2,2.0892666E-1,3.6165334E-2,-2.2381867E-1,-1.0741829E-2,4.103674E-1,-2.2725568E-3,-3.9942697E-2,1.6622268E-2,-7.4314484E-3,-1.3557674E-2,1.1838251E-2,4.5324873E-2,-3.4292246E-4],"categories":[],"categories_nodes":[],"categories_segments":[],"categories_sizes":[],"default_left":[0,0,0,0,0,0,0,0,0,0,0,0,0,0,0,0,0,0,0,0,0],"id":35,"left_children":[1,3,5,7,9,-1,11,13,15,-1,17,-1,19,-1,-1,-1,-1,-1,-1,-1,-1],"loss_changes":[7.7299623E0,5.8390675E0,3.93636E0,6.8018475E0,8.068287E0,0E0,1.9452301E0,6.099161E0,4.9374337E0,0E0,5.723692E0,0E0,3.1728752E0,0E0,0E0,0E0,0E0,0E0,0E0,0E0,0E0],"parents":[2147483647,0,0,1,1,2,2,3,3,4,4,6,6,7,7,8,8,10,10,12,12],"right_children":[2,4,6,8,10,-1,12,14,16,-1,18,-1,20,-1,-1,-1,-1,-1,-1,-1,-1],"split_conditions":[1.2371513E0,4.557418E0,3.75E0,4.431556E0,2.7333333E0,5.1638722E-2,4.3846154E0,8.666667E-1,6.25E-1,3.6165334E-2,7.921667E-2,-1.0741829E-2,4.9333334E0,-2.2725568E-3,-3.9942697E-2,1.6622268E-2,-7.4314484E-3,-1.3557674E-2,1.1838251E-2,4.5324873E-2,-3.4292246E-4],"split_indices":[36,27,4,27,0,0,0,2,2,0,34,0,0,0,0,0,0,0,0,0,0],"split_type":[0,0,0,0,0,0,0,0,0,0,0,0,0,0,0,0,0,0,0,0,0],"sum_hessian":[1.1776592E3,1.1492146E3,2.844451E1,8.822635E2,2.669511E2,7.5269475E0,2.0917562E1,7.725866E2,1.096769E2,8.360843E0,2.5859027E2,6.619569E0,1.4297993E1,7.626823E2,9.904278E0,8.15689E1,2.8108002E1,2.3486424E2,2.3726034E1,5.995714E0,8.3022785E0],"tree_param":{"num_deleted":"0","num_feature":"37","num_nodes":"21","size_leaf_vector":"1"}},{"base_weights":[-4.1579497E-3,-2.8679864E-2,2.8897882E-1,-3.7831858E-2,7.8903484E-1,4.189809E-1,-3.6715907E-1,-3.4359208E-1,-2.351087E-2,2.3087367E-2,4.892805E-2,6.681961E-1,3.564685E-2,-4.3737564E-2,4.941817E-3,-4.3868897E-3,-3.4305345E-2,-6.501924E-4,-2.274287E-2,1.4842013E-2,5.2987535E-2,-2.4666982E-2,3.272119E-2],"categories":[],"categories_nodes":[],"categories_segments":[],"categories_sizes":[],"default_left":[0,0,0,0,0,0,0,0,0,0,0,0,0,0,0,0,0,0,0,0,0,0,0],"id":36,"left_children":[1,3,5,7,9,11,13,15,17,-1,-1,19,21,-1,-1,-1,-1,-1,-1,-1,-1,-1,-1],"loss_changes":[8.349819E0,8.050638E0,7.802709E0,4.637188E0,2.868209E-1,7.1706886E0,3.7200332E0,4.0928693E0,4.5918117E0,0E0,0E0,6.3133583E0,1.038061E1,0E0,0E0,0E0,0E0,0E0,0E0,0E0,0E0,0E0,0E0],"parents":[2147483647,0,0,1,1,2,2,3,3,4,4,5,5,6,6,7,7,8,8,11,11,12,12],"right_children":[2,4,6,8,10,12,14,16,18,-1,-1,20,22,-1,-1,-1,-1,-1,-1,-1,-1,-1,-1],"split_conditions":[3.3333334E-1,1.4491011E0,2.7333333E0,-1.138062E0,4.142857E0,3.29E0,3.1333334E0,1.1428572E0,3.2666667E0,2.3087367E-2,4.892805E-2,2.7272728E-1,1.5E0,-4.3737564E-2,4.941817E-3,-4.3868897E-3,-3.4305345E-2,-6.501924E-4,-2.274287E-2,1.4842013E-2,5.2987535E-2,-2.4666982E-2,3.272119E-2],"split_indices":[8,36,3,36,0,15,3,7,9,0,0,6,10,0,0,0,0,0,0,0,0,0,0],"split_type":[0,0,0,0,0,0,0,0,0,0,0,0,0,0,0,0,0,0,0,0,0,0,0],"sum_hessian":[1.1594358E3,1.0707648E3,8.867105E1,1.0598563E3,1.0908347E1,7.43094E1,1.4361644E1,4.63911E1,1.0134653E3,5.2604856E0,5.647862E0,4.458224E1,2.9727163E1,6.4541745E0,7.9074697E0,2.7273956E1,1.9117146E1,9.903713E2,2.309397E1,2.3783628E1,2.0798615E1,1.613566E1,1.3591503E1],"tree_param":{"num_deleted":"0","num_feature":"37","num_nodes":"23","size_leaf_vector":"1"}},{"base_weights":[7.7129533E-3,1.9533904E-1,-2.9325284E-2,-2.7675796E-1,2.852495E-1,-2.1376884E-1,1.4091925E-2,-9.0261674E-1,1.2512639E-1,7.272367E-2,4.128968E-1,-3.9741257E-1,-6.157166E-2,2.8259631E-2,-4.5675823E-1,-6.706354E-2,-1.8331392E-2,3.404477E-2,-1.9306554E-2,-9.48416E-3,1.847383E-2,1.3121733E-2,4.351837E-2,1.36344E-2,-2.2956267E-2,6.72336E-3,-2.2762524E-2,4.1214605E-3,-4.099756E-3,-4.570141E-2,1.460122E-2],"categories":[],"categories_nodes":[],"categories_segments":[],"categories_sizes":[],"default_left":[0,0,0,0,0,0,0,0,0,0,0,0,0,0,0,0,0,0,0,0,0,0,0,0,0,0,0,0,0,0,0],"id":37,"left_children":[1,3,5,7,9,11,13,15,17,19,21,23,25,27,29,-1,-1,-1,-1,-1,-1,-1,-1,-1,-1,-1,-1,-1,-1,-1,-1],"loss_changes":[8.052222E0,8.187022E0,7.7536607E0,7.9269834E0,4.336335E0,5.131774E0,5.2454E0,2.3931055E0,5.8880258E0,4.8676343E0,6.678337E0,3.5749264E0,7.937878E0,4.5602117E0,8.131933E0,0E0,0E0,0E0,0E0,0E0,0E0,0E0,0E0,0E0,0E0,0E0,0E0,0E0,0E0,0E0,0E0],"parents":[2147483647,0,0,1,1,2,2,3,3,4,4,5,5,6,6,7,7,8,8,9,9,10,10,11,11,12,12,13,13,14,14],"right_children":[2,4,6,8,10,12,14,16,18,20,22,24,26,28,30,-1,-1,-1,-1,-1,-1,-1,-1,-1,-1,-1,-1,-1,-1,-1,-1],"split_conditions":[3.6363637E-1,-3.0532178E-1,7.590909E0,2.7272728E-1,7.481818E0,4.096667E0,3.2666667E0,1.4657778E0,-1.5E-1,-1.7333333E0,1.338125E0,3.0666666E0,5.114E0,3.2823224E0,2.875E0,-6.706354E-2,-1.8331392E-2,3.404477E-2,-1.9306554E-2,-9.48416E-3,1.847383E-2,1.3121733E-2,4.351837E-2,1.36344E-2,-2.2956267E-2,6.72336E-3,-2.2762524E-2,4.1214605E-3,-4.099756E-3,-4.570141E-2,1.460122E-2],"split_indices":[6,36,14,6,18,16,9,13,21,7,13,0,16,31,3,0,0,0,0,0,0,0,0,0,0,0,0,0,0,0,0],"split_type":[0,0,0,0,0,0,0,0,0,0,0,0,0,0,0,0,0,0,0,0,0,0,0,0,0,0,0,0,0,0,0],"sum_hessian":[1.1568792E3,1.9001888E2,9.668602E2,3.0066929E1,1.5995195E2,1.8348056E2,7.833797E2,1.1270031E1,1.8796898E1,6.060974E1,9.93422E1,8.242E1,1.01060555E2,7.614091E2,2.1970535E1,5.3715353E0,5.8984957E0,8.847407E0,9.9494915E0,3.235781E1,2.8251928E1,7.5939384E1,2.3402819E1,6.662071E0,7.5757935E1,6.790472E1,3.3155838E1,5.107322E2,2.5067694E2,1.3503483E1,8.467053E0],"tree_param":{"num_deleted":"0","num_feature":"37","num_nodes":"31","size_leaf_vector":"1"}},{"base_weights":[-5.217499E-3,-2.9121356E-2,2.9173505E-1,-4.0954638E-1,-1.3143565E-2,-1.5936354E-1,3.815263E-1,-1.7397156E-1,-7.297243E-1,-1.9088587E-2,4.4479474E-2,-3.335301E-2,1.2989941E-2,5.7517916E-1,1.4081997E-1,6.3693165E-3,-2.6309196E-2,-1.89567E-2,-6.0441077E-2,-1.5381259E-3,1.8985122E-2,3.940658E-3,4.1961204E-2,-9.895372E-3,2.9292384E-2],"categories":[],"categories_nodes":[],"categories_segments":[],"categories_sizes":[],"default_left":[0,0,0,0,0,0,0,0,0,0,0,0,0,0,0,0,0,0,0,0,0,0,0,0,0],"id":38,"left_children":[1,3,5,7,9,11,13,15,17,19,-1,-1,-1,21,23,-1,-1,-1,-1,-1,-1,-1,-1,-1,-1],"loss_changes":[8.251223E0,6.532623E0,3.568595E0,3.1406384E0,5.5624595E0,3.3828373E0,3.2994232E0,2.8555324E0,2.5735674E0,4.79525E0,0E0,0E0,0E0,5.158539E0,5.1894E0,0E0,0E0,0E0,0E0,0E0,0E0,0E0,0E0,0E0,0E0],"parents":[2147483647,0,0,1,1,2,2,3,3,4,4,5,5,6,6,7,7,8,8,9,9,13,13,14,14],"right_children":[2,4,6,8,10,12,14,16,18,20,-1,-1,-1,22,24,-1,-1,-1,-1,-1,-1,-1,-1,-1,-1],"split_conditions":[1.6E0,-1.138062E0,4.3614287E0,1.1428572E0,3.6E0,9.235714E0,4.05625E0,-1.1538461E0,-2.857143E-1,2.767E-1,4.4479474E-2,-3.335301E-2,1.2989941E-2,3.4615386E0,3.194625E0,6.3693165E-3,-2.6309196E-2,-1.89567E-2,-6.0441077E-2,-1.5381259E-3,1.8985122E-2,3.940658E-3,4.1961204E-2,-9.895372E-3,2.9292384E-2],"split_indices":[35,36,16,7,3,14,12,3,8,34,0,0,0,1,26,0,0,0,0,0,0,0,0,0,0],"split_type":[0,0,0,0,0,0,0,0,0,0,0,0,0,0,0,0,0,0,0,0,0,0,0,0,0],"sum_hessian":[1.1602236E3,1.0746215E3,8.560212E1,4.2321873E1,1.0322996E3,1.4081887E1,7.152023E1,2.5271452E1,1.705042E1,1.0265182E3,5.7813644E0,6.100928E0,7.9809594E0,3.886392E1,3.265631E1,1.3962912E1,1.130854E1,1.0880049E1,6.1703715E0,9.982199E2,2.8298338E1,1.3945985E1,2.4917936E1,1.8858038E1,1.3798273E1],"tree_param":{"num_deleted":"0","num_feature":"37","num_nodes":"25","size_leaf_vector":"1"}},{"base_weights":[1.3487227E-3,-3.849491E-2,1.8200745E-1,-2.1780409E-1,6.603759E-3,8.5286766E-1,1.2965733E-1,-7.813424E-1,-1.3864283E-1,1.15920566E-1,-9.045146E-2,2.5489444E-2,6.2054057E-2,3.5904665E-2,4.7820327E-1,-3.8842263E-4,-5.1117744E-2,-3.6027175E-3,-4.681923E-2,3.0158568E-5,1.5060157E-2,-5.4816636E-3,4.165181E-2,5.5835294E-3,-2.403762E-2,-1.5965981E-2,3.389586E-2],"categories":[],"categories_nodes":[],"categories_segments":[],"categories_sizes":[],"default_left":[0,0,0,0,0,0,0,0,0,0,0,0,0,0,0,0,0,0,0,0,0,0,0,0,0,0,0],"id":39,"left_children":[1,3,5,7,9,11,13,15,17,19,21,-1,-1,23,25,-1,-1,-1,-1,-1,-1,-1,-1,-1,-1,-1,-1],"loss_changes":[8.160514E0,7.512903E0,7.0837812E0,8.220591E0,7.8953867E0,1.3184013E0,6.2308235E0,4.2392845E0,8.693308E0,7.4769006E0,7.0747213E0,0E0,0E0,5.994183E0,6.658843E0,0E0,0E0,0E0,0E0,0E0,0E0,0E0,0E0,0E0,0E0,0E0,0E0],"parents":[2147483647,0,0,1,1,2,2,3,3,4,4,5,5,6,6,7,7,8,8,9,9,10,10,13,13,14,14],"right_children":[2,4,6,8,10,12,14,16,18,20,22,-1,-1,24,26,-1,-1,-1,-1,-1,-1,-1,-1,-1,-1,-1,-1],"split_conditions":[1.8666667E0,2.4371428E0,-9.579365E-1,3.723125E0,8.4E0,2.1428572E-1,9.1375E0,-1.25E-1,1.4285715E-1,-1.6E-1,6.818182E0,2.5489444E-2,6.2054057E-2,-2.5E-1,5.555556E-1,-3.8842263E-4,-5.1117744E-2,-3.6027175E-3,-4.681923E-2,3.0158568E-5,1.5060157E-2,-5.4816636E-3,4.165181E-2,5.5835294E-3,-2.403762E-2,-1.5965981E-2,3.389586E-2],"split_indices":[9,15,22,16,14,8,14,7,8,22,4,0,0,7,10,0,0,0,0,0,0,0,0,0,0,0,0],"split_type":[0,0,0,0,0,0,0,0,0,0,0,0,0,0,0,0,0,0,0,0,0,0,0,0,0,0,0],"sum_hessian":[1.1317306E3,9.2787744E2,2.0385313E2,1.8570355E2,7.421739E2,1.3649165E1,1.9020396E2,2.1780544E1,1.63923E2,3.4894742E2,3.932265E2,8.473756E0,5.1754093E0,1.5075623E2,3.9447735E1,5.4191184E0,1.6361425E1,1.5230061E2,1.1622396E1,2.1570114E2,1.3324626E2,3.8608832E2,7.138176E0,1.3215938E2,1.8596842E1,7.7801547E0,3.1667582E1],"tree_param":{"num_deleted":"0","num_feature":"37","num_nodes":"27","size_leaf_vector":"1"}},{"base_weights":[3.827663E-3,-5.303027E-2,1.4122333E-1,-7.743645E-2,1.8079966E-1,1.1084825E-1,6.69347E-1,-4.353486E-2,-2.9504347E-1,5.703117E-1,-1.8124959E-1,2.4758026E-1,-3.136201E-2,4.9268585E-2,1.3211444E-2,2.0374132E-2,-3.0755978E-3,8.597342E-3,-2.39571E-2,3.8152587E-2,-7.988903E-3,2.6529882E-2,-1.5280835E-2,2.913164E-2,5.201898E-3,-1.2513434E-2,6.3881697E-3],"categories":[],"categories_nodes":[],"categories_segments":[],"categories_sizes":[],"default_left":[0,0,0,0,0,0,0,0,0,0,0,0,0,0,0,0,0,0,0,0,0,0,0,0,0,0,0],"id":40,"left_children":[1,3,5,7,9,11,13,15,17,19,21,23,25,-1,-1,-1,-1,-1,-1,-1,-1,-1,-1,-1,-1,-1,-1],"loss_changes":[9.036897E0,4.6836586E0,5.357312E0,5.458215E0,1.1051433E1,6.2566805E0,2.0718012E0,5.237069E0,8.6616745E0,5.4184494E0,3.7913704E0,7.8245525E0,5.550183E0,0E0,0E0,0E0,0E0,0E0,0E0,0E0,0E0,0E0,0E0,0E0,0E0,0E0,0E0],"parents":[2147483647,0,0,1,1,2,2,3,3,4,4,5,5,6,6,7,7,8,8,9,9,10,10,11,11,12,12],"right_children":[2,4,6,8,10,12,14,16,18,20,22,24,26,-1,-1,-1,-1,-1,-1,-1,-1,-1,-1,-1,-1,-1,-1],"split_conditions":[4.5089287E-1,3.5669143E0,9.457143E0,3.3542113E0,1.5158333E-2,9.430769E-1,7.5875E0,2.6666668E-1,4.186944E0,5.021533E0,3.625E0,-9.52381E-3,6.666667E-2,4.9268585E-2,1.3211444E-2,2.0374132E-2,-3.0755978E-3,8.597342E-3,-2.39571E-2,3.8152587E-2,-7.988903E-3,2.6529882E-2,-1.5280835E-2,2.913164E-2,5.201898E-3,-1.2513434E-2,6.3881697E-3],"split_indices":[20,31,14,31,21,20,30,2,27,27,5,35,10,0,0,0,0,0,0,0,0,0,0,0,0,0,0],"split_type":[0,0,0,0,0,0,0,0,0,0,0,0,0,0,0,0,0,0,0,0,0,0,0,0,0,0,0],"sum_hessian":[1.1548334E3,8.172485E2,3.3758487E2,7.4061505E2,7.663343E1,3.203687E2,1.721614E1,6.4182367E2,9.879139E1,3.6639477E1,3.999395E1,1.6295253E2,1.5741618E2,8.86692E0,8.349219E0,2.3771317E1,6.180523E2,2.7952408E1,7.083898E1,2.8951326E1,7.6881514E0,5.462358E0,3.4531593E1,4.795599E1,1.1499654E2,6.602025E1,9.139594E1],"tree_param":{"num_deleted":"0","num_feature":"37","num_nodes":"27","size_leaf_vector":"1"}},{"base_weights":[-7.843717E-3,4.4491147E-3,-5.3470993E-1,-1.9918162E-1,3.0267129E-2,1.6854572E-1,-9.994044E-1,-7.60464E-2,-6.2779087E-1,1.4572376E-2,2.9339948E-1,-1.8026862E-2,3.1975705E-2,-6.3098066E-2,-1.9511966E-2,-7.157893E-3,4.3494217E-2,-4.0758873E-4,-4.379944E-2,1.8601151E-2,6.524117E-5,-4.185581E-2,2.6026387E-2],"categories":[],"categories_nodes":[],"categories_segments":[],"categories_sizes":[],"default_left":[0,0,0,0,0,0,0,0,0,0,0,0,0,0,0,0,0,0,0,0,0,0,0],"id":41,"left_children":[1,3,5,7,9,11,13,15,17,19,21,-1,-1,-1,-1,-1,-1,-1,-1,-1,-1,-1,-1],"loss_changes":[7.546665E0,5.995571E0,8.850378E0,6.7248535E0,4.1748605E0,3.0776615E0,2.0891E0,6.525119E0,4.3761225E0,4.5335236E0,1.50483055E1,0E0,0E0,0E0,0E0,0E0,0E0,0E0,0E0,0E0,0E0,0E0,0E0],"parents":[2147483647,0,0,1,1,2,2,3,3,4,4,5,5,6,6,7,7,8,8,9,9,10,10],"right_children":[2,4,6,8,10,12,14,16,18,20,22,-1,-1,-1,-1,-1,-1,-1,-1,-1,-1,-1,-1],"split_conditions":[6.6E0,3.7871428E0,1.2613846E0,3.4363205E0,5.866667E0,1.2082857E0,4.8399243E0,3.2961607E0,1.3404444E0,2.857143E0,3.6666667E0,-1.8026862E-2,3.1975705E-2,-6.3098066E-2,-1.9511966E-2,-7.157893E-3,4.3494217E-2,-4.0758873E-4,-4.379944E-2,1.8601151E-2,6.524117E-5,-4.185581E-2,2.6026387E-2],"split_indices":[1,16,17,26,1,17,27,26,24,1,5,0,0,0,0,0,0,0,0,0,0,0,0],"split_type":[0,0,0,0,0,0,0,0,0,0,0,0,0,0,0,0,0,0,0,0,0,0,0],"sum_hessian":[1.1638389E3,1.1382722E3,2.556659E1,1.2732502E2,1.01094727E3,1.0425788E1,1.5140801E1,9.9824E1,2.7501024E1,9.550386E2,5.5908703E1,5.02039E0,5.4053984E0,9.831633E0,5.309169E0,9.400335E1,5.820647E0,8.160574E0,1.934045E1,3.3211937E1,9.218266E2,8.903997E0,4.7004704E1],"tree_param":{"num_deleted":"0","num_feature":"37","num_nodes":"23","size_leaf_vector":"1"}},{"base_weights":[-1.2731156E-2,2.1529849E-1,-5.735514E-2,2.3265015E-3,4.0768704E-1,2.5086261E-2,-1.3133879E-1,-4.8143286E-1,1.6824262E-1,2.804685E-1,8.054189E-1,-7.177632E-2,1.5683979E-1,-7.209717E-1,-1.14188544E-1,1.142905E-2,-4.196585E-2,1.672081E-3,3.7639886E-2,6.2479414E-3,3.7956253E-2,1.032156E-2,4.9166825E-2,-1.7151287E-2,8.358452E-4,-2.5001524E-2,1.0357401E-2,-5.9218068E-2,2.9962486E-5,-1.1777211E-2,-1.6853526E-3],"categories":[],"categories_nodes":[],"categories_segments":[],"categories_sizes":[],"default_left":[0,0,0,0,0,0,0,0,0,0,0,0,0,0,0,0,0,0,0,0,0,0,0,0,0,0,0,0,0,0,0],"id":42,"left_children":[1,3,5,7,9,11,13,15,17,19,21,23,25,27,29,-1,-1,-1,-1,-1,-1,-1,-1,-1,-1,-1,-1,-1,-1,-1,-1],"loss_changes":[1.1716916E1,7.721224E0,5.875661E0,7.3412085E0,4.784067E0,5.8333592E0,5.0505457E0,6.127583E0,5.34063E0,5.603366E0,2.2972584E0,6.3331676E0,6.501435E0,4.7347946E0,4.821064E0,0E0,0E0,0E0,0E0,0E0,0E0,0E0,0E0,0E0,0E0,0E0,0E0,0E0,0E0,0E0,0E0],"parents":[2147483647,0,0,1,1,2,2,3,3,4,4,5,5,6,6,7,7,8,8,9,9,10,10,11,11,12,12,13,13,14,14],"right_children":[2,4,6,8,10,12,14,16,18,20,22,24,26,28,30,-1,-1,-1,-1,-1,-1,-1,-1,-1,-1,-1,-1,-1,-1,-1,-1],"split_conditions":[3.6363637E-1,3.3333334E-1,4.224865E0,4.2807326E0,2.857143E-1,4.3333335E0,3.2222223E0,2.8771644E0,9.1E0,5.214286E0,1.2113637E0,-4.6666667E-1,-3E0,1.2719412E0,4.431556E0,1.142905E-2,-4.196585E-2,1.672081E-3,3.7639886E-2,6.2479414E-3,3.7956253E-2,1.032156E-2,4.9166825E-2,-1.7151287E-2,8.358452E-4,-2.5001524E-2,1.0357401E-2,-5.9218068E-2,2.9962486E-5,-1.1777211E-2,-1.6853526E-3],"split_indices":[6,6,27,32,8,1,4,31,25,1,13,9,9,29,27,0,0,0,0,0,0,0,0,0,0,0,0,0,0,0,0],"split_type":[0,0,0,0,0,0,0,0,0,0,0,0,0,0,0,0,0,0,0,0,0,0,0,0,0,0,0,0,0,0,0],"sum_hessian":[1.1492592E3,1.8746805E2,9.617911E2,8.9454735E1,9.801331E1,4.5520657E2,5.065845E2,2.2359573E1,6.709516E1,7.5552315E1,2.2460999E1,2.6260202E2,1.9260458E2,1.3158289E1,4.934262E2,7.6144342E0,1.4745138E1,5.5381218E1,1.1713945E1,5.7977272E1,1.7575047E1,5.6384683E0,1.682253E1,6.3890022E1,1.9871198E2,1.3065831E1,1.7953874E2,7.622066E0,5.5362225E0,1.9598282E2,2.974434E2],"tree_param":{"num_deleted":"0","num_feature":"37","num_nodes":"31","size_leaf_vector":"1"}},{"base_weights":[2.0328213E-2,1.994465E-1,-1.5268715E-2,-1.8847178E-1,2.6747268E-1,3.5009716E-2,-1.7464899E-1,2.144865E-2,-5.306611E-1,3.13019E-1,-3.7977743E-1,2.2081982E-2,4.390819E-1,1.3781485E-1,-2.2127001E-1,1.36634875E-2,-5.357019E-2,4.742543E-2,1.29271075E-2,-3.0177174E-2,-4.787037E-3,1.539715E-3,-3.0721346E-2,-1.7425837E-2,3.6326926E-2,1.9376636E-2,-2.842041E-2,-1.4476818E-2,3.5283917E-3],"categories":[],"categories_nodes":[],"categories_segments":[],"categories_sizes":[],"default_left":[0,0,0,0,0,0,0,0,0,0,0,0,0,0,0,0,0,0,0,0,0,0,0,0,0,0,0,0,0],"id":43,"left_children":[1,3,5,7,9,11,13,-1,15,17,19,21,23,25,27,-1,-1,-1,-1,-1,-1,-1,-1,-1,-1,-1,-1,-1,-1],"loss_changes":[7.3271E0,5.0776253E0,7.6923413E0,6.3569546E0,4.9092665E0,3.803559E0,3.3837194E0,0E0,8.601374E0,5.0294714E0,6.499202E-1,3.947374E0,5.3648567E0,5.599514E0,4.0186195E0,0E0,0E0,0E0,0E0,0E0,0E0,0E0,0E0,0E0,0E0,0E0,0E0,0E0,0E0],"parents":[2147483647,0,0,1,1,2,2,3,3,4,4,5,5,6,6,8,8,9,9,10,10,11,11,12,12,13,13,14,14],"right_children":[2,4,6,8,10,12,14,-1,16,18,20,22,24,26,28,-1,-1,-1,-1,-1,-1,-1,-1,-1,-1,-1,-1,-1,-1],"split_conditions":[3.6363637E-1,4.046103E0,1.360375E0,2.5799038E0,7E0,1.9E0,2.939624E0,2.144865E-2,-7.351429E-1,3E0,8.32E0,1.7763889E0,1.1551429E0,3.2233334E0,8.288889E0,1.36634875E-2,-5.357019E-2,4.742543E-2,1.29271075E-2,-3.0177174E-2,-4.787037E-3,1.539715E-3,-3.0721346E-2,-1.7425837E-2,3.6326926E-2,1.9376636E-2,-2.842041E-2,-1.4476818E-2,3.5283917E-3],"split_indices":[6,32,13,31,5,22,26,0,20,1,14,22,13,19,14,0,0,0,0,0,0,0,0,0,0,0,0,0,0],"split_type":[0,0,0,0,0,0,0,0,0,0,0,0,0,0,0,0,0,0,0,0,0,0,0,0,0,0,0,0,0],"sum_hessian":[1.14768E3,1.8950699E2,9.581731E2,2.8009975E1,1.6149701E2,7.2898596E2,2.291871E2,9.89745E0,1.8112524E1,1.513622E2,1.0134812E1,7.074081E2,2.1577896E1,2.9502064E1,1.9968503E2,7.4826245E0,1.0629899E1,1.0655166E1,1.4070703E2,5.039657E0,5.095155E0,6.9879486E2,8.613244E0,5.7128687E0,1.5865028E1,2.2128698E1,7.3733654E0,1.6183636E2,3.784867E1],"tree_param":{"num_deleted":"0","num_feature":"37","num_nodes":"29","size_leaf_vector":"1"}},{"base_weights":[1.3054977E-2,5.842432E-2,-1.5497029E-1,-2.677989E-3,1.8213229E-1,4.5950502E-1,-1.9246908E-1,3.3773124E-1,-3.231861E-2,2.0841318E-1,-4.4193517E-2,-2.1332214E-3,4.2730313E-2,-2.378058E-1,2.054801E-1,3.9768137E-2,3.9006583E-3,-9.330541E-3,1.6516064E-3,4.431306E-3,1.8130174E-2,-7.5585046E-3,-2.7886966E-2,-1.4608699E-2,2.5803251E-2],"categories":[],"categories_nodes":[],"categories_segments":[],"categories_sizes":[],"default_left":[0,0,0,0,0,0,0,0,0,0,0,0,0,0,0,0,0,0,0,0,0,0,0,0,0],"id":44,"left_children":[1,3,5,7,9,11,13,15,17,19,-1,-1,-1,21,23,-1,-1,-1,-1,-1,-1,-1,-1,-1,-1],"loss_changes":[8.76829E0,6.8447084E0,5.723731E0,6.1363163E0,8.571468E0,2.8859067E0,4.220174E0,5.727842E0,5.646314E0,5.3792973E0,0E0,0E0,0E0,5.6815434E0,3.8885427E0,0E0,0E0,0E0,0E0,0E0,0E0,0E0,0E0,0E0,0E0],"parents":[2147483647,0,0,1,1,2,2,3,3,4,4,5,5,6,6,7,7,8,8,9,9,13,13,14,14],"right_children":[2,4,6,8,10,12,14,16,18,20,-1,-1,-1,22,24,-1,-1,-1,-1,-1,-1,-1,-1,-1,-1],"split_conditions":[4.564961E0,4.6153846E0,2.456664E0,-1.1222222E0,6.4666667E0,-2.8616667E-1,6.8904765E-2,-9.3125E-2,-1.6666667E-1,1.5176627E-1,-4.4193517E-2,-2.1332214E-3,4.2730313E-2,-3.1951505E-1,0E0,3.9768137E-2,3.9006583E-3,-9.330541E-3,1.6516064E-3,4.431306E-3,1.8130174E-2,-7.5585046E-3,-2.7886966E-2,-1.4608699E-2,2.5803251E-2],"split_indices":[27,1,31,22,0,21,21,21,9,36,0,0,0,36,8,0,0,0,0,0,0,0,0,0,0],"split_type":[0,0,0,0,0,0,0,0,0,0,0,0,0,0,0,0,0,0,0,0,0,0,0,0,0],"sum_hessian":[1.1480242E3,9.04459E2,2.4356522E2,6.0607996E2,2.98379E2,1.3361565E1,2.3020366E2,4.7713833E1,5.5836615E2,2.9198495E2,6.3940167E0,6.276375E0,7.08519E0,2.0702101E2,2.3182638E1,1.6528204E1,3.1185629E1,1.6557954E2,3.927866E2,1.6521097E2,1.26773994E2,1.640657E2,4.2955315E1,8.931255E0,1.4251383E1],"tree_param":{"num_deleted":"0","num_feature":"37","num_nodes":"25","size_leaf_vector":"1"}},{"base_weights":[-1.3325642E-2,7.092958E-1,-2.1419924E-2,9.760405E-3,5.4960515E-2,-3.8513665E-3,-2.854807E-1,2.0264097E-1,-2.5387721E-2,-5.1499164E-1,1.2479128E-1,1.8734118E-2,-9.466982E-3,-2.3578057E-2,-6.58957E-4,-3.6383115E-2,-5.561217E-3,2.9580284E-2,-1.3174266E-2],"categories":[],"categories_nodes":[],"categories_segments":[],"categories_sizes":[],"default_left":[0,0,0,0,0,0,0,0,0,0,0,0,0,0,0,0,0,0,0],"id":45,"left_children":[1,3,5,-1,-1,7,9,11,13,15,17,-1,-1,-1,-1,-1,-1,-1,-1],"loss_changes":[6.752036E0,2.3487296E0,5.2874866E0,0E0,0E0,4.763024E0,6.7592506E0,6.8926907E0,5.276034E0,3.8509989E0,4.924848E0,0E0,0E0,0E0,0E0,0E0,0E0,0E0,0E0],"parents":[2147483647,0,0,1,1,2,2,5,5,6,6,7,7,8,8,9,9,10,10],"right_children":[2,4,6,-1,-1,8,10,12,14,16,18,-1,-1,-1,-1,-1,-1,-1,-1],"split_conditions":[-2.9333334E0,1.2666667E0,6.0666666E0,9.760405E-3,5.4960515E-2,-1.6363636E0,6.6666665E0,2.6984127E-2,-1.62875E0,8.6125E0,-2.6E0,1.8734118E-2,-9.466982E-3,-2.3578057E-2,-6.58957E-4,-3.6383115E-2,-5.561217E-3,2.9580284E-2,-1.3174266E-2],"split_indices":[7,10,4,0,0,3,4,22,20,14,10,0,0,0,0,0,0,0,0],"split_type":[0,0,0,0,0,0,0,0,0,0,0,0,0,0,0,0,0,0,0],"sum_hessian":[1.1507739E3,1.1787739E1,1.1389862E3,5.731549E0,6.0561905E0,1.0688855E3,7.010076E1,1.0015754E2,9.687279E2,4.4789658E1,2.5311102E1,6.963756E1,3.0519985E1,2.4799059E1,9.4392883E2,2.881183E1,1.5977826E1,1.1255386E1,1.4055716E1],"tree_param":{"num_deleted":"0","num_feature":"37","num_nodes":"19","size_leaf_vector":"1"}},{"base_weights":[2.0544471E-2,-1.3432716E-1,5.3719208E-2,-8.558517E-2,-6.774974E-1,7.62868E-2,-1.9694495E-1,5.512683E-2,-3.2827604E-1,-5.3745944E-2,6.4899353E-4,1.3783339E-1,-2.2708876E-2,-3.186574E-1,4.1370153E-1,5.753638E-3,-2.61154E-2,-2.5601033E-2,7.813643E-3,-5.1830327E-3,9.126863E-3,1.5682714E-2,-3.901782E-3,1.3676743E-2,-1.8889805E-2,4.036891E-2,2.630165E-3],"categories":[],"categories_nodes":[],"categories_segments":[],"categories_sizes":[],"default_left":[0,0,0,0,0,0,0,0,0,0,0,0,0,0,0,0,0,0,0,0,0,0,0,0,0,0,0],"id":46,"left_children":[1,3,5,7,9,11,13,15,17,-1,-1,19,21,23,25,-1,-1,-1,-1,-1,-1,-1,-1,-1,-1,-1,-1],"loss_changes":[5.9506006E0,5.3525953E0,5.408446E0,6.461426E0,4.5922446E0,5.3367977E0,6.00541E0,4.2238936E0,6.2581096E0,0E0,0E0,5.847971E0,6.2859073E0,2.430818E0,1.8864245E0,0E0,0E0,0E0,0E0,0E0,0E0,0E0,0E0,0E0,0E0,0E0,0E0],"parents":[2147483647,0,0,1,1,2,2,3,3,4,4,5,5,6,6,7,7,8,8,11,11,12,12,13,13,14,14],"right_children":[2,4,6,8,10,12,14,16,18,-1,-1,20,22,24,26,-1,-1,-1,-1,-1,-1,-1,-1,-1,-1,-1,-1],"split_conditions":[2.4371428E0,5.3125E-1,5.866667E0,5.3846157E-1,4.6363635E0,5.714286E-1,6.8E0,3.8744445E0,3.431111E0,-5.3745944E-2,6.4899353E-4,-5.108677E-1,2.636587E0,3.7048717E0,7.0666666E0,5.753638E-3,-2.61154E-2,-2.5601033E-2,7.813643E-3,-5.1830327E-3,9.126863E-3,1.5682714E-2,-3.901782E-3,1.3676743E-2,-1.8889805E-2,4.036891E-2,2.630165E-3],"split_indices":[15,22,4,6,4,2,4,19,19,0,0,36,31,27,4,0,0,0,0,0,0,0,0,0,0,0,0],"split_type":[0,0,0,0,0,0,0,0,0,0,0,0,0,0,0,0,0,0,0,0,0,0,0,0,0,0,0],"sum_hessian":[1.1557898E3,2.0336406E2,9.524258E2,1.8767995E2,1.5684105E1,8.743983E2,7.8027466E1,1.1928908E2,6.839088E1,9.601148E0,6.0829577E0,5.3894104E2,3.3545728E2,6.5458595E1,1.2568872E1,1.08795296E2,1.0493778E1,4.954597E1,1.88449E1,8.397611E1,4.5496494E2,4.67243E1,2.8873297E2,5.614255E0,5.9844337E1,5.421905E0,7.1469674E0],"tree_param":{"num_deleted":"0","num_feature":"37","num_nodes":"27","size_leaf_vector":"1"}},{"base_weights":[-1.4345569E-2,1.0008794E-2,-2.0038815E-1,2.248366E-3,3.719708E-2,2.9287433E-2,-2.6027521E-1,8.926697E-3,-3.1457257E-2,-1.3642372E-1,-9.71644E-1,3.616932E-2,-9.375334E-6,3.8915547E-4,-1.9478861E-2,-6.829576E-2,-1.5132683E-2],"categories":[],"categories_nodes":[],"categories_segments":[],"categories_sizes":[],"default_left":[0,0,0,0,0,0,0,0,0,0,0,0,0,0,0,0,0],"id":47,"left_children":[1,3,5,7,-1,-1,9,11,-1,13,15,-1,-1,-1,-1,-1,-1],"loss_changes":[5.271476E0,5.8609886E0,6.4926105E0,4.304743E0,0E0,0E0,1.0953485E1,6.576162E0,0E0,3.9579077E0,4.4649944E0,0E0,0E0,0E0,0E0,0E0,0E0],"parents":[2147483647,0,0,1,1,2,2,3,3,6,6,7,7,9,9,10,10],"right_children":[2,4,6,8,-1,-1,10,12,-1,14,16,-1,-1,-1,-1,-1,-1],"split_conditions":[4.8472314E0,3.5333333E0,7.133333E0,7E0,3.719708E-2,2.9287433E-2,-3.7708333E-1,-2.6666667E0,-3.1457257E-2,-6.666667E-1,-5.1111114E-1,3.616932E-2,-9.375334E-6,3.8915547E-4,-1.9478861E-2,-6.829576E-2,-1.5132683E-2],"split_indices":[27,7,18,5,0,0,20,7,0,9,22,0,0,0,0,0,0],"split_type":[0,0,0,0,0,0,0,0,0,0,0,0,0,0,0,0,0],"sum_hessian":[1.161995E3,1.0283257E3,1.3366931E2,1.0185588E3,9.766932E0,8.840416E0,1.24828896E2,1.0088736E3,9.685125E0,1.07333565E2,1.749533E1,1.1720719E1,9.971529E2,6.899843E1,3.8335136E1,1.0352375E1,7.142956E0],"tree_param":{"num_deleted":"0","num_feature":"37","num_nodes":"17","size_leaf_vector":"1"}},{"base_weights":[1.229282E-3,-3.8887328E-1,1.56631E-2,-7.163722E-1,-1.5326442E-1,2.3168387E-2,-4.7875267E-1,-1.3307342E-2,-6.043942E-2,-3.8469604E-1,1.321318E-2,1.5425957E-2,3.5994858E-1,1.137619E-2,-8.0708015E-1,7.938568E-3,-3.6656734E-2,1.3548536E-3,-1.3754877E-2,4.3103177E-2,4.3658732E-4,-5.6738455E-2,-1.7308136E-2],"categories":[],"categories_nodes":[],"categories_segments":[],"categories_sizes":[],"default_left":[0,0,0,0,0,0,0,0,0,0,0,0,0,0,0,0,0,0,0,0,0,0,0],"id":48,"left_children":[1,3,5,7,9,11,13,-1,-1,15,-1,17,19,-1,21,-1,-1,-1,-1,-1,-1,-1,-1],"loss_changes":[6.5794926E0,3.107264E0,4.192107E0,3.4853487E0,2.5676537E0,2.8909633E0,4.101268E0,0E0,0E0,3.3027298E0,0E0,3.6929183E0,4.386983E0,0E0,1.382319E0,0E0,0E0,0E0,0E0,0E0,0E0,0E0,0E0],"parents":[2147483647,0,0,1,1,2,2,3,3,4,4,5,5,6,6,9,9,11,11,12,12,14,14],"right_children":[2,4,6,8,10,12,14,-1,-1,16,-1,18,20,-1,22,-1,-1,-1,-1,-1,-1,-1,-1],"split_conditions":[-1.138062E0,-1.862E0,6.733333E0,-1.9571428E0,