{"learner":{"attributes":{"scikit_learn":"{\"_estimator_type\": \"classifier\"}"},"feature_names":["home_rolling_runs_scored","home_rolling_runs_allowed","home_rolling_win_rate","home_rolling_run_diff","away_rolling_runs_scored","away_rolling_runs_allowed","away_rolling_win_rate","away_rolling_run_diff","win_rate_diff","run_diff_diff","runs_scored_diff","is_home","home_rolling_win_rate_5","home_rolling_run_diff_5","away_rolling_win_rate_5","away_rolling_run_diff_5","win_rate_diff_5","run_diff_diff_5","home_avg_era","home_avg_whip","home_avg_so9","home_avg_so_per_w","away_avg_era","away_avg_whip","away_avg_so9","away_avg_so_per_w","era_diff","whip_diff","so9_diff","home_bullpen_ip_3d","away_bullpen_ip_3d","home_bullpen_appearances_3d","away_bullpen_appearances_3d","bullpen_fatigue_diff","home_park_factor","park_factor_is_known","home_starter_era","home_starter_whip","home_starter_k_per_9","home_starter_bb_per_9","home_starter_fip_proxy","away_starter_era","away_starter_whip","away_starter_k_per_9","away_starter_bb_per_9","away_starter_fip_proxy","starter_era_diff","starter_whip_diff","starter_k_diff","starter_fip_diff"],"feature_types":["float","float","float","float","float","float","float","float","float","float","float","int","float","float","float","float","float","float","float","float","float","float","float","float","float","float","float","float","float","float","float","float","float","float","float","int","float","float","float","float","float","float","float","float","float","float","float","float","float","float"],"gradient_booster":{"model":{"cats":{"enc":[],"feature_segments":[],"sorted_idx":[]},"gbtree_model_param":{"num_parallel_tree":"1","num_trees":"400"},"iteration_indptr":[0,1,2,3,4,5,6,7,8,9,10,11,12,13,14,15,16,17,18,19,20,21,22,23,24,25,26,27,28,29,30,31,32,33,34,35,36,37,38,39,40,41,42,43,44,45,46,47,48,49,50,51,52,53,54,55,56,57,58,59,60,61,62,63,64,65,66,67,68,69,70,71,72,73,74,75,76,77,78,79,80,81,82,83,84,85,86,87,88,89,90,91,92,93,94,95,96,97,98,99,100,101,102,103,104,105,106,107,108,109,110,111,112,113,114,115,116,117,118,119,120,121,122,123,124,125,126,127,128,129,130,131,132,133,134,135,136,137,138,139,140,141,142,143,144,145,146,147,148,149,150,151,152,153,154,155,156,157,158,159,160,161,162,163,164,165,166,167,168,169,170,171,172,173,174,175,176,177,178,179,180,181,182,183,184,185,186,187,188,189,190,191,192,193,194,195,196,197,198,199,200,201,202,203,204,205,206,207,208,209,210,211,212,213,214,215,216,217,218,219,220,221,222,223,224,225,226,227,228,229,230,231,232,233,234,235,236,237,238,239,240,241,242,243,244,245,246,247,248,249,250,251,252,253,254,255,256,257,258,259,260,261,262,263,264,265,266,267,268,269,270,271,272,273,274,275,276,277,278,279,280,281,282,283,284,285,286,287,288,289,290,291,292,293,294,295,296,297,298,299,300,301,302,303,304,305,306,307,308,309,310,311,312,313,314,315,316,317,318,319,320,321,322,323,324,325,326,327,328,329,330,331,332,333,334,335,336,337,338,339,340,341,342,343,344,345,346,347,348,349,350,351,352,353,354,355,356,357,358,359,360,361,362,363,364,365,366,367,368,369,370,371,372,373,374,375,376,377,378,379,380,381,382,383,384,385,386,387,388,389,390,391,392,393,394,395,396,397,398,399,400],"tree_info":[0,0,0,0,0,0,0,0,0,0,0,0,0,0,0,0,0,0,0,0,0,0,0,0,0,0,0,0,0,0,0,0,0,0,0,0,0,0,0,0,0,0,0,0,0,0,0,0,0,0,0,0,0,0,0,0,0,0,0,0,0,0,0,0,0,0,0,0,0,0,0,0,0,0,0,0,0,0,0,0,0,0,0,0,0,0,0,0,0,0,0,0,0,0,0,0,0,0,0,0,0,0,0,0,0,0,0,0,0,0,0,0,0,0,0,0,0,0,0,0,0,0,0,0,0,0,0,0,0,0,0,0,0,0,0,0,0,0,0,0,0,0,0,0,0,0,0,0,0,0,0,0,0,0,0,0,0,0,0,0,0,0,0,0,0,0,0,0,0,0,0,0,0,0,0,0,0,0,0,0,0,0,0,0,0,0,0,0,0,0,0,0,0,0,0,0,0,0,0,0,0,0,0,0,0,0,0,0,0,0,0,0,0,0,0,0,0,0,0,0,0,0,0,0,0,0,0,0,0,0,0,0,0,0,0,0,0,0,0,0,0,0,0,0,0,0,0,0,0,0,0,0,0,0,0,0,0,0,0,0,0,0,0,0,0,0,0,0,0,0,0,0,0,0,0,0,0,0,0,0,0,0,0,0,0,0,0,0,0,0,0,0,0,0,0,0,0,0,0,0,0,0,0,0,0,0,0,0,0,0,0,0,0,0,0,0,0,0,0,0,0,0,0,0,0,0,0,0,0,0,0,0,0,0,0,0,0,0,0,0,0,0,0,0,0,0,0,0,0,0,0,0,0,0,0,0,0,0,0,0,0,0,0,0,0,0,0,0,0,0,0,0,0,0,0,0,0,0,0,0,0,0,0,0,0,0,0,0,0,0,0,0,0,0,0,0,0,0,0,0],"trees":[{"base_weights":[-1.4120256E-2,-2.4742869E-1,3.413505E-1,-3.204378E-1,3.6955327E-1,1.5063451E-1,6.4573604E-1,-8.898591E-3,-3.299296E-2,6.307587E-3,3.7467334E-2,1.0440005E-2,-2.165771E-2,4.7379737E-3,4.0256616E-2],"categories":[],"categories_nodes":[],"categories_segments":[],"categories_sizes":[],"default_left":[0,1,0,0,0,0,0,0,0,0,0,0,0,0,0],"id":0,"left_children":[1,3,5,7,9,11,13,-1,-1,-1,-1,-1,-1,-1,-1],"loss_changes":[6.462724E1,2.1432005E1,1.7645977E1,2.0090279E1,4.399395E0,6.6982765E0,1.0129459E1,0E0,0E0,0E0,0E0,0E0,0E0,0E0,0E0],"parents":[2147483647,0,0,1,1,2,2,3,3,4,4,5,5,6,6],"right_children":[2,4,6,8,10,12,14,-1,-1,-1,-1,-1,-1,-1,-1],"split_conditions":[2E-1,1.01E-1,4.4733334E-1,6.1538464E-1,4.4333334E0,3.25E-1,1.1996666E0,-8.898591E-3,-3.299296E-2,6.307587E-3,3.7467334E-2,1.0440005E-2,-2.165771E-2,4.7379737E-3,4.0256616E-2],"split_indices":[16,47,26,6,18,26,19,0,0,0,0,0,0,0,0],"split_type":[0,0,0,0,0,0,0,0,0,0,0,0,0,0,0],"sum_hessian":[7.7533453E2,4.6863892E2,3.0669565E2,4.2005594E2,4.858298E1,1.9059477E2,1.1610087E2,2.9822476E2,1.2183117E2,3.139208E1,1.71909E1,1.746496E2,1.5945184E1,2.6907497E1,8.9193375E1],"tree_param":{"num_deleted":"0","num_feature":"50","num_nodes":"15","size_leaf_vector":"1"}},{"base_weights":[-1.95441E-2,2.9470286E-1,-2.3501426E-1,-1.1488037E-1,4.9749437E-1,-5.3506285E-1,-1.2417226E-1,7.876533E-3,-2.0218885E-2,1.8696753E-2,5.0078463E-2,-5.6757843E-3,-3.5368975E-2,-3.7487668E-3,-3.717205E-2],"categories":[],"categories_nodes":[],"categories_segments":[],"categories_sizes":[],"default_left":[0,0,0,0,0,0,0,0,0,0,0,0,0,0,0],"id":1,"left_children":[1,3,5,7,9,11,13,-1,-1,-1,-1,-1,-1,-1,-1],"loss_changes":[5.223977E1,2.6210674E1,1.502766E1,8.460529E0,1.2216064E1,8.667015E0,1.0079017E1,0E0,0E0,0E0,0E0,0E0,0E0,0E0,0E0],"parents":[2147483647,0,0,1,1,2,2,3,3,4,4,5,5,6,6],"right_children":[2,4,6,8,10,12,14,-1,-1,-1,-1,-1,-1,-1,-1],"split_conditions":[-4E-1,-2.925E-1,-6.6170454E-1,1.01E0,1.5055555E0,8.309091E0,3.6E0,7.876533E-3,-2.0218885E-2,1.8696753E-2,5.0078463E-2,-5.6757843E-3,-3.5368975E-2,-3.7487668E-3,-3.717205E-2],"split_indices":[15,28,26,34,28,24,15,0,0,0,0,0,0,0,0],"split_type":[0,0,0,0,0,0,0,0,0,0,0,0,0,0,0],"sum_hessian":[7.6755505E2,3.117263E2,4.5582877E2,1.0335382E2,2.0837247E2,1.2065629E2,3.351725E2,5.3540028E1,4.9813797E1,1.7030835E2,3.8064114E1,3.614087E1,8.451542E1,3.127316E2,2.2440897E1],"tree_param":{"num_deleted":"0","num_feature":"50","num_nodes":"15","size_leaf_vector":"1"}},{"base_weights":[-2.142034E-2,2.609285E-1,-3.1888252E-1,8.336672E-2,5.5719835E-1,-4.5660958E-1,-1.1646908E-2,-9.5778843E-4,2.3662483E-2,4.355587E-2,2.2632666E-2,1.2652542E-3,-2.9429883E-2,3.9463355E-3,-2.5251362E-2],"categories":[],"categories_nodes":[],"categories_segments":[],"categories_sizes":[],"default_left":[0,0,0,0,0,0,0,0,0,0,0,0,0,0,0],"id":2,"left_children":[1,3,5,7,9,11,13,-1,-1,-1,-1,-1,-1,-1,-1],"loss_changes":[6.5235374E1,2.0799213E1,1.5950676E1,1.0122142E1,3.9596825E0,1.6683594E1,5.4568267E0,0E0,0E0,0E0,0E0,0E0,0E0,0E0,0E0],"parents":[2147483647,0,0,1,1,2,2,3,3,4,4,5,5,6,6],"right_children":[2,4,6,8,10,12,14,-1,-1,-1,-1,-1,-1,-1,-1],"split_conditions":[6E-1,3.1725E0,2.2222222E-1,1.4489286E0,7.58E0,2.7701006E0,2.2E0,-9.5778843E-4,2.3662483E-2,4.355587E-2,2.2632666E-2,1.2652542E-3,-2.9429883E-2,3.9463355E-3,-2.5251362E-2],"split_indices":[14,21,9,23,24,39,15,0,0,0,0,0,0,0,0],"split_type":[0,0,0,0,0,0,0,0,0,0,0,0,0,0,0],"sum_hessian":[7.726712E2,3.9635938E2,3.7631183E2,2.4964268E2,1.4671669E2,2.589378E2,1.1737404E2,1.989679E2,5.067478E1,3.2751568E1,1.13965126E2,5.5855873E1,2.0308192E2,1.00417076E2,1.6956959E1],"tree_param":{"num_deleted":"0","num_feature":"50","num_nodes":"15","size_leaf_vector":"1"}},{"base_weights":[1.3322278E-2,3.010606E-1,-1.7090844E-1,-1.6124406E-1,4.406849E-1,1.557491E-1,-2.394107E-1,4.0519917E-3,-2.4422796E-2,3.5012335E-2,1.5686221E-2,2.3453142E-2,-8.300628E-3,-1.8810289E-2,-2.1490245E-3],"categories":[],"categories_nodes":[],"categories_segments":[],"categories_sizes":[],"default_left":[0,0,0,0,0,0,0,0,0,0,0,0,0,0,0],"id":3,"left_children":[1,3,5,7,9,11,13,-1,-1,-1,-1,-1,-1,-1,-1],"loss_changes":[4.179425E1,2.0040663E1,1.0832615E1,5.8837957E0,7.273735E0,8.67813E0,1.0624508E1,0E0,0E0,0E0,0E0,0E0,0E0,0E0,0E0],"parents":[2147483647,0,0,1,1,2,2,3,3,4,4,5,5,6,6],"right_children":[2,4,6,8,10,12,14,-1,-1,-1,-1,-1,-1,-1,-1],"split_conditions":[-4E-1,2.57E0,2.572E0,-1.4E0,4.2222223E0,1.01E0,0E0,4.0519917E-3,-2.4422796E-2,3.5012335E-2,1.5686221E-2,2.3453142E-2,-8.300628E-3,-1.8810289E-2,-2.1490245E-3],"split_indices":[15,21,25,15,0,34,8,0,0,0,0,0,0,0,0],"split_type":[0,0,0,0,0,0,0,0,0,0,0,0,0,0,0],"sum_hessian":[7.842317E2,3.0583765E2,4.7839404E2,7.070458E1,2.3513307E2,8.223655E1,3.9615747E2,4.131325E1,2.9391329E1,7.400878E1,1.611243E2,4.1358814E1,4.0877735E1,2.3214847E2,1.64009E2],"tree_param":{"num_deleted":"0","num_feature":"50","num_nodes":"15","size_leaf_vector":"1"}},{"base_weights":[-1.3811793E-2,2.6761422E-1,-2.0726746E-1,4.4073414E-2,4.3839094E-1,-3.1933966E-1,1.2789232E-1,-3.172669E-2,8.048498E-3,4.4500105E-2,1.5142798E-2,-5.3708395E-3,-2.7403662E-2,-1.3271206E-3,2.1881906E-2],"categories":[],"categories_nodes":[],"categories_segments":[],"categories_sizes":[],"default_left":[0,0,1,0,0,0,0,0,0,0,0,0,0,0,0],"id":4,"left_children":[1,3,5,7,9,11,13,-1,-1,-1,-1,-1,-1,-1,-1],"loss_changes":[4.2589577E1,1.2074188E1,1.7521694E1,1.1297764E1,1.0366272E1,1.6703205E1,5.6814537E0,0E0,0E0,0E0,0E0,0E0,0E0,0E0,0E0],"parents":[2147483647,0,0,1,1,2,2,3,3,4,4,5,5,6,6],"right_children":[2,4,6,8,10,12,14,-1,-1,-1,-1,-1,-1,-1,-1],"split_conditions":[-4E-1,8.25E0,-1.45E-1,-4.3E-1,3.75E0,6.666667E-1,6.6E-1,-3.172669E-2,8.048498E-3,4.4500105E-2,1.5142798E-2,-5.3708395E-3,-2.7403662E-2,-1.3271206E-3,2.1881906E-2],"split_indices":[15,20,47,46,36,7,33,0,0,0,0,0,0,0,0],"split_type":[0,0,0,0,0,0,0,0,0,0,0,0,0,0,0],"sum_hessian":[7.78345E2,3.165566E2,4.617884E2,1.3844225E2,1.7811438E2,3.4636282E2,1.1542556E2,1.8916498E1,1.1952574E2,3.8375103E1,1.3973927E2,1.8154076E2,1.6482207E2,7.802781E1,3.7397755E1],"tree_param":{"num_deleted":"0","num_feature":"50","num_nodes":"15","size_leaf_vector":"1"}},{"base_weights":[-1.5710393E-2,-1.5756303E-1,3.148723E-1,7.541971E-2,-2.8335074E-1,9.38276E-2,5.47145E-1,-1.7275714E-3,2.1180706E-2,2.7227676E-2,-1.750274E-2,-4.001049E-3,2.331447E-2,3.338247E-2,-2.296617E-3],"categories":[],"categories_nodes":[],"categories_segments":[],"categories_sizes":[],"default_left":[0,0,0,0,0,0,1,0,0,0,0,0,0,0,0],"id":5,"left_children":[1,3,5,7,9,11,13,-1,-1,-1,-1,-1,-1,-1,-1],"loss_changes":[3.6896465E1,1.620721E1,1.1958591E1,7.5134063E0,2.0155552E1,8.119318E0,8.308323E0,0E0,0E0,0E0,0E0,0E0,0E0,0E0,0E0],"parents":[2147483647,0,0,1,1,2,2,3,3,4,4,5,5,6,6],"right_children":[2,4,6,8,10,12,14,-1,-1,-1,-1,-1,-1,-1,-1],"split_conditions":[1.8E0,8.15E0,3.105E0,8.67E0,1.097E0,1.3710909E0,8.9E0,-1.7275714E-3,2.1180706E-2,2.7227676E-2,-1.750274E-2,-4.001049E-3,2.331447E-2,3.338247E-2,-2.296617E-3],"split_indices":[17,24,21,29,37,23,43,0,0,0,0,0,0,0,0],"split_type":[0,0,0,0,0,0,0,0,0,0,0,0,0,0,0],"sum_hessian":[7.8302466E2,5.4885913E2,2.3416554E2,1.9243631E2,3.5642282E2,1.2164206E2,1.1252349E2,1.4739767E2,4.5038643E1,2.5395645E1,3.3102716E2,8.3820305E1,3.7821754E1,9.3452484E1,1.9071005E1],"tree_param":{"num_deleted":"0","num_feature":"50","num_nodes":"15","size_leaf_vector":"1"}},{"base_weights":[1.7315527E-2,1.0921403E-1,-3.428424E-1,-1.29200155E-2,3.5998416E-1,1.6497576E-1,-5.286109E-1,1.7486748E-3,-2.7175615E-2,1.4989656E-2,4.1817468E-2,2.7665561E-2,-6.626089E-3,-6.3824216E-3,-3.152524E-2],"categories":[],"categories_nodes":[],"categories_segments":[],"categories_sizes":[],"default_left":[0,0,0,1,0,0,0,0,0,0,0,0,0,0,0],"id":6,"left_children":[1,3,5,7,9,11,13,-1,-1,-1,-1,-1,-1,-1,-1],"loss_changes":[2.5694708E1,1.9002531E1,1.5093712E1,1.070923E1,5.2076397E0,5.229858E0,4.5077324E0,0E0,0E0,0E0,0E0,0E0,0E0,0E0,0E0],"parents":[2147483647,0,0,1,1,2,2,3,3,4,4,5,5,6,6],"right_children":[2,4,6,8,10,12,14,-1,-1,-1,-1,-1,-1,-1,-1],"split_conditions":[6.25E-1,5.277778E-1,3.109756E0,5.3E0,3.4E0,4.0042577E0,-1.75E0,1.7486748E-3,-2.7175615E-2,1.4989656E-2,4.1817468E-2,2.7665561E-2,-6.626089E-3,-6.3824216E-3,-3.152524E-2],"split_indices":[6,28,39,36,13,45,13,0,0,0,0,0,0,0,0],"split_type":[0,0,0,0,0,0,0,0,0,0,0,0,0,0,0],"sum_hessian":[7.727659E2,6.170019E2,1.5576405E2,4.1592816E2,2.0107375E2,4.1635227E1,1.1412883E2,3.8303363E2,3.2894535E1,1.8159671E2,1.947703E1,1.7460155E1,2.4175074E1,2.423776E1,8.989107E1],"tree_param":{"num_deleted":"0","num_feature":"50","num_nodes":"15","size_leaf_vector":"1"}},{"base_weights":[2.8797493E-3,2.4048412E-1,-2.39891E-1,6.590338E-2,4.6604368E-1,1.0161317E-1,-3.286687E-1,-6.865737E-3,1.1127277E-2,2.973578E-2,1.14255315E-2,1.4448379E-2,-2.0655772E-2,-7.2146687E-3,-2.6480183E-2],"categories":[],"categories_nodes":[],"categories_segments":[],"categories_sizes":[],"default_left":[0,0,0,0,0,0,0,0,0,0,0,0,0,0,0],"id":7,"left_children":[1,3,5,7,9,11,13,-1,-1,-1,-1,-1,-1,-1,-1],"loss_changes":[4.587628E1,1.5720526E1,1.2009989E1,7.367547E0,4.9905357E0,8.174502E0,1.1366875E1,0E0,0E0,0E0,0E0,0E0,0E0,0E0,0E0],"parents":[2147483647,0,0,1,1,2,2,3,3,4,4,5,5,6,6],"right_children":[2,4,6,8,10,12,14,-1,-1,-1,-1,-1,-1,-1,-1],"split_conditions":[6E-1,3.0775E0,1.231E0,4.3636365E0,8.533334E0,2.0157325E0,6.666667E-1,-6.865737E-3,1.1127277E-2,2.973578E-2,1.14255315E-2,1.4448379E-2,-2.0655772E-2,-7.2146687E-3,-2.6480183E-2],"split_indices":[14,21,37,1,24,49,7,0,0,0,0,0,0,0,0],"split_type":[0,0,0,0,0,0,0,0,0,0,0,0,0,0,0],"sum_hessian":[7.9131055E2,4.001282E2,3.9118237E2,2.2725945E2,1.7286874E2,8.041847E1,3.1076392E2,9.875239E1,1.2850705E2,1.09904785E2,6.296397E1,5.9743946E1,2.0674524E1,1.6411133E2,1.4665259E2],"tree_param":{"num_deleted":"0","num_feature":"50","num_nodes":"15","size_leaf_vector":"1"}},{"base_weights":[2.637547E-2,-1.605745E-1,3.2073784E-1,3.9344954E-1,-2.2804683E-1,1.21336006E-1,6.3109773E-1,3.4760408E-2,-7.367745E-3,-3.9483286E-3,-2.236639E-2,-1.5327317E-2,1.0555848E-2,4.088761E-2,1.1958374E-2],"categories":[],"categories_nodes":[],"categories_segments":[],"categories_sizes":[],"default_left":[0,0,0,0,0,0,0,0,0,0,0,0,0,0,0],"id":8,"left_children":[1,3,5,7,9,11,13,-1,-1,-1,-1,-1,-1,-1,-1],"loss_changes":[4.2582363E1,1.7845676E1,1.8373863E1,8.733922E0,1.3708378E1,7.2529106E0,8.055588E0,0E0,0E0,0E0,0E0,0E0,0E0,0E0,0E0],"parents":[2147483647,0,0,1,1,2,2,3,3,4,4,5,5,6,6],"right_children":[2,4,6,8,10,12,14,-1,-1,-1,-1,-1,-1,-1,-1],"split_conditions":[2E-1,3.5E0,4.4733334E-1,6.666667E-1,6.666667E-1,-3E-2,-3.3333334E-1,3.4760408E-2,-7.367745E-3,-3.9483286E-3,-2.236639E-2,-1.5327317E-2,1.0555848E-2,4.088761E-2,1.1958374E-2],"split_indices":[16,36,26,3,7,46,7,0,0,0,0,0,0,0,0],"split_type":[0,0,0,0,0,0,0,0,0,0,0,0,0,0,0],"sum_hessian":[7.6962537E2,4.7103784E2,2.9858755E2,4.992799E1,4.2110983E2,1.8367992E2,1.1490762E2,3.1798775E1,1.8129217E1,2.5257237E2,1.6853746E2,3.0825876E1,1.5285405E2,7.619305E1,3.8714573E1],"tree_param":{"num_deleted":"0","num_feature":"50","num_nodes":"15","size_leaf_vector":"1"}},{"base_weights":[-4.6299403E-3,4.838894E-1,-1.3384774E-1,6.024511E-1,-5.495545E-3,-9.159897E-2,-4.612081E-2,-3.4243334E-3,3.645358E-2,-9.599852E-3,1.1826324E-2],"categories":[],"categories_nodes":[],"categories_segments":[],"categories_sizes":[],"default_left":[0,1,0,0,0,0,0,0,0,0,0],"id":9,"left_children":[1,3,5,7,-1,9,-1,-1,-1,-1,-1],"loss_changes":[4.8672157E1,1.153355E1,2.0062332E1,1.1622551E1,0E0,1.9246248E1,0E0,0E0,0E0,0E0,0E0],"parents":[2147483647,0,0,1,1,2,2,3,3,5,5],"right_children":[2,4,6,8,-1,10,-1,-1,-1,-1,-1],"split_conditions":[2.5E-1,8.7E0,1E0,2.4371428E0,-5.495545E-3,7.2380954E-1,-4.612081E-2,-3.4243334E-3,3.645358E-2,-9.599852E-3,1.1826324E-2],"split_indices":[14,43,14,21,0,28,0,0,0,0,0],"split_type":[0,0,0,0,0,0,0,0,0,0,0],"sum_hessian":[7.675417E2,1.5924364E2,6.0829803E2,1.3285608E2,2.6387558E1,5.79604E2,2.8694046E1,2.1112656E1,1.1174342E2,4.4467822E2,1.3492577E2],"tree_param":{"num_deleted":"0","num_feature":"50","num_nodes":"11","size_leaf_vector":"1"}},{"base_weights":[-2.5832911E-3,2.0615701E-1,-2.1042849E-1,-7.44533E-2,3.251703E-1,3.075203E-1,-2.6297992E-1,7.011015E-3,-1.9419568E-2,1.4016288E-2,4.1089848E-2,3.0874088E-2,-2.15751E-3,8.4007805E-4,-1.929651E-2],"categories":[],"categories_nodes":[],"categories_segments":[],"categories_sizes":[],"default_left":[0,0,0,0,0,0,0,0,0,0,0,0,0,0,0],"id":10,"left_children":[1,3,5,7,9,11,13,-1,-1,-1,-1,-1,-1,-1,-1],"loss_changes":[3.359715E1,1.2968735E1,1.0724951E1,7.9764724E0,5.481327E0,4.0791335E0,1.2218143E1,0E0,0E0,0E0,0E0,0E0,0E0,0E0,0E0],"parents":[2147483647,0,0,1,1,2,2,3,3,4,4,5,5,6,6],"right_children":[2,4,6,8,10,12,14,-1,-1,-1,-1,-1,-1,-1,-1],"split_conditions":[6E-1,-4.3809524E-1,1.109E0,4.6E0,1.8541666E0,2.375E-1,8.15E0,7.011015E-3,-1.9419568E-2,1.4016288E-2,4.1089848E-2,3.0874088E-2,-2.15751E-3,8.4007805E-4,-1.929651E-2],"split_indices":[14,28,37,0,28,28,24,0,0,0,0,0,0,0,0],"split_type":[0,0,0,0,0,0,0,0,0,0,0,0,0,0,0],"sum_hessian":[7.703738E2,3.841273E2,3.8624646E2,1.1437105E2,2.6975626E2,3.450983E1,3.5173663E2,6.83921E1,4.597895E1,2.5046956E2,1.928669E1,1.7661812E1,1.6848019E1,1.0766078E2,2.4407587E2],"tree_param":{"num_deleted":"0","num_feature":"50","num_nodes":"15","size_leaf_vector":"1"}},{"base_weights":[-2.142449E-2,2.0239894E-1,-1.7599112E-1,7.291414E-1,1.2859519E-1,6.8309136E-2,-2.95786E-1,4.5520496E-2,2.0267246E-2,-5.243919E-3,1.296916E-2,-5.1720147E-3,1.4811173E-2,-1.1036665E-2,-3.592051E-2],"categories":[],"categories_nodes":[],"categories_segments":[],"categories_sizes":[],"default_left":[0,0,0,0,0,0,1,0,0,0,0,0,0,0,0],"id":11,"left_children":[1,3,5,7,9,11,13,-1,-1,-1,-1,-1,-1,-1,-1],"loss_changes":[2.6948248E1,1.2090882E1,1.3552451E1,1.3895683E0,8.667259E0,6.0697303E0,9.419262E0,0E0,0E0,0E0,0E0,0E0,0E0,0E0,0E0],"parents":[2147483647,0,0,1,1,2,2,3,3,4,4,5,5,6,6],"right_children":[2,4,6,8,10,12,14,-1,-1,-1,-1,-1,-1,-1,-1],"split_conditions":[-4E-1,7.07E0,8.15E0,2.5E-1,2E-1,1.3183E0,3.3882353E0,4.5520496E-2,2.0267246E-2,-5.243919E-3,1.296916E-2,-5.1720147E-3,1.4811173E-2,-1.1036665E-2,-3.592051E-2],"split_indices":[15,24,24,16,16,19,39,0,0,0,0,0,0,0,0],"split_type":[0,0,0,0,0,0,0,0,0,0,0,0,0,0,0],"sum_hessian":[7.7496655E2,3.1604504E2,4.589215E2,3.6491165E1,2.795539E2,1.510029E2,3.079186E2,2.0873522E1,1.5617643E1,1.0024147E2,1.7931241E2,8.6484375E1,6.451852E1,2.6426898E2,4.3649628E1],"tree_param":{"num_deleted":"0","num_feature":"50","num_nodes":"15","size_leaf_vector":"1"}},{"base_weights":[5.668129E-3,-1.3354304E-1,2.1617678E-1,-7.368404E-2,-6.427568E-1,1.15319885E-1,6.174674E-1,1.6139183E-2,-7.8286575E-3,-4.0992904E-2,-1.1487411E-2,-2.7851244E-3,1.9582262E-2,1.1455081E-2,4.048397E-2],"categories":[],"categories_nodes":[],"categories_segments":[],"categories_sizes":[],"default_left":[0,1,0,0,0,0,0,0,0,0,0,0,0,0,0],"id":12,"left_children":[1,3,5,7,9,11,13,-1,-1,-1,-1,-1,-1,-1,-1],"loss_changes":[2.292877E1,1.4176703E1,1.23958645E1,1.4001725E1,3.106907E0,1.1970932E1,4.147938E0,0E0,0E0,0E0,0E0,0E0,0E0,0E0,0E0],"parents":[2147483647,0,0,1,1,2,2,3,3,4,4,5,5,6,6],"right_children":[2,4,6,8,10,12,14,-1,-1,-1,-1,-1,-1,-1,-1],"split_conditions":[2E-1,3.6432638E0,1.1285714E0,3.7333333E0,2.848E0,3.1725E0,1.576E0,1.6139183E-2,-7.8286575E-3,-4.0992904E-2,-1.1487411E-2,-2.7851244E-3,1.9582262E-2,1.1455081E-2,4.048397E-2],"split_indices":[16,39,28,1,21,21,42,0,0,0,0,0,0,0,0],"split_type":[0,0,0,0,0,0,0,0,0,0,0,0,0,0,0],"sum_hessian":[7.78162E2,4.6855725E2,3.096047E2,4.2149548E2,4.7061768E1,2.49677E2,5.9927704E1,7.167437E1,3.498211E2,3.1389439E1,1.567233E1,1.5498756E2,9.4689445E1,2.1463879E1,3.8463825E1],"tree_param":{"num_deleted":"0","num_feature":"50","num_nodes":"15","size_leaf_vector":"1"}},{"base_weights":[3.619867E-2,2.4104553E-1,-1.7471668E-1,-2.0767717E-2,3.354828E-1,-3.02277E-1,5.620523E-2,-9.246703E-3,2.6859423E-2,1.9562155E-2,-2.5998433E-3,-1.8373877E-2,2.3672184E-2,-1.8609039E-3,2.7580902E-2],"categories":[],"categories_nodes":[],"categories_segments":[],"categories_sizes":[],"default_left":[0,0,0,0,0,1,0,0,0,0,0,0,0,0,0],"id":13,"left_children":[1,3,5,7,9,11,13,-1,-1,-1,-1,-1,-1,-1,-1],"loss_changes":[3.35898E1,9.79718E0,1.1338406E1,9.887076E0,6.345852E0,1.2843334E1,6.4641924E0,0E0,0E0,0E0,0E0,0E0,0E0,0E0,0E0],"parents":[2147483647,0,0,1,1,2,2,3,3,4,4,5,5,6,6],"right_children":[2,4,6,8,10,12,14,-1,-1,-1,-1,-1,-1,-1,-1],"split_conditions":[6E-1,-5.3E-1,4.440892E-16,1.1290909E-2,8.8E0,7.8E-1,2.4E0,-9.246703E-3,2.6859423E-2,1.9562155E-2,-2.5998433E-3,-1.8373877E-2,2.3672184E-2,-1.8609039E-3,2.7580902E-2],"split_indices":[14,28,9,27,24,46,3,0,0,0,0,0,0,0,0],"split_type":[0,0,0,0,0,0,0,0,0,0,0,0,0,0,0],"sum_hessian":[7.733424E2,3.9241064E2,3.8093176E2,1.04155716E2,2.8825494E2,2.4526398E2,1.3566777E2,8.1648705E1,2.250701E1,2.5220064E2,3.6054302E1,2.2733739E2,1.79266E1,1.155295E2,2.0138275E1],"tree_param":{"num_deleted":"0","num_feature":"50","num_nodes":"15","size_leaf_vector":"1"}},{"base_weights":[2.0854115E-2,-2.1785988E-1,1.7341475E-1,2.6712364E-1,-2.897992E-1,2.7614316E-1,-6.17386E-2,2.3938132E-2,-4.2112367E-4,-1.1985343E-2,-4.2653337E-2,1.5696207E-2,-1.418748E-2,-1.3079815E-2,1.29880505E-2],"categories":[],"categories_nodes":[],"categories_segments":[],"categories_sizes":[],"default_left":[0,0,0,1,1,1,0,0,0,0,0,0,0,0,0],"id":14,"left_children":[1,3,5,7,9,11,13,-1,-1,-1,-1,-1,-1,-1,-1],"loss_changes":[2.7946634E1,1.0591644E1,1.1369429E1,2.3582175E0,6.862379E0,7.0901623E0,9.371598E0,0E0,0E0,0E0,0E0,0E0,0E0,0E0,0E0],"parents":[2147483647,0,0,1,1,2,2,3,3,4,4,5,5,6,6],"right_children":[2,4,6,8,10,12,14,-1,-1,-1,-1,-1,-1,-1,-1],"split_conditions":[-2.925E-1,1.243E0,4.818182E0,2.8022728E0,1.572E0,1.46E0,2E-1,2.3938132E-2,-4.2112367E-4,-1.1985343E-2,-4.2653337E-2,1.5696207E-2,-1.418748E-2,-1.3079815E-2,1.29880505E-2],"split_indices":[28,19,4,40,37,37,17,0,0,0,0,0,0,0,0],"split_type":[0,0,0,0,0,0,0,0,0,0,0,0,0,0,0],"sum_hessian":[7.634248E2,2.9707516E2,4.6634964E2,3.7493565E1,2.595816E2,3.2461563E2,1.4173401E2,2.0576927E1,1.691664E1,2.4116321E2,1.84184E1,3.05086E2,1.952965E1,8.7823135E1,5.3910873E1],"tree_param":{"num_deleted":"0","num_feature":"50","num_nodes":"15","size_leaf_vector":"1"}},{"base_weights":[-1.698757E-2,-1.476871E-1,1.8429646E-1,4.1316766E-1,-2.178227E-1,1.213489E-1,3.593972E-2,3.620627E-2,-1.2694094E-3,-4.3248955E-2,-9.212802E-3,8.360464E-3,-1.5935449E-2],"categories":[],"categories_nodes":[],"categories_segments":[],"categories_sizes":[],"default_left":[0,0,0,0,0,1,0,0,0,0,0,0,0],"id":15,"left_children":[1,3,5,7,9,11,-1,-1,-1,-1,-1,-1,-1],"loss_changes":[2.029787E1,1.8571262E1,9.955739E0,7.2737455E0,8.645302E0,5.624559E0,0E0,0E0,0E0,0E0,0E0,0E0,0E0],"parents":[2147483647,0,0,1,1,2,2,3,3,4,4,5,5],"right_children":[2,4,6,8,10,12,-1,-1,-1,-1,-1,-1,-1],"split_conditions":[2E-1,3.6095238E0,1.5941521E0,2.353846E0,-5E0,1.26E0,3.593972E-2,3.620627E-2,-1.2694094E-3,-4.3248955E-2,-9.212802E-3,8.360464E-3,-1.5935449E-2],"split_indices":[16,40,28,39,33,46,0,0,0,0,0,0,0],"split_type":[0,0,0,0,0,0,0,0,0,0,0,0,0],"sum_hessian":[7.676253E2,4.660409E2,3.0158444E2,5.0555424E1,4.1548544E2,2.7217203E2,2.9412413E1,2.8952429E1,2.1602995E1,1.789807E1,3.9758737E2,2.4781358E2,2.4358452E1],"tree_param":{"num_deleted":"0","num_feature":"50","num_nodes":"13","size_leaf_vector":"1"}},{"base_weights":[-1.3216754E-2,1.545344E-1,-1.8512E-1,-1.5893514E-1,2.4493447E-1,3.4166783E-1,-2.4999754E-1,8.1878705E-3,-1.8811854E-2,2.0619908E-2,6.403492E-3,3.099831E-2,-1.4060915E-4,-2.6449233E-3,-2.0738145E-2],"categories":[],"categories_nodes":[],"categories_segments":[],"categories_sizes":[],"default_left":[0,0,0,0,0,1,0,0,0,0,0,0,0,0,0],"id":16,"left_children":[1,3,5,7,9,11,13,-1,-1,-1,-1,-1,-1,-1,-1],"loss_changes":[2.1955812E1,1.099873E1,1.3019181E1,6.256256E0,5.709942E0,4.084772E0,1.0830046E1,0E0,0E0,0E0,0E0,0E0,0E0,0E0,0E0],"parents":[2147483647,0,0,1,1,2,2,3,3,4,4,5,5,6,6],"right_children":[2,4,6,8,10,12,14,-1,-1,-1,-1,-1,-1,-1,-1],"split_conditions":[6E-1,2.572E0,2.248187E0,-1.4285715E-1,2.5E-1,3.8180556E0,4.4444445E-1,8.1878705E-3,-1.8811854E-2,2.0619908E-2,6.403492E-3,3.099831E-2,-1.4060915E-4,-2.6449233E-3,-2.0738145E-2],"split_indices":[14,21,39,10,14,45,7,0,0,0,0,0,0,0,0],"split_type":[0,0,0,0,0,0,0,0,0,0,0,0,0,0,0],"sum_hessian":[7.572872E2,3.8308014E2,3.7420703E2,8.515967E1,2.979205E2,3.9928062E1,3.3427896E2,3.428266E1,5.0877003E1,1.20020775E2,1.7789972E2,2.1361446E1,1.8566618E1,1.5368439E2,1.8059457E2],"tree_param":{"num_deleted":"0","num_feature":"50","num_nodes":"15","size_leaf_vector":"1"}},{"base_weights":[5.3117615E-3,1.5919778E-1,-1.4346349E-1,2.9213953E-1,-2.0541383E-2,-4.2155948E-2,-9.5531665E-2,-1.265199E-2,1.7277442E-2,4.3609533E-3,-2.0569155E-2,1.8787028E-2,-7.71317E-3],"categories":[],"categories_nodes":[],"categories_segments":[],"categories_sizes":[],"default_left":[0,0,0,0,0,0,0,0,0,0,0,0,0],"id":17,"left_children":[1,3,5,7,9,-1,11,-1,-1,-1,-1,-1,-1],"loss_changes":[1.7361639E1,8.9526205E0,1.2664436E1,6.4409294E0,6.849193E0,0E0,1.0139229E1,0E0,0E0,0E0,0E0,0E0,0E0],"parents":[2147483647,0,0,1,1,2,2,3,3,4,4,6,6],"right_children":[2,4,6,8,10,-1,12,-1,-1,-1,-1,-1,-1],"split_conditions":[6E-1,8.483334E0,-1.5970833E0,3.55E0,2E0,-4.2155948E-2,1.131E0,-1.265199E-2,1.7277442E-2,4.3609533E-3,-2.0569155E-2,1.8787028E-2,-7.71317E-3],"split_indices":[14,24,26,41,13,0,37,0,0,0,0,0,0],"split_type":[0,0,0,0,0,0,0,0,0,0,0,0,0],"sum_hessian":[7.542707E2,3.7102856E2,3.8324216E2,2.1288013E2,1.5814842E2,2.23106E1,3.6093155E2,1.8160246E1,1.947199E2,1.2498591E2,3.316251E1,3.861125E1,3.223203E2],"tree_param":{"num_deleted":"0","num_feature":"50","num_nodes":"13","size_leaf_vector":"1"}},{"base_weights":[-1.3661319E-2,1.685837E-1,-1.9686526E-1,-1.6635111E-1,2.3217025E-1,2.4652472E-2,-2.4507537E-1,1.0119299E-2,-2.443183E-2,-1.1195221E-2,1.4257676E-2,-9.772659E-3,-4.197533E-2],"categories":[],"categories_nodes":[],"categories_segments":[],"categories_sizes":[],"default_left":[0,0,0,0,0,0,0,0,0,0,0,0,0],"id":18,"left_children":[1,3,5,7,9,-1,11,-1,-1,-1,-1,-1,-1],"loss_changes":[2.5869022E1,8.351053E0,1.3073726E1,7.695528E0,8.043528E0,0E0,1.0268967E1,0E0,0E0,0E0,0E0,0E0,0E0],"parents":[2147483647,0,0,1,1,2,2,3,3,4,4,6,6],"right_children":[2,4,6,8,10,-1,12,-1,-1,-1,-1,-1,-1],"split_conditions":[6E-1,-1.3142857E-1,7.133333E0,4.375E0,3.5253425E0,2.4652472E-2,1E0,1.0119299E-2,-2.443183E-2,-1.1195221E-2,1.4257676E-2,-9.772659E-3,-4.197533E-2],"split_indices":[14,27,24,0,45,0,14,0,0,0,0,0,0],"split_type":[0,0,0,0,0,0,0,0,0,0,0,0,0],"sum_hessian":[7.7072705E2,3.861811E2,3.84546E2,6.085093E1,3.2533017E2,2.3775557E1,3.6077045E2,2.8582523E1,3.2268406E1,3.2992714E1,2.9233743E2,3.3558237E2,2.5188055E1],"tree_param":{"num_deleted":"0","num_feature":"50","num_nodes":"13","size_leaf_vector":"1"}},{"base_weights":[-2.2408015E-3,2.8889477E-1,-7.7952065E-2,4.3630794E-1,-1.2605327E-1,-5.915008E-1,-3.7783846E-2,1.1097861E-2,3.7590716E-2,6.444418E-3,-2.5778536E-2,-4.29767E-3,-4.303832E-2,-3.9273687E-3,1.7431054E-2],"categories":[],"categories_nodes":[],"categories_segments":[],"categories_sizes":[],"default_left":[0,0,0,0,0,0,0,0,0,0,0,0,0,0,0],"id":19,"left_children":[1,3,5,7,9,11,13,-1,-1,-1,-1,-1,-1,-1,-1],"loss_changes":[1.6893044E1,9.811785E0,1.2459327E1,7.5005894E0,4.4234705E0,5.730131E0,8.963929E0,0E0,0E0,0E0,0E0,0E0,0E0,0E0,0E0],"parents":[2147483647,0,0,1,1,2,2,3,3,4,4,5,5,6,6],"right_children":[2,4,6,8,10,12,14,-1,-1,-1,-1,-1,-1,-1,-1],"split_conditions":[2.5E-1,8.742857E0,-2.4775E-1,3.1725E0,6E-1,-1.75E0,1.2019048E0,1.1097861E-2,3.7590716E-2,6.444418E-3,-2.5778536E-2,-4.29767E-3,-4.303832E-2,-3.9273687E-3,1.7431054E-2],"split_indices":[14,24,27,21,10,13,26,0,0,0,0,0,0,0,0],"split_type":[0,0,0,0,0,0,0,0,0,0,0,0,0,0,0],"sum_hessian":[7.633078E2,1.5609956E2,6.0720825E2,1.15282646E2,4.0816917E1,4.1876644E1,5.653316E2,7.086314E1,4.441951E1,2.532381E1,1.5493108E1,1.55990925E1,2.6277554E1,5.13059E2,5.2272575E1],"tree_param":{"num_deleted":"0","num_feature":"50","num_nodes":"15","size_leaf_vector":"1"}},{"base_weights":[3.2978058E-2,1.01400346E-1,-2.3691212E-1,-1.4298812E-1,1.7130381E-1,-3.8791496E-1,7.925349E-2,-8.5701124E-4,-2.2777067E-2,9.835447E-3,-2.5806544E-2,8.32907E-3,-2.5814388E-2,-5.1014284E-3,1.837287E-2],"categories":[],"categories_nodes":[],"categories_segments":[],"categories_sizes":[],"default_left":[0,0,0,0,1,0,0,0,0,0,0,0,0,0,0],"id":20,"left_children":[1,3,5,7,9,11,13,-1,-1,-1,-1,-1,-1,-1,-1],"loss_changes":[1.4069986E1,1.0439167E1,7.445613E0,5.286854E0,8.449629E0,7.6661835E0,2.7781432E0,0E0,0E0,0E0,0E0,0E0,0E0,0E0,0E0],"parents":[2147483647,0,0,1,1,2,2,3,3,4,4,5,5,6,6],"right_children":[2,4,6,8,10,12,14,-1,-1,-1,-1,-1,-1,-1,-1],"split_conditions":[8E-1,2.57E0,1.3244737E0,4.1666666E-1,1.559E0,-3E-1,2.6711764E0,-8.5701124E-4,-2.2777067E-2,9.835447E-3,-2.5806544E-2,8.32907E-3,-2.5814388E-2,-5.1014284E-3,1.837287E-2],"split_indices":[14,21,23,7,37,48,25,0,0,0,0,0,0,0,0],"split_type":[0,0,0,0,0,0,0,0,0,0,0,0,0,0,0],"sum_hessian":[7.580514E2,6.060303E2,1.5202109E2,1.3400742E2,4.720229E2,1.0279021E2,4.923088E1,9.727127E1,3.6736134E1,4.567174E2,1.5305487E1,1.9065218E1,8.372498E1,3.0801521E1,1.8429358E1],"tree_param":{"num_deleted":"0","num_feature":"50","num_nodes":"15","size_leaf_vector":"1"}},{"base_weights":[-1.870927E-2,3.380318E-1,-1.1472671E-1,4.906509E-2,5.602642E-1,2.58421E-1,-1.6702883E-1,-9.908334E-3,1.7876834E-2,3.60376E-2,1.2758496E-2,4.102408E-2,-6.48527E-3,-2.2702383E-2,-3.9166645E-3],"categories":[],"categories_nodes":[],"categories_segments":[],"categories_sizes":[],"default_left":[0,0,0,0,0,0,0,0,0,0,0,0,0,0,0],"id":21,"left_children":[1,3,5,7,9,11,13,-1,-1,-1,-1,-1,-1,-1,-1],"loss_changes":[2.598367E1,1.0211338E1,1.175082E1,5.671433E0,3.9666576E0,1.6442999E1,1.326774E1,0E0,0E0,0E0,0E0,0E0,0E0,0E0,0E0],"parents":[2147483647,0,0,1,1,2,2,3,3,4,4,5,5,6,6],"right_children":[2,4,6,8,10,12,14,-1,-1,-1,-1,-1,-1,-1,-1],"split_conditions":[4E-1,2.848E0,3.53E0,1.3538333E0,4.969E0,5E-1,-1.0909091E0,-9.908334E-3,1.7876834E-2,3.60376E-2,1.2758496E-2,4.102408E-2,-6.48527E-3,-2.2702383E-2,-3.9166645E-3],"split_indices":[14,21,36,23,22,2,10,0,0,0,0,0,0,0,0],"split_type":[0,0,0,0,0,0,0,0,0,0,0,0,0,0,0],"sum_hessian":[7.5496027E2,1.5881606E2,5.961442E2,7.0298775E1,8.851728E1,7.208222E1,5.24062E2,3.923997E1,3.1058802E1,5.600474E1,3.2512543E1,2.8638891E1,4.344333E1,1.2150523E2,4.0255676E2],"tree_param":{"num_deleted":"0","num_feature":"50","num_nodes":"15","size_leaf_vector":"1"}},{"base_weights":[-1.8311128E-2,2.593979E-1,-9.1461845E-2,3.7043342E-1,-1.5565204E-2,-5.942884E-2,-3.6979217E-2,-9.6597625E-3,2.4760365E-2,-7.195741E-3,4.18461E-3],"categories":[],"categories_nodes":[],"categories_segments":[],"categories_sizes":[],"default_left":[0,1,1,0,0,1,0,0,0,0,0],"id":22,"left_children":[1,3,5,7,-1,9,-1,-1,-1,-1,-1],"loss_changes":[1.5389526E1,1.0240181E1,1.2292822E1,9.5899315E0,0E0,6.9736643E0,0E0,0E0,0E0,0E0,0E0],"parents":[2147483647,0,0,1,1,2,2,3,3,5,5],"right_children":[2,4,6,8,-1,10,-1,-1,-1,-1,-1],"split_conditions":[4E-1,8.7E0,1.566E0,2.5171428E0,-1.5565204E-2,6.9E0,-3.6979217E-2,-9.6597625E-3,2.4760365E-2,-7.195741E-3,4.18461E-3],"split_indices":[14,43,37,21,0,38,0,0,0,0,0],"split_type":[0,0,0,0,0,0,0,0,0,0,0],"sum_hessian":[7.540503E2,1.558652E2,5.9818506E2,1.3121344E2,2.4651773E1,5.722402E2,2.5944895E1,2.3438568E1,1.0777487E2,3.602614E2,2.1197879E2],"tree_param":{"num_deleted":"0","num_feature":"50","num_nodes":"11","size_leaf_vector":"1"}},{"base_weights":[9.144847E-3,6.356783E-2,-2.909623E-1,3.3633534E-2,4.158678E-2,-1.0801607E-1,-5.8996487E-1,3.2075737E-3,-2.7948746E-2,-1.623456E-2,7.7614076E-3,-4.3367144E-2,-1.8949731E-3],"categories":[],"categories_nodes":[],"categories_segments":[],"categories_sizes":[],"default_left":[0,0,1,0,0,0,0,0,0,0,0,0,0],"id":23,"left_children":[1,3,5,-1,7,9,11,-1,-1,-1,-1,-1,-1],"loss_changes":[1.26664505E1,8.677875E0,6.3117514E0,0E0,8.655148E0,4.4799623E0,6.6600485E0,0E0,0E0,0E0,0E0,0E0,0E0],"parents":[2147483647,0,0,1,1,2,2,4,4,5,5,6,6],"right_children":[2,4,6,-1,8,10,12,-1,-1,-1,-1,-1,-1],"split_conditions":[5.260714E0,1.7088608E0,1.088E0,3.3633534E-2,1E0,4.3614287E0,1.34E0,3.2075737E-3,-2.7948746E-2,-1.623456E-2,7.7614076E-3,-4.3367144E-2,-1.8949731E-3],"split_indices":[18,39,42,0,14,22,33,0,0,0,0,0,0],"split_type":[0,0,0,0,0,0,0,0,0,0,0,0,0],"sum_hessian":[7.7265314E2,6.556616E2,1.1699149E2,2.061652E1,6.350451E2,7.447845E1,4.2513054E1,6.1393097E2,2.1114141E1,4.080504E1,3.3673405E1,2.7415293E1,1.5097761E1],"tree_param":{"num_deleted":"0","num_feature":"50","num_nodes":"13","size_leaf_vector":"1"}},{"base_weights":[-1.1820229E-2,3.8157362E-1,-4.4786654E-2,6.1259013E-1,2.800765E-3,-6.416737E-2,2.832306E-2,5.0378393E-2,5.225602E-3,-8.7333E-4,-1.3935134E-2],"categories":[],"categories_nodes":[],"categories_segments":[],"categories_sizes":[],"default_left":[0,0,0,0,0,0,0,0,0,0,0],"id":24,"left_children":[1,3,5,7,-1,9,-1,-1,-1,-1,-1],"loss_changes":[9.811033E0,4.261735E0,8.315036E0,6.464752E0,0E0,6.778034E0,0E0,0E0,0E0,0E0,0E0],"parents":[2147483647,0,0,1,1,2,2,3,3,5,5],"right_children":[2,4,6,8,-1,10,-1,-1,-1,-1,-1],"split_conditions":[1.081E0,5.4545456E-1,4.6666667E-1,1E0,2.800765E-3,1.4378889E0,2.832306E-2,5.0378393E-2,5.225602E-3,-8.7333E-4,-1.3935134E-2],"split_indices":[37,2,8,34,0,19,0,0,0,0,0],"split_type":[0,0,0,0,0,0,0,0,0,0,0],"sum_hessian":[7.544726E2,5.646645E1,6.9800616E2,3.1817928E1,2.464852E1,6.7844836E2,1.9557781E1,1.6684477E1,1.5133451E1,5.593222E2,1.1912618E2],"tree_param":{"num_deleted":"0","num_feature":"50","num_nodes":"11","size_leaf_vector":"1"}},{"base_weights":[-1.05144065E-2,2.2603022E-1,-7.2279975E-2,-5.397387E-2,4.3346947E-1,-1.1591778E-1,3.1631E-1,-1.775024E-2,1.4131715E-2,2.766631E-2,-3.9720695E-4,-2.1463474E-3,-1.6918331E-2,-6.488128E-3,3.241955E-2],"categories":[],"categories_nodes":[],"categories_segments":[],"categories_sizes":[],"default_left":[0,0,0,0,0,0,0,0,0,0,0,0,0,0,0],"id":25,"left_children":[1,3,5,7,9,11,13,-1,-1,-1,-1,-1,-1,-1,-1],"loss_changes":[1.1193009E1,9.292601E0,1.0369927E1,7.203402E0,4.9037304E0,8.841325E0,9.364103E0,0E0,0E0,0E0,0E0,0E0,0E0,0E0,0E0],"parents":[2147483647,0,0,1,1,2,2,3,3,4,4,5,5,6,6],"right_children":[2,4,6,8,10,12,14,-1,-1,-1,-1,-1,-1,-1,-1],"split_conditions":[3.6363637E0,5.78E0,1.1906945E0,3.09E0,5.0666666E0,6E-1,-2.220446E-16,-1.775024E-2,1.4131715E-2,2.766631E-2,-3.9720695E-4,-2.1463474E-3,-1.6918331E-2,-6.488128E-3,3.241955E-2],"split_indices":[1,41,26,25,4,2,17,0,0,0,0,0,0,0,0],"split_type":[0,0,0,0,0,0,0,0,0,0,0,0,0,0,0],"sum_hessian":[7.629192E2,1.5652704E2,6.0639215E2,6.7037094E1,8.9489944E1,5.4666376E2,5.9728405E1,3.5487846E1,3.1549246E1,7.0159164E1,1.9330786E1,4.137409E2,1.3292287E2,2.5880892E1,3.3847515E1],"tree_param":{"num_deleted":"0","num_feature":"50","num_nodes":"15","size_leaf_vector":"1"}},{"base_weights":[1.1366375E-2,4.010345E-2,-6.268341E-1,-5.058558E-2,2.4570115E-1,-3.7954964E-2,-2.09583E-2,-1.272916E-2,1.3829442E-3,8.537474E-3,4.1058637E-2],"categories":[],"categories_nodes":[],"categories_segments":[],"categories_sizes":[],"default_left":[1,0,0,0,0,0,0,0,0,0,0],"id":26,"left_children":[1,3,5,7,9,-1,-1,-1,-1,-1,-1],"loss_changes":[1.3894859E1,1.3607976E1,1.421814E-1,8.115113E0,9.253616E0,0E0,0E0,0E0,0E0,0E0,0E0],"parents":[2147483647,0,0,1,1,2,2,3,3,4,4],"right_children":[2,4,6,8,10,-1,-1,-1,-1,-1,-1],"split_conditions":[1.566E0,1.8E0,3.3020477E0,-6.935065E-1,1.6147059E0,-3.7954964E-2,-2.09583E-2,-1.272916E-2,1.3829442E-3,8.537474E-3,4.1058637E-2],"split_indices":[37,17,44,28,28,0,0,0,0,0,0],"split_type":[0,0,0,0,0,0,0,0,0,0,0],"sum_hessian":[7.5608307E2,7.254484E2,3.0634687E1,5.0410812E2,2.2134029E2,1.5176466E1,1.5458222E1,1.3885596E2,3.6525217E2,1.982824E2,2.3057884E1],"tree_param":{"num_deleted":"0","num_feature":"50","num_nodes":"11","size_leaf_vector":"1"}},{"base_weights":[2.7453464E-2,3.2050672E-1,-4.4309143E-2,4.5950395E-1,-2.7503138E-2,-8.183904E-2,5.543095E-1,2.8200535E-2,-3.97302E-3,-2.5591258E-2,1.4521517E-2,1.1947322E-2,-6.186483E-3,4.086144E-2,1.3863086E-2],"categories":[],"categories_nodes":[],"categories_segments":[],"categories_sizes":[],"default_left":[0,0,0,0,0,0,0,0,0,0,0,0,0,0,0],"id":27,"left_children":[1,3,5,7,9,11,13,-1,-1,-1,-1,-1,-1,-1,-1],"loss_changes":[1.6230669E1,7.4118204E0,1.3956834E1,6.2662373E0,7.2501097E0,7.9043183E0,2.1060104E0,0E0,0E0,0E0,0E0,0E0,0E0,0E0,0E0],"parents":[2147483647,0,0,1,1,2,2,3,3,4,4,5,5,6,6],"right_children":[2,4,6,8,10,12,14,-1,-1,-1,-1,-1,-1,-1,-1],"split_conditions":[2.5E-1,1.3445E0,2.4E0,1.9E0,1.40475E0,3.5E0,2E-1,2.8200535E-2,-3.97302E-3,-2.5591258E-2,1.4521517E-2,1.1947322E-2,-6.186483E-3,4.086144E-2,1.3863086E-2],"split_indices":[14,19,3,3,19,36,15,0,0,0,0,0,0,0,0],"split_type":[0,0,0,0,0,0,0,0,0,0,0,0,0,0,0],"sum_hessian":[7.671129E2,1.4980855E2,6.173044E2,1.0679898E2,4.3009567E1,5.826681E2,3.4636272E1,8.953122E1,1.7267761E1,1.6685953E1,2.6323612E1,6.593821E1,5.167299E2,1.5585284E1,1.9050987E1],"tree_param":{"num_deleted":"0","num_feature":"50","num_nodes":"15","size_leaf_vector":"1"}},{"base_weights":[1.9458571E-2,1.6710725E-1,-1.2790243E-1,3.7375036E-1,9.2367776E-2,-1.6552062E-1,2.9708782E-2,-1.1466916E-2,2.4593242E-2,-1.4523449E-2,7.893101E-3,-1.7243434E-2,-2.0779655E-3],"categories":[],"categories_nodes":[],"categories_segments":[],"categories_sizes":[],"default_left":[0,0,1,0,0,0,0,0,0,0,0,0,0],"id":28,"left_children":[1,3,5,7,9,11,-1,-1,-1,-1,-1,-1,-1],"loss_changes":[1.6602768E1,5.7733088E0,1.0520175E1,7.3942614E0,7.1751223E0,8.034767E0,0E0,0E0,0E0,0E0,0E0,0E0,0E0],"parents":[2147483647,0,0,1,1,2,2,3,3,4,4,5,5],"right_children":[2,4,6,8,10,12,-1,-1,-1,-1,-1,-1,-1],"split_conditions":[6E-1,0E0,2.6E-1,-1.9428572E-1,-2.1E-2,-6.666667E-1,2.9708782E-2,-1.1466916E-2,2.4593242E-2,-1.4523449E-2,7.893101E-3,-1.7243434E-2,-2.0779655E-3],"split_indices":[14,8,47,27,47,10,0,0,0,0,0,0,0],"split_type":[0,0,0,0,0,0,0,0,0,0,0,0,0],"sum_hessian":[7.5893207E2,3.793011E2,3.7963095E2,9.826744E1,2.8103366E2,3.6242944E2,1.72015E1,1.5646577E1,8.2620865E1,3.9828026E1,2.4120563E2,1.4633713E2,2.1609232E2],"tree_param":{"num_deleted":"0","num_feature":"50","num_nodes":"13","size_leaf_vector":"1"}},{"base_weights":[-2.627456E-2,-1.242714E-1,1.2976488E-1,2.0406277E-1,-2.6036766E-1,-2.066634E-2,1.7744967E-1,-2.6821198E-3,1.9273512E-2,-1.98029E-3,-2.262714E-2,1.3367541E-2,-7.2537004E-3],"categories":[],"categories_nodes":[],"categories_segments":[],"categories_sizes":[],"default_left":[0,0,0,1,0,0,1,0,0,0,0,0,0],"id":29,"left_children":[1,3,5,7,9,-1,11,-1,-1,-1,-1,-1,-1],"loss_changes":[1.1723356E1,2.1161171E1,7.7765827E0,6.570143E0,1.4089708E1,0E0,8.012677E0,0E0,0E0,0E0,0E0,0E0,0E0],"parents":[2147483647,0,0,1,1,2,2,3,3,4,4,6,6],"right_children":[2,4,6,8,10,-1,12,-1,-1,-1,-1,-1,-1],"split_conditions":[2E-1,3.1671555E0,-1.2E0,-8.3E-1,-8E-1,-2.066634E-2,1.295E0,-2.6821198E-3,1.9273512E-2,-1.98029E-3,-2.262714E-2,1.3367541E-2,-7.2537004E-3],"split_indices":[16,39,10,46,13,0,42,0,0,0,0,0,0],"split_type":[0,0,0,0,0,0,0,0,0,0,0,0,0],"sum_hessian":[7.6259155E2,4.6905856E2,2.93533E2,1.3694447E2,3.321141E2,2.2285542E1,2.7124744E2,5.6929085E1,8.001539E1,1.5592604E2,1.7618805E2,2.1263042E2,5.8617016E1],"tree_param":{"num_deleted":"0","num_feature":"50","num_nodes":"13","size_leaf_vector":"1"}},{"base_weights":[-3.6909796E-2,-8.162535E-3,-6.057066E-1,1.654196E-2,-4.1323143E-1,-9.0947775E-3,-5.2689016E-2,6.0581546E-3,-2.8427558E-3,-6.0395594E-3,-4.008464E-2],"categories":[],"categories_nodes":[],"categories_segments":[],"categories_sizes":[],"default_left":[0,1,0,0,0,0,0,0,0,0,0],"id":30,"left_children":[1,3,5,7,9,-1,-1,-1,-1,-1,-1],"loss_changes":[1.2543333E1,7.4240317E0,6.5041475E0,5.3639693E0,4.5590305E0,0E0,0E0,0E0,0E0,0E0,0E0],"parents":[2147483647,0,0,1,1,2,2,3,3,4,4],"right_children":[2,4,6,8,10,-1,-1,-1,-1,-1,-1],"split_conditions":[3.6E0,5.52E0,4.5E0,-4E-1,1.4378889E0,-9.0947775E-3,-5.2689016E-2,6.0581546E-3,-2.8427558E-3,-6.0395594E-3,-4.008464E-2],"split_indices":[15,36,0,15,19,0,0,0,0,0,0],"split_type":[0,0,0,0,0,0,0,0,0,0,0],"sum_hessian":[7.694719E2,7.345519E2,3.492009E1,6.9390326E2,4.0648582E1,1.950569E1,1.5414401E1,2.8612207E2,4.077812E2,2.4833117E1,1.5815466E1],"tree_param":{"num_deleted":"0","num_feature":"50","num_nodes":"11","size_leaf_vector":"1"}},{"base_weights":[2.1597255E-2,5.049096E-2,-6.105577E-1,7.5475104E-2,-3.1343006E-2,-4.1829746E-2,-1.468917E-2,-4.6207616E-4,1.3737102E-2],"categories":[],"categories_nodes":[],"categories_segments":[],"categories_sizes":[],"default_left":[1,0,0,0,0,0,0,0,0],"id":31,"left_children":[1,3,5,7,-1,-1,-1,-1,-1],"loss_changes":[1.3868455E1,1.2355975E1,1.7708435E0,1.1913174E1,0E0,0E0,0E0,0E0,0E0],"parents":[2147483647,0,0,1,1,2,2,3,3],"right_children":[2,4,6,8,-1,-1,-1,-1,-1],"split_conditions":[1.572E0,1E0,1.677E0,5.439394E-1,-3.1343006E-2,-4.1829746E-2,-1.468917E-2,-4.6207616E-4,1.3737102E-2],"split_indices":[37,14,37,28,0,0,0,0,0],"split_type":[0,0,0,0,0,0,0,0,0],"sum_hessian":[7.5696954E2,7.257943E2,3.1175205E1,7.01832E2,2.3962341E1,1.609373E1,1.5081473E1,4.9345096E2,2.0838103E2],"tree_param":{"num_deleted":"0","num_feature":"50","num_nodes":"9","size_leaf_vector":"1"}},{"base_weights":[-1.1746864E-3,3.381554E-2,-2.8226204E-2,2.0586908E-1,-8.519522E-2,1.7452929E-3,2.2469616E-2,-5.987258E-3,1.5980719E-2],"categories":[],"categories_nodes":[],"categories_segments":[],"categories_sizes":[],"default_left":[0,0,0,0,0,0,0,0,0],"id":32,"left_children":[1,-1,3,5,7,-1,-1,-1,-1],"loss_changes":[1.3831053E1,0E0,9.747263E0,5.872061E0,8.283281E0,0E0,0E0,0E0,0E0],"parents":[2147483647,0,0,2,2,3,3,4,4],"right_children":[2,-1,4,6,8,-1,-1,-1,-1],"split_conditions":[1.026E0,3.381554E-2,2.5E-1,3.105E0,5.866667E0,1.7452929E-3,2.2469616E-2,-5.987258E-3,1.5980719E-2],"split_indices":[37,0,14,21,0,0,0,0,0],"split_type":[0,0,0,0,0,0,0,0,0],"sum_hessian":[7.541343E2,2.6970846E1,7.2716345E2,1.4095848E2,5.8620496E2,8.440209E1,5.6556393E1,5.4163275E2,4.4572197E1],"tree_param":{"num_deleted":"0","num_feature":"50","num_nodes":"9","size_leaf_vector":"1"}},{"base_weights":[-9.344897E-3,1.1609365E-1,-1.2663534E-1,-6.661493E-2,2.0116252E-1,-2.2706097E-2,-3.696195E-1,-1.8228916E-2,5.1234267E-3,6.276565E-3,2.7015818E-2,3.278017E-3,-1.6613867E-2,-4.6746265E-2,-1.2693253E-2],"categories":[],"categories_nodes":[],"categories_segments":[],"categories_sizes":[],"default_left":[0,0,0,0,1,0,0,0,0,0,0,0,0,0,0],"id":33,"left_children":[1,3,5,7,9,11,13,-1,-1,-1,-1,-1,-1,-1,-1],"loss_changes":[1.1218012E1,5.7610674E0,9.902081E0,6.048804E0,6.261957E0,7.6833324E0,7.1093388E0,0E0,0E0,0E0,0E0,0E0,0E0,0E0,0E0],"parents":[2147483647,0,0,1,1,2,2,3,3,4,4,5,5,6,6],"right_children":[2,4,6,8,10,12,14,-1,-1,-1,-1,-1,-1,-1,-1],"split_conditions":[8.32E0,1.625E-1,1.3535556E0,4.459E0,4.136508E0,2E0,-6.7E-1,-1.8228916E-2,5.1234267E-3,6.276565E-3,2.7015818E-2,3.278017E-3,-1.6613867E-2,-4.6746265E-2,-1.2693253E-2],"split_indices":[24,28,19,18,40,13,33,0,0,0,0,0,0,0,0],"split_type":[0,0,0,0,0,0,0,0,0,0,0,0,0,0,0],"sum_hessian":[7.5839886E2,3.6606805E2,3.9233078E2,1.1605869E2,2.5000938E2,2.7661526E2,1.1571552E2,4.1393314E1,7.4665375E1,2.0690479E2,4.310459E1,2.1621921E2,6.0396046E1,1.7114847E1,9.860068E1],"tree_param":{"num_deleted":"0","num_feature":"50","num_nodes":"15","size_leaf_vector":"1"}},{"base_weights":[7.0612095E-3,1.1715217E-1,-1.068221E-1,3.4482554E-2,8.551876E-2,3.3665034E-1,-1.6276813E-1,5.6649237E-3,-2.0908542E-2,3.1085784E-2,-6.305317E-3,-1.8655043E-2,-3.325021E-3],"categories":[],"categories_nodes":[],"categories_segments":[],"categories_sizes":[],"default_left":[0,0,0,0,0,0,0,0,0,0,0,0,0],"id":34,"left_children":[1,3,5,-1,7,9,11,-1,-1,-1,-1,-1,-1],"loss_changes":[9.425821E0,6.7336774E0,9.2502E0,0E0,5.171855E0,5.7205815E0,6.5745E0,0E0,0E0,0E0,0E0,0E0,0E0],"parents":[2147483647,0,0,1,1,2,2,4,4,5,5,6,6],"right_children":[2,4,6,-1,8,10,12,-1,-1,-1,-1,-1,-1],"split_conditions":[5E-1,-2.5E0,2.248187E0,3.4482554E-2,5.9333334E0,3.3565106E0,-9.3333334E-1,5.6649237E-3,-2.0908542E-2,3.1085784E-2,-6.305317E-3,-1.8655043E-2,-3.325021E-3],"split_indices":[14,9,39,0,1,44,10,0,0,0,0,0,0],"split_type":[0,0,0,0,0,0,0,0,0,0,0,0,0],"sum_hessian":[7.4773016E2,3.806127E2,3.671175E2,1.7585619E1,3.6302707E2,3.9801003E1,3.273165E2,3.4570905E2,1.7318033E1,2.4337692E1,1.546331E1,1.0064024E2,2.2667624E2],"tree_param":{"num_deleted":"0","num_feature":"50","num_nodes":"13","size_leaf_vector":"1"}},{"base_weights":[2.2330054E-3,5.000467E-2,-2.54269E-1,1.2896118E-1,-8.2229435E-2,-3.749852E-1,8.6172834E-2,2.6069203E-2,3.419498E-3,-1.2560773E-2,1.1603994E-2,3.7589618E-3,-2.4061933E-2,1.6501006E-2,-7.6268995E-3],"categories":[],"categories_nodes":[],"categories_segments":[],"categories_sizes":[],"default_left":[0,0,0,0,0,0,0,0,0,0,0,0,0,0,0],"id":35,"left_children":[1,3,5,7,9,11,13,-1,-1,-1,-1,-1,-1,-1,-1],"loss_changes":[9.363746E0,6.7690053E0,5.021509E0,9.511593E0,1.29830475E1,4.3753986E0,2.027595E0,0E0,0E0,0E0,0E0,0E0,0E0,0E0,0E0],"parents":[2147483647,0,0,1,1,2,2,3,3,4,4,5,5,6,6],"right_children":[2,4,6,8,10,12,14,-1,-1,-1,-1,-1,-1,-1,-1],"split_conditions":[5.260714E0,6E-1,2E-1,3.5E0,5.2E-1,-1.8466667E0,-1.8181819E-1,2.6069203E-2,3.419498E-3,-1.2560773E-2,1.1603994E-2,3.7589618E-3,-2.4061933E-2,1.6501006E-2,-7.6268995E-3],"split_indices":[18,2,16,36,28,28,3,0,0,0,0,0,0,0,0],"split_type":[0,0,0,0,0,0,0,0,0,0,0,0,0,0,0],"sum_hessian":[7.61759E2,6.4384705E2,1.1791194E2,4.036405E2,2.4020656E2,8.7113464E1,3.0798477E1,5.1716724E1,3.5192377E2,1.5668546E2,8.35211E1,1.6567148E1,7.054632E1,1.50641165E1,1.573436E1],"tree_param":{"num_deleted":"0","num_feature":"50","num_nodes":"15","size_leaf_vector":"1"}},{"base_weights":[2.677523E-2,7.266829E-2,-1.613166E-1,4.3887798E-2,3.1072516E-2,-2.7465189E-1,2.5962517E-1,1.344718E-2,6.888623E-5,-2.4891702E-2,-2.9970502E-4,-2.633051E-3,2.7197583E-2],"categories":[],"categories_nodes":[],"categories_segments":[],"categories_sizes":[],"default_left":[1,0,0,0,0,0,0,0,0,0,0,0,0],"id":36,"left_children":[1,3,5,7,-1,9,11,-1,-1,-1,-1,-1,-1],"loss_changes":[6.5542297E0,9.5261755E0,7.242342E0,5.5469728E0,0E0,7.0418777E0,2.9834967E0,0E0,0E0,0E0,0E0,0E0,0E0],"parents":[2147483647,0,0,1,1,2,2,3,3,5,5,6,6],"right_children":[2,4,6,8,-1,10,12,-1,-1,-1,-1,-1,-1],"split_conditions":[8.7E0,5.6E0,5.376623E-1,1.321E0,3.1072516E-2,8E0,1.3257647E0,1.344718E-2,6.888623E-5,-2.4891702E-2,-2.9970502E-4,-2.633051E-3,2.7197583E-2],"split_indices":[43,17,28,42,0,32,23,0,0,0,0,0,0],"split_type":[0,0,0,0,0,0,0,0,0,0,0,0,0],"sum_hessian":[7.5559564E2,6.0880945E2,1.467862E2,5.806973E2,2.8112106E1,1.1638348E2,3.0402723E1,9.019319E1,4.9050415E2,6.2436928E1,5.394655E1,1.5097953E1,1.53047695E1],"tree_param":{"num_deleted":"0","num_feature":"50","num_nodes":"13","size_leaf_vector":"1"}},{"base_weights":[1.8886308E-3,4.2548993E-1,-3.0187085E-2,6.261351E-4,6.809622E-1,1.542069E-1,-8.918308E-2,2.1081239E-2,4.2869322E-2,1.6927442E-2,-4.1473783E-3,-1.4637751E-2,-6.686201E-4],"categories":[],"categories_nodes":[],"categories_segments":[],"categories_sizes":[],"default_left":[0,0,0,0,0,0,0,0,0,0,0,0,0],"id":37,"left_children":[1,3,5,-1,7,9,11,-1,-1,-1,-1,-1,-1],"loss_changes":[1.0408424E1,5.604003E0,7.737162E0,0E0,6.6516685E-1,7.612152E0,8.280693E0,0E0,0E0,0E0,0E0,0E0,0E0],"parents":[2147483647,0,0,1,1,2,2,4,4,5,5,6,6],"right_children":[2,4,6,-1,8,10,12,-1,-1,-1,-1,-1,-1],"split_conditions":[7.07E0,8.166667E0,2.8880596E0,6.261351E-4,1.7714286E0,2.7272728E-1,4.92E0,2.1081239E-2,4.2869322E-2,1.6927442E-2,-4.1473783E-3,-1.4637751E-2,-6.686201E-4],"split_indices":[24,20,39,0,28,3,41,0,0,0,0,0,0],"split_type":[0,0,0,0,0,0,0,0,0,0,0,0,0],"sum_hessian":[7.5923987E2,5.193664E1,7.073032E2,2.080123E1,3.1135412E1,1.70252E2,5.370512E2,1.5579935E1,1.5555477E1,9.554823E1,7.470377E1,1.4381828E2,3.932329E2],"tree_param":{"num_deleted":"0","num_feature":"50","num_nodes":"13","size_leaf_vector":"1"}},{"base_weights":[3.9854683E-3,2.9482173E-2,-3.0281315E-2,2.4008252E-1,-2.313665E-2,1.6767455E-2,-1.1254745E-2,-2.7531988E-3,1.7737206E-2],"categories":[],"categories_nodes":[],"categories_segments":[],"categories_sizes":[],"default_left":[0,0,0,1,0,0,0,0,0],"id":38,"left_children":[1,3,-1,5,7,-1,-1,-1,-1],"loss_changes":[1.1892016E1,8.208786E0,0E0,6.7227793E0,7.148471E0,0E0,0E0,0E0,0E0],"parents":[2147483647,0,0,1,1,3,3,4,4],"right_children":[2,4,-1,6,8,-1,-1,-1,-1],"split_conditions":[1E0,4E-1,-3.0281315E-2,8.7E0,1.2625396E0,1.6767455E-2,-1.1254745E-2,-2.7531988E-3,1.7737206E-2],"split_indices":[14,14,0,43,26,0,0,0,0],"split_type":[0,0,0,0,0,0,0,0,0],"sum_hessian":[7.6450916E2,7.358019E2,2.8707228E1,1.4604597E2,5.897559E2,1.2186222E2,2.418376E1,5.4562866E2,4.4127235E1],"tree_param":{"num_deleted":"0","num_feature":"50","num_nodes":"9","size_leaf_vector":"1"}},{"base_weights":[-2.8554624E-2,2.6983147E-2,-4.9742926E-2,-6.466573E-2,2.5054336E-2,-2.0069731E-3,-1.8737668E-2],"categories":[],"categories_nodes":[],"categories_segments":[],"categories_sizes":[],"default_left":[0,0,0,0,0,0,0],"id":39,"left_children":[1,-1,3,5,-1,-1,-1],"loss_changes":[8.954975E0,0E0,5.9286723E0,5.2648563E0,0E0,0E0,0E0],"parents":[2147483647,0,0,2,2,3,3],"right_children":[2,-1,4,6,-1,-1,-1],"split_conditions":[6.8428574E0,2.6983147E-2,3E0,2E0,2.5054336E-2,-2.0069731E-3,-1.8737668E-2],"split_indices":[24,0,3,3,0,0,0],"split_type":[0,0,0,0,0,0,0],"sum_hessian":[7.4140533E2,2.4723492E1,7.166818E2,6.996734E2,1.7008453E1,6.5078143E2,4.889194E1],"tree_param":{"num_deleted":"0","num_feature":"50","num_nodes":"7","size_leaf_vector":"1"}},{"base_weights":[1.0133134E-2,1.0354735E-1,-8.598329E-2,1.7316659E-1,-2.0931324E-1,1.3464265E-1,-1.8434347E-1,3.2305155E-2,6.313817E-3,1.5876625E-2,-1.822047E-2,-5.82932E-3,1.7479448E-2,-2.7677184E-2,-5.0215297E-3],"categories":[],"categories_nodes":[],"categories_segments":[],"categories_sizes":[],"default_left":[0,1,0,0,0,1,0,0,0,0,0,0,0,0,0],"id":40,"left_children":[1,3,5,7,9,11,13,-1,-1,-1,-1,-1,-1,-1,-1],"loss_changes":[6.84241E0,8.493832E0,8.194515E0,6.8060694E0,6.0417137E0,6.396139E0,7.89674E0,0E0,0E0,0E0,0E0,0E0,0E0,0E0,0E0],"parents":[2147483647,0,0,1,1,2,2,3,3,4,4,5,5,6,6],"right_children":[2,4,6,8,10,12,14,-1,-1,-1,-1,-1,-1,-1,-1],"split_conditions":[6E-1,8.7E0,3.1671555E0,2E-1,-1.1018797E-1,7.9E0,4E0,3.2305155E-2,6.313817E-3,1.5876625E-2,-1.822047E-2,-5.82932E-3,1.7479448E-2,-2.7677184E-2,-5.0215297E-3],"split_indices":[14,43,39,14,27,43,4,0,0,0,0,0,0,0,0],"split_type":[0,0,0,0,0,0,0,0,0,0,0,0,0,0,0],"sum_hessian":[7.578976E2,3.848008E2,3.7309677E2,3.1575104E2,6.90498E1,1.14504364E2,2.585924E2,2.5984076E1,2.8976697E2,1.5081175E1,5.3968624E1,5.300368E1,6.1500683E1,4.5595623E1,2.129968E2],"tree_param":{"num_deleted":"0","num_feature":"50","num_nodes":"15","size_leaf_vector":"1"}},{"base_weights":[-4.5684874E-3,-1.2639126E-1,1.3847765E-1,2.4696147E-2,-1.6526377E-1,1.7027438E-1,-2.2878924E-2,-1.618345E-2,-3.7885439E-3,-1.2409317E-4,1.3395776E-2],"categories":[],"categories_nodes":[],"categories_segments":[],"categories_sizes":[],"default_left":[0,0,0,0,0,0,0,0,0,0,0],"id":41,"left_children":[1,3,5,-1,7,9,-1,-1,-1,-1,-1],"loss_changes":[1.3226179E1,1.0023373E1,6.737142E0,0E0,5.4075127E0,5.6402454E0,0E0,0E0,0E0,0E0,0E0],"parents":[2147483647,0,0,1,1,2,2,4,4,5,5],"right_children":[2,4,6,-1,8,10,-1,-1,-1,-1,-1],"split_conditions":[4E-1,3.5483334E0,1.333E1,2.4696147E-2,4.3636365E0,9.8E-1,-2.2878924E-2,-1.618345E-2,-3.7885439E-3,-1.2409317E-4,1.3395776E-2],"split_indices":[17,22,29,0,1,34,0,0,0,0,0],"split_type":[0,0,0,0,0,0,0,0,0,0,0],"sum_hessian":[7.5503973E2,4.08273E2,3.4676672E2,2.2543684E1,3.857293E2,3.307208E2,1.6045923E1,1.3695819E2,2.4877113E2,1.1975809E2,2.109627E2],"tree_param":{"num_deleted":"0","num_feature":"50","num_nodes":"11","size_leaf_vector":"1"}},{"base_weights":[-8.628116E-3,1.0144618E-1,-1.1621117E-1,3.681478E-2,3.172514E-1,2.6639486E-2,-1.47353E-1,1.9118894E-4,2.7488127E-2,-6.065997E-3,2.304524E-2,-4.3978994E-3,-2.5214223E-2],"categories":[],"categories_nodes":[],"categories_segments":[],"categories_sizes":[],"default_left":[0,0,0,1,0,0,0,0,0,0,0,0,0],"id":42,"left_children":[1,3,5,7,9,-1,11,-1,-1,-1,-1,-1,-1],"loss_changes":[8.867358E0,5.0974016E0,7.7785864E0,4.798885E0,5.4744616E0,0E0,7.5554013E0,0E0,0E0,0E0,0E0,0E0,0E0],"parents":[2147483647,0,0,1,1,2,2,3,3,4,4,6,6],"right_children":[2,4,6,8,10,-1,12,-1,-1,-1,-1,-1,-1],"split_conditions":[6E-1,9.33E0,-3.6E0,3.8333333E0,-1.1E-2,2.6639486E-2,5.3544445E0,1.9118894E-4,2.7488127E-2,-6.065997E-3,2.304524E-2,-4.3978994E-3,-2.5214223E-2],"split_indices":[14,29,13,39,47,0,18,0,0,0,0,0,0],"split_type":[0,0,0,0,0,0,0,0,0,0,0,0,0],"sum_hessian":[7.446819E2,3.6767618E2,3.770057E2,2.8509714E2,8.257904E1,1.5639883E1,3.613658E2,2.699451E2,1.5152059E1,2.027984E1,6.2299202E1,3.1218915E2,4.9176666E1],"tree_param":{"num_deleted":"0","num_feature":"50","num_nodes":"13","size_leaf_vector":"1"}},{"base_weights":[-2.5722234E-2,3.572631E-3,-3.2802248E-1,1.9665603E-1,-3.654811E-2,-4.7378367E-1,6.974241E-3,2.8005315E-2,1.9088936E-3,-3.136654E-3,1.7746635E-2,-3.1898003E-3,-3.4505263E-2],"categories":[],"categories_nodes":[],"categories_segments":[],"categories_sizes":[],"default_left":[0,0,1,0,1,0,0,0,0,0,0,0,0],"id":43,"left_children":[1,3,5,7,9,11,-1,-1,-1,-1,-1,-1,-1],"loss_changes":[6.6545086E0,5.3224025E0,4.68773E0,6.7096214E0,5.8262076E0,4.378003E0,0E0,0E0,0E0,0E0,0E0,0E0,0E0],"parents":[2147483647,0,0,1,1,2,2,3,3,4,4,5,5],"right_children":[2,4,6,8,10,12,-1,-1,-1,-1,-1,-1,-1],"split_conditions":[7E-1,-1.4666667E0,-1.4E0,4.5658145E0,5.1473684E0,8.366667E0,6.974241E-3,2.8005315E-2,1.9088936E-3,-3.136654E-3,1.7746635E-2,-3.1898003E-3,-3.4505263E-2],"split_indices":[6,9,46,40,45,24,0,0,0,0,0,0,0],"split_type":[0,0,0,0,0,0,0,0,0,0,0,0,0],"sum_hessian":[7.454972E2,6.8113617E2,6.436097E1,1.1626988E2,5.6486633E2,4.92063E1,1.5154675E1,3.3573536E1,8.269635E1,5.312665E2,3.359985E1,1.8049582E1,3.1156715E1],"tree_param":{"num_deleted":"0","num_feature":"50","num_nodes":"13","size_leaf_vector":"1"}},{"base_weights":[3.2462806E-2,5.860169E-2,-4.3993378E-1,1.1268098E-1,-6.1517112E-2,-5.611881E-3,-3.4850407E-2,1.4724447E-3,1.8718326E-2,1.5350907E-2,-6.6368417E-3],"categories":[],"categories_nodes":[],"categories_segments":[],"categories_sizes":[],"default_left":[1,0,0,0,0,0,0,0,0,0,0],"id":44,"left_children":[1,3,5,7,9,-1,-1,-1,-1,-1,-1],"loss_changes":[9.260655E0,4.641423E0,3.0733175E0,1.0652748E1,5.88121E0,0E0,0E0,0E0,0E0,0E0,0E0],"parents":[2147483647,0,0,1,1,2,2,3,3,4,4],"right_children":[2,4,6,8,10,-1,-1,-1,-1,-1,-1],"split_conditions":[1.524E0,4.857143E0,7E0,4.5E0,-2E0,-5.611881E-3,-3.4850407E-2,1.4724447E-3,1.8718326E-2,1.5350907E-2,-6.6368417E-3],"split_indices":[37,4,31,4,13,0,0,0,0,0,0],"split_type":[0,0,0,0,0,0,0,0,0,0,0],"sum_hessian":[7.4688947E2,7.0958966E2,3.729979E1,4.8995908E2,2.1963058E2,1.7831684E1,1.9468105E1,3.737051E2,1.16253975E2,3.4270065E1,1.8536052E2],"tree_param":{"num_deleted":"0","num_feature":"50","num_nodes":"11","size_leaf_vector":"1"}},{"base_weights":[-3.006429E-2,3.7335297E-1,-5.68132E-2,2.105199E-3,2.6233723E-2,-3.0943063E-1,-2.6272073E-2,-5.614614E-3,-3.590573E-2,3.1311277E-2,-2.3735897E-3],"categories":[],"categories_nodes":[],"categories_segments":[],"categories_sizes":[],"default_left":[0,0,0,0,0,0,0,0,0,0,0],"id":45,"left_children":[1,3,5,-1,-1,7,9,-1,-1,-1,-1],"loss_changes":[8.150586E0,2.2518716E0,5.423196E0,0E0,0E0,5.876712E0,8.791004E0,0E0,0E0,0E0,0E0],"parents":[2147483647,0,0,1,1,2,2,5,5,6,6],"right_children":[2,4,6,-1,-1,8,10,-1,-1,-1,-1],"split_conditions":[7.0285716E0,8.157143E0,7.5E0,2.105199E-3,2.6233723E-2,7.1428573E-1,7.7E0,-5.614614E-3,-3.590573E-2,3.1311277E-2,-2.3735897E-3],"split_indices":[24,20,43,0,0,10,43,0,0,0,0],"split_type":[0,0,0,0,0,0,0,0,0,0,0],"sum_hessian":[7.523175E2,4.49372E1,7.073803E2,1.5100002E1,2.9837198E1,7.397414E1,6.334061E2,5.1787457E1,2.2186682E1,1.7987278E1,6.154189E2],"tree_param":{"num_deleted":"0","num_feature":"50","num_nodes":"11","size_leaf_vector":"1"}},{"base_weights":[9.830019E-3,7.051124E-2,-1.7341638E-1,-6.687853E-2,1.4160916E-1,-4.900671E-1,-5.3743053E-2,-8.884601E-3,1.5601535E-2,9.912002E-3,-1.4357306E-2,2.753565E-4,-3.6331296E-2,-1.1780511E-2,1.6296513E-2],"categories":[],"categories_nodes":[],"categories_segments":[],"categories_sizes":[],"default_left":[1,0,0,1,1,0,0,0,0,0,0,0,0,0,0],"id":46,"left_children":[1,3,5,7,9,11,13,-1,-1,-1,-1,-1,-1,-1,-1],"loss_changes":[8.481267E0,5.631978E0,7.0775275E0,8.351341E0,9.314336E0,6.120576E0,9.816273E0,0E0,0E0,0E0,0E0,0E0,0E0,0E0,0E0],"parents":[2147483647,0,0,1,1,2,2,3,3,4,4,5,5,6,6],"right_children":[2,4,6,8,10,12,14,-1,-1,-1,-1,-1,-1,-1,-1],"split_conditions":[-1.1E0,-8.5714287E-1,-4.4523808E-1,2.5054586E0,3.1034484E0,3.8608696E0,4.128144E0,-8.884601E-3,1.5601535E-2,9.912002E-3,-1.4357306E-2,2.753565E-4,-3.6331296E-2,-1.1780511E-2,1.6296513E-2],"split_indices":[48,9,28,39,44,40,40,0,0,0,0,0,0,0,0],"split_type":[0,0,0,0,0,0,0,0,0,0,0,0,0,0,0],"sum_hessian":[7.594564E2,5.7186273E2,1.8759364E2,1.9457597E2,3.7728677E2,4.95255E1,1.3806813E2,1.5157365E2,4.3002316E1,3.3442392E2,4.2862873E1,1.6496723E1,3.3028778E1,9.404294E1,4.40252E1],"tree_param":{"num_deleted":"0","num_feature":"50","num_nodes":"15","size_leaf_vector":"1"}},{"base_weights":[3.6320694E-2,1.4444971E-1,-2.5041709E-2,2.1550348E-1,-3.1991008E-1,-3.1428024E-2,6.978445E-3,4.491233E-3,2.828143E-2,-3.5398226E-2,2.1610097E-3,-4.5907237E-3,5.4380735E-3],"categories":[],"categories_nodes":[],"categories_segments":[],"categories_sizes":[],"default_left":[0,0,0,0,0,0,0,0,0,0,0,0,0],"id":47,"left_children":[1,3,5,7,9,-1,11,-1,-1,-1,-1,-1,-1],"loss_changes":[5.0664887E0,9.243483E0,9.470776E0,1.0437878E1,5.3815384E0,0E0,4.684659E0,0E0,0E0,0E0,0E0,0E0,0E0],"parents":[2147483647,0,0,1,1,2,2,3,3,4,4,6,6],"right_children":[2,4,6,8,10,-1,12,-1,-1,-1,-1,-1,-1],"split_conditions":[-6E-1,1.3790226E-1,-1.7333333E0,-1.25E0,4.642857E0,-3.1428024E-2,1.6666668E-2,4.491233E-3,2.828143E-2,-3.5398226E-2,2.1610097E-3,-4.5907237E-3,5.4380735E-3],"split_indices":[13,27,10,13,5,0,27,0,0,0,0,0,0],"split_type":[0,0,0,0,0,0,0,0,0,0,0,0,0],"sum_hessian":[7.58704E2,2.7428955E2,4.8441443E2,2.3900545E2,3.528412E1,2.2686169E1,4.6172824E2,1.7793402E2,6.1071426E1,1.6271715E1,1.9012405E1,2.3390659E2,2.2782167E2],"tree_param":{"num_deleted":"0","num_feature":"50","num_nodes":"13","size_leaf_vector":"1"}},{"base_weights":[2.5942769E-2,-3.8795668E-1,5.235434E-2,7.4994243E-3,-3.409471E-2,3.0795861E-2,3.4310102E-2,8.453484E-3,-1.002638E-3],"categories":[],"categories_nodes":[],"categories_segments":[],"categories_sizes":[],"default_left":[0,0,0,0,0,0,0,0,0],"id":48,"left_children":[1,3,5,-1,-1,-1,7,-1,-1],"loss_changes":[8.401167E0,7.5424786E0,7.2530346E0,0E0,0E0,0E0,5.176416E0,0E0,0E0],"parents":[2147483647,0,0,1,1,2,2,6,6],"right_children":[2,4,6,-1,-1,-1,8,-1,-1],"split_conditions":[-2.4775E-1,2.252E0,6.1E0,7.4994243E-3,-3.409471E-2,3.0795861E-2,4.6666667E-1,8.453484E-3,-1.002638E-3],"split_indices":[27,21,38,0,0,0,2,0,0],"split_type":[0,0,0,0,0,0,0,0,0],"sum_hessian":[7.658658E2,4.407027E1,7.2179553E2,1.5797666E1,2.8272608E1,2.016568E1,7.016298E2,2.0099777E2,5.0063205E2],"tree_param":{"num_deleted":"0","num_feature":"50","num_nodes":"9","size_leaf_vector":"1"}},{"base_weights":[-2.6326155E-2,-4.94284E-2,3.8538218E-1,1.9951869E-2,-6.6473E-2,-6.2607205E-4,3.3271316E-2,-2.6016003E-3,-3.126534E-2],"categories":[],"categories_nodes":[],"categories_segments":[],"categories_sizes":[],"default_left":[1,0,0,0,1,0,0,0,0],"id":49,"left_children":[1,3,5,-1,7,-1,-1,-1,-1],"loss_changes":[7.2723975E0,5.5656796E0,4.6056695E0,0E0,5.523483E0,0E0,0E0,0E0,0E0],"parents":[2147483647,0,0,1,1,2,2,4,4],"right_children":[2,4,6,-1,8,-1,-1,-1,-1],"split_conditions":[5.1881304E0,2E-1,5E0,1.9951869E-2,4.9012985E0,-6.2607205E-4,3.3271316E-2,-2.6016003E-3,-3.126534E-2],"split_indices":[45,14,32,0,45,0,0,0,0],"split_type":[0,0,0,0,0,0,0,0,0],"sum_hessian":[7.6212585E2,7.235292E2,3.859671E1,2.4635923E1,6.9889325E2,1.6585094E1,2.2011614E1,6.8359344E2,1.5299782E1],"tree_param":{"num_deleted":"0","num_feature":"50","num_nodes":"9","size_leaf_vector":"1"}},{"base_weights":[-2.3830224E-2,-1.15720995E-1,8.120539E-2,3.320473E-1,-1.6166985E-1,-1.5520638E-2,2.4051721E-1,2.4686817E-3,2.8376956E-2,1.1673921E-2,-1.0781178E-2,-8.357178E-3,6.9021895E-3,1.7777234E-2,-1.51758585E-2],"categories":[],"categories_nodes":[],"categories_segments":[],"categories_sizes":[],"default_left":[0,0,0,1,0,0,1,0,0,0,0,0,0,0,0],"id":50,"left_children":[1,3,5,7,9,11,13,-1,-1,-1,-1,-1,-1,-1,-1],"loss_changes":[7.274533E0,8.363438E0,5.443137E0,2.40352E0,7.9068384E0,5.1730275E0,8.55783E0,0E0,0E0,0E0,0E0,0E0,0E0,0E0,0E0],"parents":[2147483647,0,0,1,1,2,2,3,3,4,4,5,5,6,6],"right_children":[2,4,6,8,10,12,14,-1,-1,-1,-1,-1,-1,-1,-1],"split_conditions":[4E-1,2.215909E0,4.6785715E-1,-2.68E-1,-3E0,3.0423076E0,1.419E0,2.4686817E-3,2.8376956E-2,1.1673921E-2,-1.0781178E-2,-8.357178E-3,6.9021895E-3,1.7777234E-2,-1.51758585E-2],"split_indices":[17,44,28,47,13,25,42,0,0,0,0,0,0,0,0],"split_type":[0,0,0,0,0,0,0,0,0,0,0,0,0,0,0],"sum_hessian":[7.493919E2,4.001062E2,3.492857E2,3.587525E1,3.6423096E2,2.1806511E2,1.312206E2,1.7596806E1,1.8278444E1,4.2735413E1,3.2149554E2,1.0996487E2,1.0810025E2,1.0904211E2,2.2178484E1],"tree_param":{"num_deleted":"0","num_feature":"50","num_nodes":"15","size_leaf_vector":"1"}},{"base_weights":[-1.3742268E-2,2.974116E-1,-5.4635797E-2,7.2862935E-1,-2.849248E-2,3.0263543E-2,-7.233901E-2,4.751781E-2,2.0806668E-2,-1.674894E-2,2.0827293E-2,-2.6683644E-3,-3.1158796E-2],"categories":[],"categories_nodes":[],"categories_segments":[],"categories_sizes":[],"default_left":[0,0,0,0,0,0,1,0,0,0,0,0,0],"id":51,"left_children":[1,3,5,7,9,-1,11,-1,-1,-1,-1,-1,-1],"loss_changes":[9.674738E0,1.2516903E1,7.9015417E0,1.7195206E0,7.372876E0,0E0,6.739689E0,0E0,0E0,0E0,0E0,0E0,0E0],"parents":[2147483647,0,0,1,1,2,2,3,3,4,4,6,6],"right_children":[2,4,6,8,10,-1,12,-1,-1,-1,-1,-1,-1],"split_conditions":[3.5E0,2.7272728E-1,6.8333335E0,1.287875E0,3.18E0,3.0263543E-2,1.55E0,4.751781E-2,2.0806668E-2,-1.674894E-2,2.0827293E-2,-2.6683644E-3,-3.1158796E-2],"split_indices":[36,3,24,23,36,0,46,0,0,0,0,0,0],"split_type":[0,0,0,0,0,0,0,0,0,0,0,0,0],"sum_hessian":[7.576967E2,8.627206E1,6.714246E2,3.620417E1,5.006789E1,1.5659812E1,6.5576483E2,1.8602604E1,1.7601566E1,3.0075193E1,1.9992697E1,6.362274E2,1.9537407E1],"tree_param":{"num_deleted":"0","num_feature":"50","num_nodes":"13","size_leaf_vector":"1"}},{"base_weights":[1.5210705E-2,-1.3339514E-1,1.11153275E-1,-6.294449E-3,-2.6040384E-1,-2.9995975E-1,1.5391602E-1,-1.3037773E-2,8.245496E-3,-7.1160304E-3,-2.7984643E-2,-3.0413156E-2,1.2315686E-2,5.7451962E-3,2.8934777E-2],"categories":[],"categories_nodes":[],"categories_segments":[],"categories_sizes":[],"default_left":[0,0,0,0,0,1,1,0,0,0,0,0,0,0,0],"id":52,"left_children":[1,3,5,7,9,11,13,-1,-1,-1,-1,-1,-1,-1,-1],"loss_changes":[1.0737762E1,4.73568E0,8.129255E0,6.6301894E0,4.973316E0,7.6801796E0,6.6976643E0,0E0,0E0,0E0,0E0,0E0,0E0,0E0,0E0],"parents":[2147483647,0,0,1,1,2,2,3,3,4,4,5,5,6,6],"right_children":[2,4,6,8,10,12,14,-1,-1,-1,-1,-1,-1,-1,-1],"split_conditions":[-2.925E-1,1.01E0,6.9E0,-6.4285713E-1,8E-1,4.1309495E0,4.98E0,-1.3037773E-2,8.245496E-3,-7.1160304E-3,-2.7984643E-2,-3.0413156E-2,1.2315686E-2,5.7451962E-3,2.8934777E-2],"split_indices":[28,34,43,10,10,40,41,0,0,0,0,0,0,0,0],"split_type":[0,0,0,0,0,0,0,0,0,0,0,0,0,0,0],"sum_hessian":[7.492002E2,2.9321512E2,4.5598508E2,1.4799721E2,1.452179E2,4.1607803E1,4.143773E2,5.9339256E1,8.865795E1,1.0648849E2,3.8729416E1,2.656901E1,1.5038795E1,3.8206458E2,3.231269E1],"tree_param":{"num_deleted":"0","num_feature":"50","num_nodes":"15","size_leaf_vector":"1"}},{"base_weights":[2.1453874E-2,6.708627E-2,-1.6780515E-1,1.0942274E-1,-1.9673003E-1,-3.065182E-2,-7.280456E-2,1.4830293E-2,2.3399794E-3,1.1281241E-2,-1.6553601E-2,1.2443351E-2,-1.2887903E-2],"categories":[],"categories_nodes":[],"categories_segments":[],"categories_sizes":[],"default_left":[1,0,0,0,0,0,0,0,0,0,0,0,0],"id":53,"left_children":[1,3,5,7,9,-1,11,-1,-1,-1,-1,-1,-1],"loss_changes":[6.591618E0,6.9106655E0,6.1080937E0,6.1755857E0,5.0126314E0,0E0,7.538874E0,0E0,0E0,0E0,0E0,0E0,0E0],"parents":[2147483647,0,0,1,1,2,2,3,3,4,4,6,6],"right_children":[2,4,6,8,10,-1,12,-1,-1,-1,-1,-1,-1],"split_conditions":[1.297E0,2.4E0,-1.2628572E-1,3.2523997E0,-1.8E0,-3.065182E-2,1.7952381E-1,1.4830293E-2,2.3399794E-3,1.1281241E-2,-1.6553601E-2,1.2443351E-2,-1.2887903E-2],"split_indices":[42,15,27,39,13,0,26,0,0,0,0,0,0],"split_type":[0,0,0,0,0,0,0,0,0,0,0,0,0],"sum_hessian":[7.59801E2,6.1366034E2,1.461407E2,5.3013525E2,8.3525055E1,2.359613E1,1.2254457E2,1.3062434E2,3.9951093E2,1.9648676E1,6.387638E1,4.4287624E1,7.825695E1],"tree_param":{"num_deleted":"0","num_feature":"50","num_nodes":"13","size_leaf_vector":"1"}},{"base_weights":[4.1315625E-3,6.432838E-2,-1.421381E-1,1.8886936E-1,-1.926835E-2,-1.7897525E-1,1.5435906E-2,3.3054184E-2,6.7421817E-3,-7.3454985E-3,5.513469E-3,-1.0985366E-2,1.3574726E-2],"categories":[],"categories_nodes":[],"categories_segments":[],"categories_sizes":[],"default_left":[0,0,0,0,0,1,0,0,0,0,0,0,0],"id":54,"left_children":[1,3,5,7,9,11,-1,-1,-1,-1,-1,-1,-1],"loss_changes":[6.6198325E0,5.580122E0,3.7346115E0,5.2271156E0,5.3377333E0,3.8557982E0,0E0,0E0,0E0,0E0,0E0,0E0,0E0],"parents":[2147483647,0,0,1,1,2,2,3,3,4,4,5,5],"right_children":[2,4,6,8,10,12,-1,-1,-1,-1,-1,-1,-1],"split_conditions":[4.9333334E0,1.4285715E-1,1.08E0,9.6E-1,3.0075E0,3.6335404E0,1.5435906E-2,3.3054184E-2,6.7421817E-3,-7.3454985E-3,5.513469E-3,-1.0985366E-2,1.3574726E-2],"split_indices":[4,10,34,34,21,44,0,0,0,0,0,0,0],"split_type":[0,0,0,0,0,0,0,0,0,0,0,0,0],"sum_hessian":[7.4863605E2,5.316438E2,2.1699223E2,2.1299905E2,3.186447E2,2.0192209E2,1.5070153E1,1.937008E1,1.9362898E2,1.6075075E2,1.5789398E2,1.8632121E2,1.560088E1],"tree_param":{"num_deleted":"0","num_feature":"50","num_nodes":"13","size_leaf_vector":"1"}},{"base_weights":[-1.767154E-2,3.7549827E-2,-1.4312126E-1,-3.0488385E-2,2.2662902E-1,-2.1672009E-1,1.3939033E-1,-9.544783E-3,4.4921488E-3,2.7262652E-3,1.9762514E-2,-1.4252307E-2,9.766651E-3,2.59537E-2,-1.794129E-2],"categories":[],"categories_nodes":[],"categories_segments":[],"categories_sizes":[],"default_left":[0,0,0,0,0,1,0,0,0,0,0,0,0,0,0],"id":55,"left_children":[1,3,5,7,9,11,13,-1,-1,-1,-1,-1,-1,-1,-1],"loss_changes":[5.1705565E0,6.6863403E0,4.812119E0,7.4114995E0,3.9014463E0,5.24623E0,9.485571E0,0E0,0E0,0E0,0E0,0E0,0E0,0E0,0E0],"parents":[2147483647,0,0,1,1,2,2,3,3,4,4,5,5,6,6],"right_children":[2,4,6,8,10,12,14,-1,-1,-1,-1,-1,-1,-1,-1],"split_conditions":[4.9333334E0,3.335E0,1.1818181E0,4E0,2E-1,1.392E0,1.01E0,-9.544783E-3,4.4921488E-3,2.7262652E-3,1.9762514E-2,-1.4252307E-2,9.766651E-3,2.59537E-2,-1.794129E-2],"split_indices":[4,21,3,4,16,37,34,0,0,0,0,0,0,0,0],"split_type":[0,0,0,0,0,0,0,0,0,0,0,0,0,0,0],"sum_hessian":[7.4130536E2,5.1514795E2,2.2615736E2,3.796746E2,1.3547339E2,1.8006679E2,4.609058E1,1.6259119E2,2.1708339E2,6.86477E1,6.682568E1,1.5519218E2,2.4874596E1,2.6223215E1,1.9867365E1],"tree_param":{"num_deleted":"0","num_feature":"50","num_nodes":"15","size_leaf_vector":"1"}},{"base_weights":[-1.34161785E-2,6.964239E-3,-2.7464023E-2,9.153626E-2,-8.301629E-2,-4.8370496E-4,1.1670763E-2,-8.6012465E-4,-2.833783E-2],"categories":[],"categories_nodes":[],"categories_segments":[],"categories_sizes":[],"default_left":[0,0,0,0,0,0,0,0,0],"id":56,"left_children":[1,3,-1,5,7,-1,-1,-1,-1],"loss_changes":[8.302851E0,5.561614E0,0E0,5.4430866E0,1.1178133E1,0E0,0E0,0E0,0E0],"parents":[2147483647,0,0,1,1,3,3,4,4],"right_children":[2,4,-1,6,8,-1,-1,-1,-1],"split_conditions":[1E0,6E-1,-2.7464023E-2,3.09E0,5.2E0,-4.8370496E-4,1.1670763E-2,-8.6012465E-4,-2.833783E-2],"split_indices":[14,14,0,21,5,0,0,0,0],"split_type":[0,0,0,0,0,0,0,0,0],"sum_hessian":[7.525888E2,7.267364E2,2.5852423E1,3.7518222E2,3.5155417E2,2.1965126E2,1.5553094E2,3.114576E2,4.009656E1],"tree_param":{"num_deleted":"0","num_feature":"50","num_nodes":"9","size_leaf_vector":"1"}},{"base_weights":[-1.1933685E-2,-1.3781537E-1,6.7298755E-2,-2.1887827E-1,9.13227E-2,4.1999456E-1,1.3230592E-2,-5.520962E-3,-3.1353306E-2,1.6571619E-2,-9.410253E-3,9.977079E-3,3.2150365E-2,2.5761258E-3,-2.4884213E-2],"categories":[],"categories_nodes":[],"categories_segments":[],"categories_sizes":[],"default_left":[0,0,0,0,0,0,0,0,0,0,0,0,0,0,0],"id":57,"left_children":[1,3,5,7,9,11,13,-1,-1,-1,-1,-1,-1,-1,-1],"loss_changes":[7.5048304E0,5.454421E0,8.737965E0,9.338319E0,5.3127847E0,2.6569233E0,7.8731804E0,0E0,0E0,0E0,0E0,0E0,0E0,0E0,0E0],"parents":[2147483647,0,0,1,1,2,2,3,3,4,4,5,5,6,6],"right_children":[2,4,6,8,10,12,14,-1,-1,-1,-1,-1,-1,-1,-1],"split_conditions":[1.483E0,7.621539E-2,-2.2E0,4.544E0,8.457143E-1,4E0,5.9333334E0,-5.520962E-3,-3.1353306E-2,1.6571619E-2,-9.410253E-3,9.977079E-3,3.2150365E-2,2.5761258E-3,-2.4884213E-2],"split_indices":[42,27,15,22,26,4,1,0,0,0,0,0,0,0,0],"split_type":[0,0,0,0,0,0,0,0,0,0,0,0,0,0,0],"sum_hessian":[7.4787915E2,2.8881055E2,4.590686E2,2.13726E2,7.508454E1,5.8975582E1,4.0009302E2,1.710599E2,4.266609E1,4.0382782E1,3.4701763E1,3.1789185E1,2.71864E1,3.7405264E2,2.6040367E1],"tree_param":{"num_deleted":"0","num_feature":"50","num_nodes":"15","size_leaf_vector":"1"}},{"base_weights":[-2.3157166E-3,-2.6170965E-2,4.089084E-1,-2.544031E-2,-1.1520683E-2,3.6397766E-2,6.7042406E-3,1.3621911E-2,-2.1271189E-3],"categories":[],"categories_nodes":[],"categories_segments":[],"categories_sizes":[],"default_left":[1,0,1,0,0,0,0,0,0],"id":58,"left_children":[1,3,5,-1,7,-1,-1,-1,-1],"loss_changes":[7.2042847E0,4.8706393E0,3.2478752E0,0E0,5.9862623E0,0E0,0E0,0E0,0E0],"parents":[2147483647,0,0,1,1,2,2,4,4],"right_children":[2,4,6,-1,8,-1,-1,-1,-1],"split_conditions":[5.1881304E0,2.910145E0,3.55E0,-2.544031E-2,3.53E0,3.6397766E-2,6.7042406E-3,1.3621911E-2,-2.1271189E-3],"split_indices":[45,40,36,0,36,0,0,0,0],"split_type":[0,0,0,0,0,0,0,0,0],"sum_hessian":[7.3411237E2,6.9586115E2,3.8251244E1,1.8311916E1,6.7754926E2,1.600699E1,2.2244253E1,6.487984E1,6.126694E2],"tree_param":{"num_deleted":"0","num_feature":"50","num_nodes":"9","size_leaf_vector":"1"}},{"base_weights":[-3.9352164E-2,-2.0400094E-2,-2.3321645E-2,1.8944312E-2,-3.734916E-2,1.0552596E-2,-3.3496954E-3],"categories":[],"categories_nodes":[],"categories_segments":[],"categories_sizes":[],"default_left":[1,0,0,0,0,0,0],"id":59,"left_children":[1,3,-1,-1,5,-1,-1],"loss_changes":[6.0203395E0,4.8838162E0,0E0,0E0,5.132874E0,0E0,0E0],"parents":[2147483647,0,0,1,1,4,4],"right_children":[2,4,-1,-1,6,-1,-1],"split_conditions":[1.572E0,2E-1,-2.3321645E-2,1.8944312E-2,-1.1E0,1.0552596E-2,-3.3496954E-3],"split_indices":[37,14,0,0,48,0,0],"split_type":[0,0,0,0,0,0,0],"sum_hessian":[7.501628E2,7.2051886E2,2.9643951E1,2.7360115E1,6.9315875E2,7.223882E1,6.209199E2],"tree_param":{"num_deleted":"0","num_feature":"50","num_nodes":"7","size_leaf_vector":"1"}},{"base_weights":[5.694541E-3,2.1945916E-1,-4.77091E-2,3.024056E-1,-8.667087E-3,9.813858E-2,-1.2335557E-1,2.7955046E-2,3.8162475E-3,8.68888E-3,-1.21271415E-2,1.8126573E-2,-8.183084E-3],"categories":[],"categories_nodes":[],"categories_segments":[],"categories_sizes":[],"default_left":[0,0,0,0,0,0,0,0,0,0,0,0,0],"id":60,"left_children":[1,3,5,7,-1,9,11,-1,-1,-1,-1,-1,-1],"loss_changes":[8.804813E0,5.142908E0,6.8197737E0,7.2958183E0,0E0,5.5132093E0,8.064956E0,0E0,0E0,0E0,0E0,0E0,0E0],"parents":[2147483647,0,0,1,1,2,2,3,3,5,5,6,6],"right_children":[2,4,6,8,-1,10,12,-1,-1,-1,-1,-1,-1],"split_conditions":[4E-1,8.983334E0,-8E-1,1E0,-8.667087E-3,2E-1,7.07E0,2.7955046E-2,3.8162475E-3,8.68888E-3,-1.21271415E-2,1.8126573E-2,-8.183084E-3],"split_indices":[14,24,13,9,0,9,24,0,0,0,0,0,0],"split_type":[0,0,0,0,0,0,0,0,0,0,0,0,0],"sum_hessian":[7.659436E2,1.522339E2,6.137097E2,1.2628216E2,2.5951736E1,2.0894453E2,4.047652E2,5.755032E1,6.873184E1,1.7202452E2,3.6920002E1,2.9590014E1,3.7517517E2],"tree_param":{"num_deleted":"0","num_feature":"50","num_nodes":"13","size_leaf_vector":"1"}},{"base_weights":[2.4598923E-3,1.7371494E-1,-4.9251698E-2,2.4861944E-1,-2.057511E-2,-1.6525659E-1,7.6149E-2,4.18625E-3,2.8603634E-2,1.3404819E-2,-1.0499692E-2,1.7710321E-3,2.3521414E-2],"categories":[],"categories_nodes":[],"categories_segments":[],"categories_sizes":[],"default_left":[0,0,0,0,0,0,0,0,0,0,0,0,0],"id":61,"left_children":[1,3,5,7,-1,9,11,-1,-1,-1,-1,-1,-1],"loss_changes":[6.6888323E0,7.8721952E0,8.452082E0,8.201504E0,0E0,5.9547377E0,4.396847E0,0E0,0E0,0E0,0E0,0E0,0E0],"parents":[2147483647,0,0,1,1,2,2,3,3,5,5,6,6],"right_children":[2,4,6,8,-1,10,12,-1,-1,-1,-1,-1,-1],"split_conditions":[3.7E0,9.288889E0,4.733333E0,3.2057142E0,-2.057511E-2,2.1686747E0,9.235714E0,4.18625E-3,2.8603634E-2,1.3404819E-2,-1.0499692E-2,1.7710321E-3,2.3521414E-2],"split_indices":[1,20,1,25,0,39,20,0,0,0,0,0,0],"split_type":[0,0,0,0,0,0,0,0,0,0,0,0,0],"sum_hessian":[7.499616E2,1.7328915E2,5.766724E2,1.547972E2,1.8491957E1,2.9964267E2,2.770298E2,1.04401054E2,5.0396145E1,2.6895483E1,2.727472E2,2.5329785E2,2.3731924E1],"tree_param":{"num_deleted":"0","num_feature":"50","num_nodes":"13","size_leaf_vector":"1"}},{"base_weights":[2.4113446E-2,1.9536386E-1,-2.8136892E-2,3.22439E-1,-2.7518004E-2,2.2197036E-1,-8.869161E-2,2.8199224E-2,3.800607E-3,2.0816324E-2,-1.2804868E-2,7.960587E-4,2.0029107E-2,-2.3466784E-3,-2.6523415E-2],"categories":[],"categories_nodes":[],"categories_segments":[],"categories_sizes":[],"default_left":[0,1,0,0,0,0,0,0,0,0,0,0,0,0,0],"id":62,"left_children":[1,3,5,7,9,11,13,-1,-1,-1,-1,-1,-1,-1,-1],"loss_changes":[6.682396E0,4.991424E0,8.676193E0,6.49432E0,6.7861E0,4.05199E0,8.407392E0,0E0,0E0,0E0,0E0,0E0,0E0,0E0,0E0],"parents":[2147483647,0,0,1,1,2,2,3,3,4,4,5,5,6,6],"right_children":[2,4,6,8,10,12,14,-1,-1,-1,-1,-1,-1,-1,-1],"split_conditions":[3.7333333E0,7.6E0,2.5E-1,6.1538464E-1,1.12E0,2.848E0,2.6E0,2.8199224E-2,3.800607E-3,2.0816324E-2,-1.2804868E-2,7.960587E-4,2.0029107E-2,-2.3466784E-3,-2.6523415E-2],"split_indices":[1,38,14,2,37,21,17,0,0,0,0,0,0,0,0],"split_type":[0,0,0,0,0,0,0,0,0,0,0,0,0,0,0],"sum_hessian":[7.4171466E2,1.7256593E2,5.6914874E2,1.0962119E2,6.2944736E1,1.0957829E2,4.5957047E2,5.385242E1,5.5768776E1,2.0689888E1,4.225485E1,5.215252E1,5.7425774E1,4.221102E2,3.746027E1],"tree_param":{"num_deleted":"0","num_feature":"50","num_nodes":"15","size_leaf_vector":"1"}},{"base_weights":[2.2649948E-2,3.508372E-1,-3.497902E-3,3.187124E-2,1.820679E-1,2.3757556E-2,-3.0600414E-1,-8.600246E-3,3.045216E-2,-1.0764012E-3,9.751567E-3,-2.87877E-2,1.3538909E-3],"categories":[],"categories_nodes":[],"categories_segments":[],"categories_sizes":[],"default_left":[0,0,0,0,0,1,0,0,0,0,0,0,0],"id":63,"left_children":[1,3,5,-1,7,9,11,-1,-1,-1,-1,-1,-1],"loss_changes":[6.419077E0,2.3549323E0,5.73596E0,0E0,5.960133E0,4.9508634E0,5.2540746E0,0E0,0E0,0E0,0E0,0E0,0E0],"parents":[2147483647,0,0,1,1,2,2,4,4,5,5,6,6],"right_children":[2,4,6,-1,8,10,12,-1,-1,-1,-1,-1,-1],"split_conditions":[7.07E0,8.3333336E-2,9.333333E0,3.187124E-2,1.5941521E0,-4.2E-1,1.0708333E0,-8.600246E-3,3.045216E-2,-1.0764012E-3,9.751567E-3,-2.87877E-2,1.3538909E-3],"split_indices":[24,10,20,0,28,46,28,0,0,0,0,0,0],"split_type":[0,0,0,0,0,0,0,0,0,0,0,0,0],"sum_hessian":[7.416892E2,5.3181858E1,6.885073E2,1.743282E1,3.574904E1,6.329882E2,5.5519142E1,2.0067774E1,1.5681265E1,5.0154272E2,1.3144548E2,3.0036703E1,2.548244E1],"tree_param":{"num_deleted":"0","num_feature":"50","num_nodes":"13","size_leaf_vector":"1"}},{"base_weights":[2.138675E-2,4.8427048E-1,-1.0915211E-3,4.1355643E-2,2.7915414E-3,2.165297E-2,-3.1840052E-2,-1.1987662E-2,2.9652442E-3],"categories":[],"categories_nodes":[],"categories_segments":[],"categories_sizes":[],"default_left":[0,0,0,0,0,0,0,0,0],"id":64,"left_children":[1,3,5,-1,-1,7,-1,-1,-1],"loss_changes":[7.7684674E0,4.8970356E0,1.0344893E1,0E0,0E0,6.7681055E0,0E0,0E0,0E0],"parents":[2147483647,0,0,1,1,2,2,5,5],"right_children":[2,4,6,-1,-1,8,-1,-1,-1],"split_conditions":[3.5483334E0,3.4922223E0,1E0,4.1355643E-2,2.7915414E-3,-1.0495238E0,-3.1840052E-2,-1.1987662E-2,2.9652442E-3],"split_indices":[22,25,14,0,0,26,0,0,0],"split_type":[0,0,0,0,0,0,0,0,0],"sum_hessian":[7.398763E2,3.256859E1,7.073077E2,1.6928085E1,1.5640502E1,6.845889E2,2.2718733E1,8.450491E1,6.0008405E2],"tree_param":{"num_deleted":"0","num_feature":"50","num_nodes":"9","size_leaf_vector":"1"}},{"base_weights":[1.4202202E-2,1.8054728E-1,-3.5642467E-2,3.1186202E-1,-2.3861392E-1,1.7201927E-2,-2.4072388E-1,2.8013717E-3,2.3586793E-2,5.9990208E-3,-2.8142115E-2,5.2189417E-3,-6.753211E-3,-1.7263161E-2,2.1315288E-2],"categories":[],"categories_nodes":[],"categories_segments":[],"categories_sizes":[],"default_left":[0,1,0,0,0,0,0,0,0,0,0,0,0,0,0],"id":65,"left_children":[1,3,5,7,9,11,13,-1,-1,-1,-1,-1,-1,-1,-1],"loss_changes":[6.3266277E0,9.841148E0,6.3789377E0,5.4172993E0,5.170127E0,6.227325E0,8.691374E0,0E0,0E0,0E0,0E0,0E0,0E0,0E0,0E0],"parents":[2147483647,0,0,1,1,2,2,3,3,4,4,5,5,6,6],"right_children":[2,4,6,8,10,12,14,-1,-1,-1,-1,-1,-1,-1,-1],"split_conditions":[3.7333333E0,1.279E0,8E-1,-2.5E-1,8.6125E0,2.4958333E-1,1.1471429E-1,2.8013717E-3,2.3586793E-2,5.9990208E-3,-2.8142115E-2,5.2189417E-3,-6.753211E-3,-1.7263161E-2,2.1315288E-2],"split_indices":[1,42,14,10,20,26,27,0,0,0,0,0,0,0,0],"split_type":[0,0,0,0,0,0,0,0,0,0,0,0,0,0,0],"sum_hessian":[7.577335E2,1.7395631E2,5.837772E2,1.3303094E2,4.0925365E1,4.6524084E2,1.1853639E2,5.244053E1,8.0590416E1,1.9884605E1,2.1040758E1,2.9667264E2,1.6856819E2,1.03439644E2,1.5096747E1],"tree_param":{"num_deleted":"0","num_feature":"50","num_nodes":"15","size_leaf_vector":"1"}},{"base_weights":[2.5634007E-3,1.7022854E-2,-2.6800785E-2,2.4024278E-2,-1.9134518E-3,2.6074028E-2,-8.704491E-4],"categories":[],"categories_nodes":[],"categories_segments":[],"categories_sizes":[],"default_left":[0,0,0,0,0,0,0],"id":66,"left_children":[1,3,-1,-1,5,-1,-1],"loss_changes":[5.901764E0,6.582386E0,0E0,0E0,5.7821927E0,0E0,0E0],"parents":[2147483647,0,0,1,1,4,4],"right_children":[2,4,-1,-1,6,-1,-1],"split_conditions":[6.5E0,2E-1,-2.6800785E-2,2.4024278E-2,-2.3333333E0,2.6074028E-2,-8.704491E-4],"split_indices":[1,14,0,0,3,0,0],"split_type":[0,0,0,0,0,0,0],"sum_hessian":[7.601662E2,7.423582E2,1.7807934E1,2.7434599E1,7.1492365E2,1.8493864E1,6.964298E2],"tree_param":{"num_deleted":"0","num_feature":"50","num_nodes":"7","size_leaf_vector":"1"}},{"base_weights":[-2.9351315E-2,-5.758027E-2,3.029304E-1,1.9501601E-1,-9.151435E-2,-1.1006715E-2,4.9686947E-1,3.5986062E-2,1.7556519E-3,-2.9819438E-3,-1.8406553E-2,3.740243E-2,5.7060192E-3],"categories":[],"categories_nodes":[],"categories_segments":[],"categories_sizes":[],"default_left":[0,0,0,0,0,0,0,0,0,0,0,0,0],"id":67,"left_children":[1,3,5,7,9,-1,11,-1,-1,-1,-1,-1,-1],"loss_changes":[7.0652556E0,5.9842443E0,6.2249994E0,6.806096E0,5.3321323E0,0E0,3.9488945E0,0E0,0E0,0E0,0E0,0E0,0E0],"parents":[2147483647,0,0,1,1,2,2,3,3,4,4,6,6],"right_children":[2,4,6,8,10,-1,12,-1,-1,-1,-1,-1,-1],"split_conditions":[1.9090909E0,-2.4E0,6E-1,3.8333333E0,1.2727273E0,-1.1006715E-2,3.3333333E0,3.5986062E-2,1.7556519E-3,-2.9819438E-3,-1.8406553E-2,3.740243E-2,5.7060192E-3],"split_indices":[10,13,13,4,10,0,9,0,0,0,0,0,0],"split_type":[0,0,0,0,0,0,0,0,0,0,0,0,0],"sum_hessian":[7.5012476E2,6.9318933E2,5.6935444E1,8.062175E1,6.1256757E2,1.518767E1,4.1747772E1,1.70492E1,6.3572548E1,5.5177716E2,6.0790424E1,2.3895964E1,1.785181E1],"tree_param":{"num_deleted":"0","num_feature":"50","num_nodes":"13","size_leaf_vector":"1"}},{"base_weights":[3.331532E-2,4.462549E-1,1.0202264E-2,8.624717E-3,3.4152146E-2,3.2876592E-2,-2.5549263E-2,-1.5946754E-4,1.0989965E-2],"categories":[],"categories_nodes":[],"categories_segments":[],"categories_sizes":[],"default_left":[0,0,0,0,0,0,0,0,0],"id":68,"left_children":[1,3,5,-1,-1,7,-1,-1,-1],"loss_changes":[7.147435E0,2.253708E0,8.457625E0,0E0,0E0,4.668388E0,0E0,0E0,0E0],"parents":[2147483647,0,0,1,1,2,2,5,5],"right_children":[2,4,6,-1,-1,8,-1,-1,-1],"split_conditions":[-3.2E0,-3.8E0,3.6E0,8.624717E-3,3.4152146E-2,1.2666667E0,-2.5549263E-2,-1.5946754E-4,1.0989965E-2],"split_indices":[13,13,15,0,0,7,0,0,0],"split_type":[0,0,0,0,0,0,0,0,0],"sum_hessian":[7.526064E2,3.7721935E1,7.1488446E2,1.9294277E1,1.8427658E1,6.870596E2,2.7824903E1,5.7713477E2,1.0992481E2],"tree_param":{"num_deleted":"0","num_feature":"50","num_nodes":"9","size_leaf_vector":"1"}},{"base_weights":[7.1905097E-3,-4.547111E-2,1.7253202E-1,-1.5584515E-2,-5.118733E-1,-1.4653018E-1,2.4630617E-1,5.7336483E-3,-5.9340755E-3,-7.5869956E-3,-4.083476E-2,9.608499E-3,-2.1586727E-2,-1.1196659E-2,1.5683906E-2],"categories":[],"categories_nodes":[],"categories_segments":[],"categories_sizes":[],"default_left":[0,0,0,0,1,0,0,0,0,0,0,0,0,0,0],"id":69,"left_children":[1,3,5,7,9,11,13,-1,-1,-1,-1,-1,-1,-1,-1],"loss_changes":[6.5590105E0,7.8762546E0,4.3674817E0,7.2513456E0,3.394249E0,3.5891232E0,4.8656826E0,0E0,0E0,0E0,0E0,0E0,0E0,0E0,0E0],"parents":[2147483647,0,0,1,1,2,2,3,3,4,4,5,5,6,6],"right_children":[2,4,6,8,10,12,14,-1,-1,-1,-1,-1,-1,-1,-1],"split_conditions":[1.4666667E0,1.2E0,1.2113637E0,8.32E0,1.048E0,3.8181818E0,-2E0,5.7336483E-3,-5.9340755E-3,-7.5869956E-3,-4.083476E-2,9.608499E-3,-2.1586727E-2,-1.1196659E-2,1.5683906E-2],"split_indices":[9,9,19,24,37,4,33,0,0,0,0,0,0,0,0],"split_type":[0,0,0,0,0,0,0,0,0,0,0,0,0,0,0],"sum_hessian":[7.4802875E2,5.679732E2,1.800555E2,5.3591364E2,3.205958E1,3.318921E1,1.4686629E2,2.3624115E2,2.996725E2,1.6220018E1,1.5839565E1,1.5309676E1,1.7879534E1,1.7636429E1,1.2922986E2],"tree_param":{"num_deleted":"0","num_feature":"50","num_nodes":"15","size_leaf_vector":"1"}},{"base_weights":[-2.07573E-2,-8.093277E-2,2.2103319E-1,-2.4523449E-1,-7.5536794E-3,6.2721354E-1,7.4298285E-2,-3.5227367E-3,-2.3322392E-2,1.5597241E-3,-2.0214336E-2,5.2156217E-2,1.2909523E-2,-1.2383331E-2,1.0051711E-2],"categories":[],"categories_nodes":[],"categories_segments":[],"categories_sizes":[],"default_left":[0,0,1,0,0,0,1,0,0,0,0,0,0,0,0],"id":70,"left_children":[1,3,5,7,9,11,13,-1,-1,-1,-1,-1,-1,-1,-1],"loss_changes":[1.0993658E1,7.272442E0,8.805323E0,7.090786E0,6.536346E0,5.391423E0,4.7055774E0,0E0,0E0,0E0,0E0,0E0,0E0,0E0,0E0],"parents":[2147483647,0,0,1,1,2,2,3,3,4,4,5,5,6,6],"right_children":[2,4,6,8,10,12,14,-1,-1,-1,-1,-1,-1,-1,-1],"split_conditions":[6.6E-1,3.7850468E0,1.026E0,2.7607362E0,2.8E0,8.7E0,1.875E0,-3.5227367E-3,-2.3322392E-2,1.5597241E-3,-2.0214336E-2,5.2156217E-2,1.2909523E-2,-1.2383331E-2,1.0051711E-2],"split_indices":[33,44,37,44,15,43,44,0,0,0,0,0,0,0,0],"split_type":[0,0,0,0,0,0,0,0,0,0,0,0,0,0,0],"sum_hessian":[7.5208923E2,6.036102E2,1.4847902E2,1.8448549E2,4.1912473E2,3.7485126E1,1.109939E2,1.0478462E2,7.970087E1,3.8328107E2,3.584365E1,1.5777984E1,2.1707144E1,3.0588427E1,8.0405464E1],"tree_param":{"num_deleted":"0","num_feature":"50","num_nodes":"15","size_leaf_vector":"1"}},{"base_weights":[-3.7104845E-2,-2.6259378E-2,-2.1646194E-2,1.6453706E-2,-1.8880619E-1,2.2710841E-2,-1.7537059E-4,2.229069E-3,-2.380246E-2],"categories":[],"categories_nodes":[],"categories_segments":[],"categories_sizes":[],"default_left":[0,0,1,0,0,0,0,0,0],"id":71,"left_children":[1,-1,3,5,7,-1,-1,-1,-1],"loss_changes":[5.52544E0,0E0,4.622153E0,5.198519E0,9.114169E0,0E0,0E0,0E0,0E0],"parents":[2147483647,0,0,2,2,3,3,4,4],"right_children":[2,-1,4,6,8,-1,-1,-1,-1],"split_conditions":[-3.1284285E-1,-2.6259378E-2,8.9E0,3.5483334E0,-4E-1,2.2710841E-2,-1.7537059E-4,2.229069E-3,-2.380246E-2],"split_indices":[27,0,43,22,48,0,0,0,0],"split_type":[0,0,0,0,0,0,0,0,0],"sum_hessian":[7.4058264E2,2.0512617E1,7.2007E2,5.8739343E2,1.3267659E2,2.3936941E1,5.634565E2,7.394062E1,5.8735973E1],"tree_param":{"num_deleted":"0","num_feature":"50","num_nodes":"9","size_leaf_vector":"1"}},{"base_weights":[-6.8700486E-3,2.4389848E-1,-4.2115457E-2,6.6667086E-1,-3.015522E-2,-1.08525984E-1,6.652816E-2,1.6092744E-2,4.6463184E-2,-1.0780956E-2,2.0810356E-2,-6.68651E-3,1.772548E-2,9.231807E-3,-1.14045115E-2],"categories":[],"categories_nodes":[],"categories_segments":[],"categories_sizes":[],"default_left":[0,0,0,0,0,1,1,0,0,0,0,0,0,0,0],"id":72,"left_children":[1,3,5,7,9,11,13,-1,-1,-1,-1,-1,-1,-1,-1],"loss_changes":[6.685573E0,1.0896808E1,4.8182955E0,2.6147995E0,4.984667E0,4.9065166E0,8.8847275E0,0E0,0E0,0E0,0E0,0E0,0E0,0E0,0E0],"parents":[2147483647,0,0,1,1,2,2,3,3,4,4,5,5,6,6],"right_children":[2,4,6,8,10,12,14,-1,-1,-1,-1,-1,-1,-1,-1],"split_conditions":[3.5E0,2.5E-1,2E-1,0E0,3.25E0,4.2519684E0,-2.4103742E0,1.6092744E-2,4.6463184E-2,-1.0780956E-2,2.0810356E-2,-6.68651E-3,1.772548E-2,9.231807E-3,-1.14045115E-2],"split_indices":[36,3,16,16,36,39,49,0,0,0,0,0,0,0,0],"split_type":[0,0,0,0,0,0,0,0,0,0,0,0,0,0,0],"sum_hessian":[7.543788E2,9.115319E1,6.632256E2,3.486614E1,5.628705E1,4.121894E2,2.5103621E2,1.7162237E1,1.7703903E1,4.0653435E1,1.5633615E1,3.9246487E2,1.9724533E1,1.7997359E2,7.1062614E1],"tree_param":{"num_deleted":"0","num_feature":"50","num_nodes":"15","size_leaf_vector":"1"}},{"base_weights":[-7.539092E-3,1.7087059E-1,-5.142061E-2,3.6423424E-1,-4.9814902E-2,2.2934388E-2,-7.076085E-2,3.6905633E-4,3.5493877E-2,-2.3202395E-2,8.945064E-3,9.486268E-3,-5.2837296E-3],"categories":[],"categories_nodes":[],"categories_segments":[],"categories_sizes":[],"default_left":[0,0,0,0,0,0,0,0,0,0,0,0,0],"id":73,"left_children":[1,3,5,7,9,-1,11,-1,-1,-1,-1,-1,-1],"loss_changes":[5.824571E0,6.3293967E0,5.930972E0,9.624009E0,6.8307643E0,0E0,5.293671E0,0E0,0E0,0E0,0E0,0E0,0E0],"parents":[2147483647,0,0,1,1,2,2,3,3,4,4,6,6],"right_children":[2,4,6,8,10,-1,12,-1,-1,-1,-1,-1,-1],"split_conditions":[2.5E-1,4E-1,-2.5E0,-6E-1,1.459E0,2.2934388E-2,-1.1E0,3.6905633E-4,3.5493877E-2,-2.3202395E-2,8.945064E-3,9.486268E-3,-5.2837296E-3],"split_indices":[14,3,3,3,42,0,48,0,0,0,0,0,0],"split_type":[0,0,0,0,0,0,0,0,0,0,0,0,0],"sum_hessian":[7.412657E2,1.4473756E2,5.9652814E2,7.66923E1,6.804526E1,1.9942072E1,5.7658606E2,3.8881664E1,3.781064E1,2.362922E1,4.4416035E1,6.676086E1,5.098252E2],"tree_param":{"num_deleted":"0","num_feature":"50","num_nodes":"13","size_leaf_vector":"1"}},{"base_weights":[2.167236E-2,3.7160937E-2,-1.7385108E-2,2.507696E-1,3.662333E-3,-1.0266741E-2,2.0938395E-2,1.2049413E-3,-2.5380448E-2],"categories":[],"categories_nodes":[],"categories_segments":[],"categories_sizes":[],"default_left":[1,0,0,0,0,0,0,0,0],"id":74,"left_children":[1,3,-1,5,7,-1,-1,-1,-1],"loss_changes":[4.3108807E0,5.1685677E0,0E0,7.7026415E0,6.560012E0,0E0,0E0,0E0,0E0],"parents":[2147483647,0,0,1,1,3,3,4,4],"right_children":[2,4,-1,6,8,-1,-1,-1,-1],"split_conditions":[1.572E0,-5E-1,-1.7385108E-2,-8.575E-1,1E0,-1.0266741E-2,2.0938395E-2,1.2049413E-3,-2.5380448E-2],"split_indices":[37,48,0,28,14,0,0,0,0],"split_type":[0,0,0,0,0,0,0,0,0],"sum_hessian":[7.524186E2,7.2412415E2,2.8294386E1,9.600126E1,6.281229E2,2.55621E1,7.043916E1,6.060012E2,2.2121708E1],"tree_param":{"num_deleted":"0","num_feature":"50","num_nodes":"9","size_leaf_vector":"1"}},{"base_weights":[-1.0190624E-3,-2.1987516E-2,3.6188388E-1,2.3214042E-2,-1.9235276E-1,2.6835252E-2,3.3111535E-3,-1.8561838E-2,2.7245486E-3,-3.198833E-2,-5.901111E-3],"categories":[],"categories_nodes":[],"categories_segments":[],"categories_sizes":[],"default_left":[1,1,1,0,0,0,0,0,0,0,0],"id":75,"left_children":[1,3,5,7,9,-1,-1,-1,-1,-1,-1],"loss_changes":[5.6403136E0,5.4558315E0,1.9605236E0,6.9002013E0,4.712939E0,0E0,0E0,0E0,0E0,0E0,0E0],"parents":[2147483647,0,0,1,1,2,2,3,3,4,4],"right_children":[2,4,6,8,10,-1,-1,-1,-1,-1,-1],"split_conditions":[5.1881304E0,2.8521128E0,8.2E0,3E-1,3.03681E0,2.6835252E-2,3.3111535E-3,-1.8561838E-2,2.7245486E-3,-3.198833E-2,-5.901111E-3],"split_indices":[45,39,38,2,39,0,0,0,0,0,0],"split_type":[0,0,0,0,0,0,0,0,0,0,0],"sum_hessian":[7.4159406E2,7.031222E2,3.847187E1,5.5658795E2,1.4653424E2,2.293932E1,1.5532551E1,3.905887E1,5.175291E2,1.851692E1,1.2801732E2],"tree_param":{"num_deleted":"0","num_feature":"50","num_nodes":"11","size_leaf_vector":"1"}},{"base_weights":[1.9673137E-2,1.2039797E-1,-8.319366E-2,-2.119443E-1,1.7851329E-1,-4.2750004E-1,-4.412603E-2,7.940164E-3,-2.1459077E-2,1.0743779E-2,-2.2566335E-2,-4.898244E-3,-3.341065E-2,-1.2164158E-2,2.9683777E-3],"categories":[],"categories_nodes":[],"categories_segments":[],"categories_sizes":[],"default_left":[0,0,0,0,1,0,0,0,0,0,0,0,0,0,0],"id":76,"left_children":[1,3,5,7,9,11,13,-1,-1,-1,-1,-1,-1,-1,-1],"loss_changes":[7.801391E0,7.4229317E0,4.9198627E0,4.778586E0,7.619952E0,2.7610803E0,6.9859724E0,0E0,0E0,0E0,0E0,0E0,0E0,0E0,0E0],"parents":[2147483647,0,0,1,1,2,2,3,3,4,4,5,5,6,6],"right_children":[2,4,6,8,10,12,14,-1,-1,-1,-1,-1,-1,-1,-1],"split_conditions":[6E-1,3.0769232E-1,-1.3333334E0,-2.2E0,1.512E0,1.2835E0,4E0,7.940164E-3,-2.1459077E-2,1.0743779E-2,-2.2566335E-2,-4.898244E-3,-3.341065E-2,-1.2164158E-2,2.9683777E-3],"split_indices":[12,2,10,3,37,23,4,0,0,0,0,0,0,0,0],"split_type":[0,0,0,0,0,0,0,0,0,0,0,0,0,0,0],"sum_hessian":[7.4864734E2,3.7858084E2,3.700665E2,5.5303543E1,3.232773E2,3.5424297E1,3.346422E2,2.046117E1,3.4842373E1,3.0702823E2,1.6249084E1,1.631648E1,1.9107817E1,1.1383995E2,2.2080225E2],"tree_param":{"num_deleted":"0","num_feature":"50","num_nodes":"15","size_leaf_vector":"1"}},{"base_weights":[-8.195079E-3,-6.863418E-2,9.901903E-2,-5.114356E-2,-2.4978904E-2,3.2488495E-1,-1.20319715E-2,1.3982765E-2,-3.6340503E-3,-5.957443E-3,2.2729076E-2,8.428808E-3,-1.0187122E-2],"categories":[],"categories_nodes":[],"categories_segments":[],"categories_sizes":[],"default_left":[0,1,0,0,0,0,0,0,0,0,0,0,0],"id":77,"left_children":[1,3,5,7,-1,9,11,-1,-1,-1,-1,-1,-1],"loss_changes":[4.837534E0,3.4978647E0,6.7804117E0,3.3111496E0,0E0,5.264782E0,6.367235E0,0E0,0E0,0E0,0E0,0E0,0E0],"parents":[2147483647,0,0,1,1,2,2,3,3,5,5,6,6],"right_children":[2,4,6,8,-1,10,12,-1,-1,-1,-1,-1,-1],"split_conditions":[7.5E-1,1.65E0,2.82E0,3E0,-2.4978904E-2,3.109756E0,1.251E0,1.3982765E-2,-3.6340503E-3,-5.957443E-3,2.2729076E-2,8.428808E-3,-1.0187122E-2],"split_indices":[15,42,25,1,0,44,23,0,0,0,0,0,0],"split_type":[0,0,0,0,0,0,0,0,0,0,0,0,0],"sum_hessian":[7.429131E2,4.761491E2,2.6676398E2,4.599506E2,1.6198505E1,8.695539E1,1.7980861E2,2.6366638E1,4.3358395E2,1.9519472E1,6.743591E1,9.244088E1,8.736772E1],"tree_param":{"num_deleted":"0","num_feature":"50","num_nodes":"13","size_leaf_vector":"1"}},{"base_weights":[-6.7281374E-3,2.3243165E-2,-1.9955974E-2,6.672214E-2,-1.0606072E-1,1.3646791E-2,-2.44696E-4,-3.0010222E-2,-3.0084082E-3],"categories":[],"categories_nodes":[],"categories_segments":[],"categories_sizes":[],"default_left":[0,0,0,0,0,0,0,0,0],"id":78,"left_children":[1,-1,3,5,7,-1,-1,-1,-1],"loss_changes":[4.6194444E0,0E0,5.440104E0,5.3856707E0,8.1571045E0,0E0,0E0,0E0,0E0],"parents":[2147483647,0,0,2,2,3,3,4,4],"right_children":[2,-1,4,6,8,-1,-1,-1,-1],"split_conditions":[6.1E0,2.3243165E-2,6E-1,0E0,7.2E0,1.3646791E-2,-2.44696E-4,-3.0010222E-2,-3.0084082E-3],"split_indices":[38,0,14,8,38,0,0,0,0],"split_type":[0,0,0,0,0,0,0,0,0],"sum_hessian":[7.4267487E2,1.8193813E1,7.244811E2,3.6068405E2,3.63797E2,9.188409E1,2.6879996E2,2.8677612E1,3.351194E2],"tree_param":{"num_deleted":"0","num_feature":"50","num_nodes":"9","size_leaf_vector":"1"}},{"base_weights":[-1.7272077E-3,4.585064E-2,-1.6466664E-1,-3.4999004E-1,7.767588E-2,-3.126536E-1,1.1800995E-1,-3.3669353E-2,-5.516361E-3,3.1192152E-2,2.6848442E-3,-2.6233445E-3,-2.485109E-2,-1.5864665E-2,1.5037899E-2],"categories":[],"categories_nodes":[],"categories_segments":[],"categories_sizes":[],"default_left":[1,0,0,0,0,0,0,0,0,0,0,0,0,0,0],"id":79,"left_children":[1,3,5,7,9,11,13,-1,-1,-1,-1,-1,-1,-1,-1],"loss_changes":[5.822369E0,7.330101E0,7.19911E0,3.1266446E0,6.9168983E0,5.2787476E0,4.929602E0,0E0,0E0,0E0,0E0,0E0,0E0,0E0,0E0],"parents":[2147483647,0,0,1,1,2,2,3,3,4,4,5,5,6,6],"right_children":[2,4,6,8,10,12,14,-1,-1,-1,-1,-1,-1,-1,-1],"split_conditions":[2.8153381E0,-1.8E0,3.9727274E-1,-9.8571426E-1,-1.5333333E0,-1.25E-1,3.8E0,-3.3669353E-2,-5.516361E-3,3.1192152E-2,2.6848442E-3,-2.6233445E-3,-2.485109E-2,-1.5864665E-2,1.5037899E-2],"split_indices":[39,3,28,28,3,8,40,0,0,0,0,0,0,0,0],"split_type":[0,0,0,0,0,0,0,0,0,0,0,0,0,0,0],"sum_hessian":[7.4556934E2,5.777047E2,1.6786464E2,4.1268806E1,5.364359E2,1.1027506E2,5.7589573E1,1.5847607E1,2.5421202E1,2.0281588E1,5.161543E2,4.70243E1,6.3250763E1,1.6431145E1,4.115843E1],"tree_param":{"num_deleted":"0","num_feature":"50","num_nodes":"15","size_leaf_vector":"1"}},{"base_weights":[2.91957E-2,3.9539918E-1,7.3170313E-3,-6.836832E-4,3.2984976E-2,4.561462E-2,-2.0699042E-1,6.2493263E-3,-4.5966003E-3,-4.517668E-3,-4.002587E-2],"categories":[],"categories_nodes":[],"categories_segments":[],"categories_sizes":[],"default_left":[0,0,0,0,0,0,0,0,0,0,0],"id":80,"left_children":[1,3,5,-1,-1,7,9,-1,-1,-1,-1],"loss_changes":[5.9506927E0,4.612841E0,5.818276E0,0E0,0E0,6.611352E0,7.200667E0,0E0,0E0,0E0,0E0],"parents":[2147483647,0,0,1,1,2,2,5,5,6,6],"right_children":[2,4,6,-1,-1,8,10,-1,-1,-1,-1],"split_conditions":[-3.2E0,-6.7E-1,2.2E0,-6.836832E-4,3.2984976E-2,6.666667E-1,4.7272725E0,6.2493263E-3,-4.5966003E-3,-4.517668E-3,-4.002587E-2],"split_indices":[13,28,15,0,0,10,5,0,0,0,0],"split_type":[0,0,0,0,0,0,0,0,0,0,0],"sum_hessian":[7.464669E2,3.990047E1,7.0656647E2,1.62569E1,2.3643572E1,6.0117505E2,1.05391426E2,3.8177798E2,2.1939705E2,9.014877E1,1.5242655E1],"tree_param":{"num_deleted":"0","num_feature":"50","num_nodes":"11","size_leaf_vector":"1"}},{"base_weights":[3.467779E-3,2.4559153E-2,-1.6479816E-2,1.3391019E-3,-2.4308104E-2,8.8540744E-4,-2.050878E-2],"categories":[],"categories_nodes":[],"categories_segments":[],"categories_sizes":[],"default_left":[0,0,1,0,0,0,0],"id":81,"left_children":[1,-1,3,5,-1,-1,-1],"loss_changes":[7.2885084E0,0E0,6.035348E0,4.628817E0,0E0,0E0,0E0],"parents":[2147483647,0,0,2,2,3,3],"right_children":[2,-1,4,6,-1,-1,-1],"split_conditions":[2E-1,2.4559153E-2,1.3811004E0,1E0,-2.4308104E-2,8.8540744E-4,-2.050878E-2],"split_indices":[14,0,49,14,0,0,0],"split_type":[0,0,0,0,0,0,0],"sum_hessian":[7.406289E2,2.744202E1,7.131869E2,6.888351E2,2.4351803E1,6.6455756E2,2.4277533E1],"tree_param":{"num_deleted":"0","num_feature":"50","num_nodes":"7","size_leaf_vector":"1"}},{"base_weights":[3.7029564E-2,4.1033146E-1,1.3644942E-2,3.2313187E-2,1.1827716E-2,5.553365E-2,-2.7527773E-1,5.027021E-3,-1.2001061E-2,-3.0622387E-3,-3.1088373E-2],"categories":[],"categories_nodes":[],"categories_segments":[],"categories_sizes":[],"default_left":[0,0,0,0,0,0,1,0,0,0,0],"id":82,"left_children":[1,3,5,-1,-1,7,9,-1,-1,-1,-1],"loss_changes":[6.453865E0,1.3945141E0,8.52678E0,0E0,0E0,8.237309E0,6.4673243E0,0E0,0E0,0E0,0E0],"parents":[2147483647,0,0,1,1,2,2,5,5,6,6],"right_children":[2,4,6,-1,-1,8,10,-1,-1,-1,-1],"split_conditions":[-3.2E0,5.2222223E0,5.2933335E0,3.2313187E-2,1.1827716E-2,2.4E0,2.176095E0,5.027021E-3,-1.2001061E-2,-3.0622387E-3,-3.1088373E-2],"split_indices":[13,1,18,0,0,15,44,0,0,0,0],"split_type":[0,0,0,0,0,0,0,0,0,0,0],"sum_hessian":[7.434542E2,4.1623554E1,7.018307E2,1.5103997E1,2.6519556E1,6.146753E2,8.715541E1,5.34882E2,7.979324E1,5.5508766E1,3.1646645E1],"tree_param":{"num_deleted":"0","num_feature":"50","num_nodes":"11","size_leaf_vector":"1"}},{"base_weights":[4.018973E-2,1.4811138E-3,2.4883339E-1,1.8925726E-2,-1.7329097E-2,3.337793E-2,1.1066237E-1,-2.6028583E-2,7.7094555E-5,-1.1253875E-3,3.1731278E-2],"categories":[],"categories_nodes":[],"categories_segments":[],"categories_sizes":[],"default_left":[0,0,0,0,0,0,1,0,0,0,0],"id":83,"left_children":[1,3,5,-1,7,-1,9,-1,-1,-1,-1],"loss_changes":[6.0605173E0,4.5745645E0,6.5733776E0,0E0,5.8409824E0,0E0,6.434945E0,0E0,0E0,0E0,0E0],"parents":[2147483647,0,0,1,1,2,2,4,4,6,6],"right_children":[2,4,6,-1,8,-1,10,-1,-1,-1,-1],"split_conditions":[1.0708333E0,-2.2E0,4.1666666E-1,1.8925726E-2,-1.7757556E0,3.337793E-2,4.15E0,-2.6028583E-2,7.7094555E-5,-1.1253875E-3,3.1731278E-2],"split_indices":[28,3,2,0,49,0,36,0,0,0,0],"split_type":[0,0,0,0,0,0,0,0,0,0,0],"sum_hessian":[7.515976E2,6.36082E2,1.1551561E2,2.8661386E1,6.074206E2,2.65797E1,8.893591E1,2.0224003E1,5.871966E2,7.228679E1,1.6649126E1],"tree_param":{"num_deleted":"0","num_feature":"50","num_nodes":"11","size_leaf_vector":"1"}},{"base_weights":[-2.9806623E-2,4.5497723E-2,-1.5613177E-1,3.4027258E-1,1.9831305E-2,-4.4209074E-2,-1.0350566E-1,-3.9992477E-3,3.354537E-2,-3.897214E-3,6.7132637E-3,-1.0306838E-2,8.172858E-3],"categories":[],"categories_nodes":[],"categories_segments":[],"categories_sizes":[],"default_left":[1,0,0,0,0,0,0,0,0,0,0,0,0],"id":84,"left_children":[1,3,5,7,9,-1,11,-1,-1,-1,-1,-1,-1],"loss_changes":[7.059621E0,3.4635992E0,1.0335871E1,5.273785E0,4.8331017E0,0E0,7.218109E0,0E0,0E0,0E0,0E0,0E0,0E0],"parents":[2147483647,0,0,1,1,2,2,3,3,4,4,6,6],"right_children":[2,4,6,8,10,-1,12,-1,-1,-1,-1,-1,-1],"split_conditions":[2.1327014E0,3.1333334E0,2.244389E0,3.0423076E0,4.43E0,-4.4209074E-2,1.34E0,-3.9992477E-3,3.354537E-2,-3.897214E-3,6.7132637E-3,-1.0306838E-2,8.172858E-3],"split_indices":[44,1,44,21,18,0,33,0,0,0,0,0,0],"split_type":[0,0,0,0,0,0,0,0,0,0,0,0,0],"sum_hessian":[7.3745905E2,4.6233948E2,2.7511954E2,3.47564E1,4.2758307E2,1.6287632E1,2.588319E2,1.5838458E1,1.8917942E1,2.3044678E2,1.971363E2,1.875576E2,7.127431E1],"tree_param":{"num_deleted":"0","num_feature":"50","num_nodes":"13","size_leaf_vector":"1"}},{"base_weights":[2.242779E-3,1.1513207E-1,-6.2125213E-2,-1.0637097E-2,3.4572592E-1,-1.19823694E-1,1.750065E-1,-5.910719E-3,1.35418475E-2,-2.807799E-3,2.2569498E-2,-3.093626E-3,-1.8074675E-2,2.4325664E-3,3.576568E-2],"categories":[],"categories_nodes":[],"categories_segments":[],"categories_sizes":[],"default_left":[0,0,0,0,0,0,0,0,0,0,0,0,0,0,0],"id":85,"left_children":[1,3,5,7,9,11,13,-1,-1,-1,-1,-1,-1,-1,-1],"loss_changes":[5.4079585E0,7.8870163E0,6.5080147E0,5.3999166E0,4.159214E0,5.26225E0,6.2058487E0,0E0,0E0,0E0,0E0,0E0,0E0,0E0,0E0],"parents":[2147483647,0,0,1,1,2,2,3,3,4,4,5,5,6,6],"right_children":[2,4,6,8,10,12,14,-1,-1,-1,-1,-1,-1,-1,-1],"split_conditions":[3.6057692E0,1.329E0,3.57E0,1.3573333E0,-8.941665E-1,8.833333E0,2.5833333E-1,-5.910719E-3,1.35418475E-2,-2.807799E-3,2.2569498E-2,-3.093626E-3,-1.8074675E-2,2.4325664E-3,3.576568E-2],"split_indices":[39,19,25,23,49,24,26,0,0,0,0,0,0,0,0],"split_type":[0,0,0,0,0,0,0,0,0,0,0,0,0,0,0],"sum_hessian":[7.395378E2,2.6854205E2,4.7099576E2,1.7472087E2,9.382117E1,3.7995648E2,9.103927E1,1.275048E2,4.7216076E1,1.9530329E1,7.429084E1,3.0882715E2,7.112933E1,7.570112E1,1.5338148E1],"tree_param":{"num_deleted":"0","num_feature":"50","num_nodes":"15","size_leaf_vector":"1"}},{"base_weights":[-6.9388613E-4,-5.320833E-2,1.2876351E-1,1.5663798E-1,-9.746702E-2,7.2382353E-3,3.958437E-1,1.2801449E-2,-1.2294229E-2,-1.8189322E-3,-1.882232E-2,3.9248015E-3,-2.329282E-2,3.1107707E-2,2.6970021E-3],"categories":[],"categories_nodes":[],"categories_segments":[],"categories_sizes":[],"default_left":[0,0,0,0,0,0,0,0,0,0,0,0,0,0,0],"id":86,"left_children":[1,3,5,7,9,11,13,-1,-1,-1,-1,-1,-1,-1,-1],"loss_changes":[5.0677958E0,4.962228E0,6.9289017E0,3.8464544E0,7.4413576E0,5.090791E0,5.0424166E0,0E0,0E0,0E0,0E0,0E0,0E0,0E0,0E0],"parents":[2147483647,0,0,1,1,2,2,3,3,4,4,5,5,6,6],"right_children":[2,4,6,8,10,12,14,-1,-1,-1,-1,-1,-1,-1,-1],"split_conditions":[1.2E0,-1.02E0,-1.3333334E-1,4.71625E0,8.822222E0,4.8E0,3.9727274E-1,1.2801449E-2,-1.2294229E-2,-1.8189322E-3,-1.882232E-2,3.9248015E-3,-2.329282E-2,3.1107707E-2,2.6970021E-3],"split_indices":[15,28,9,22,24,5,28,0,0,0,0,0,0,0,0],"split_type":[0,0,0,0,0,0,0,0,0,0,0,0,0,0,0],"sum_hessian":[7.425371E2,5.296392E2,2.128979E2,9.0971756E1,4.3866745E2,1.479893E2,6.490861E1,7.374013E1,1.7231628E1,3.6201578E2,7.665169E1,1.3025044E2,1.7738867E1,3.7894154E1,2.7014456E1],"tree_param":{"num_deleted":"0","num_feature":"50","num_nodes":"15","size_leaf_vector":"1"}},{"base_weights":[-4.2887084E-2,2.2696605E-1,-7.885885E-2,3.7517202E-1,-2.7235327E-2,-9.752987E-2,2.7831087E-2,-1.9664317E-3,2.8122619E-2,-2.0116478E-2,1.7986562E-2,-1.1617045E-2,-2.5800473E-4],"categories":[],"categories_nodes":[],"categories_segments":[],"categories_sizes":[],"default_left":[0,0,1,0,0,0,0,0,0,0,0,0,0],"id":87,"left_children":[1,3,5,7,9,11,-1,-1,-1,-1,-1,-1,-1],"loss_changes":[7.168134E0,3.3250313E0,7.7926307E0,4.3824086E0,5.168018E0,7.8780403E0,0E0,0E0,0E0,0E0,0E0,0E0,0E0],"parents":[2147483647,0,0,1,1,2,2,3,3,4,4,5,5],"right_children":[2,4,6,8,10,12,-1,-1,-1,-1,-1,-1,-1],"split_conditions":[-1.1E0,1.01E1,4.5283017E0,-1.1096137E0,8.1E0,-4.4444445E-1,2.7831087E-2,-1.9664317E-3,2.8122619E-2,-2.0116478E-2,1.7986562E-2,-1.1617045E-2,-2.5800473E-4],"split_indices":[48,43,39,49,38,9,0,0,0,0,